{"learner":{"attributes":{"scikit_learn":"{\"_estimator_type\": \"regressor\"}"},"feature_names":["tariff","global_price","production_gap","import_volume"],"feature_types":["float","float","float","float"],"gradient_booster":{"model":{"cats":{"enc":[],"feature_segments":[],"sorted_idx":[]},"gbtree_model_param":{"num_parallel_tree":"1","num_trees":"200"},"iteration_indptr":[0,1,2,3,4,5,6,7,8,9,10,11,12,13,14,15,16,17,18,19,20,21,22,23,24,25,26,27,28,29,30,31,32,33,34,35,36,37,38,39,40,41,42,43,44,45,46,47,48,49,50,51,52,53,54,55,56,57,58,59,60,61,62,63,64,65,66,67,68,69,70,71,72,73,74,75,76,77,78,79,80,81,82,83,84,85,86,87,88,89,90,91,92,93,94,95,96,97,98,99,100,101,102,103,104,105,106,107,108,109,110,111,112,113,114,115,116,117,118,119,120,121,122,123,124,125,126,127,128,129,130,131,132,133,134,135,136,137,138,139,140,141,142,143,144,145,146,147,148,149,150,151,152,153,154,155,156,157,158,159,160,161,162,163,164,165,166,167,168,169,170,171,172,173,174,175,176,177,178,179,180,181,182,183,184,185,186,187,188,189,190,191,192,193,194,195,196,197,198,199,200],"tree_info":[0,0,0,0,0,0,0,0,0,0,0,0,0,0,0,0,0,0,0,0,0,0,0,0,0,0,0,0,0,0,0,0,0,0,0,0,0,0,0,0,0,0,0,0,0,0,0,0,0,0,0,0,0,0,0,0,0,0,0,0,0,0,0,0,0,0,0,0,0,0,0,0,0,0,0,0,0,0,0,0,0,0,0,0,0,0,0,0,0,0,0,0,0,0,0,0,0,0,0,0,0,0,0,0,0,0,0,0,0,0,0,0,0,0,0,0,0,0,0,0,0,0,0,0,0,0,0,0,0,0,0,0,0,0,0,0,0,0,0,0,0,0,0,0,0,0,0,0,0,0,0,0,0,0,0,0,0,0,0,0,0,0,0,0,0,0,0,0,0,0,0,0,0,0,0,0,0,0,0,0,0,0,0,0,0,0,0,0,0,0,0,0,0,0,0,0,0,0,0,0],"trees":[{"base_weights":[-1.6677181E-1,-5.923704E0,5.9563165E0,-8.955254E0,-2.8475668E0,3.5586843E0,9.679899E0,-1.0552403E1,-7.4488964E0,-3.8554242E0,-1.6307361E0,2.1301305E0,5.654294E0,6.6825814E0,1.0513645E1,-1.3053839E1,-9.539118E0,-9.394076E0,-6.6058946E0,-7.220931E0,-3.4300709E0,3.643747E-1,-2.6961646E0,5.1097283E0,1.5484846E0,-3.254859E0,5.854907E0,1.1331647E1,6.1738715E0,1.1427268E1,7.525232E0,-1.1788622E1,-1.5034015E1,-8.459392E0,-1.0889407E1,-6.0034227E0,-1.1057108E1,6.4421743E-1,-6.8057075E0,-1.2774228E0,-6.2972784E0,-1.3725699E0,-4.213529E0,-3.5272E0,1.2347804E0,-4.6112022E0,-1.4902002E0,3.653618E0,1.1227289E1,1.3525509E0,8.3245735E0,6.289939E-1,-5.2467012E0,4.8988514E0,7.4583683E0,1.7411394E0,2.3333325E0,5.123766E0,8.473474E0,2.234869E0,1.160394E1,8.058959E0,-5.595063E-1,-1.257369E0,-4.7977218E-1,-1.5480078E0,-7.1244216E-1,3.6012283E-1,-8.631135E-1,-9.45906E-1,-1.3761724E0,-2.1981323E-1,-1.0061687E0,-1.2315699E0,-6.4088315E-1,-6.852077E-1,3.77917E-1,-8.884195E-3,-7.0171565E-1,-3.6779076E-1,-8.136884E-1,-4.888956E-2,-7.4531066E-1,-6.911432E-1,-3.46954E-1,-4.471026E-1,4.5365915E-1,-3.271376E-2,4.3270952E-1,-5.627145E-1,2.7070084E-1,6.941359E-2,-3.411421E-1,4.567496E-1,-2.069625E-1,3.0055952E-1,1.2767253E0,1.8050282E-1,-1.4094274E-1,5.3478062E-2,1.0598034E0,2.1447252E-1,-8.084631E-1,5.8830005E-1,4.6840575E-2,8.1255656E-1,-9.136725E-2,-3.2620966E-1,4.1248375E-1,7.765568E-2,6.0172606E-1,1.8154964E0,6.390273E-1,-2.754726E-1,4.3738553E-1,8.2955927E-1,1.2026448E0,7.269136E-1,1.2892108E0],"categories":[],"categories_nodes":[],"categories_segments":[],"categories_sizes":[],"default_left":[0,0,0,0,0,0,0,0,0,0,0,0,0,0,0,0,0,0,0,0,0,0,0,0,0,0,0,0,0,0,0,0,0,0,0,0,0,0,0,0,0,0,0,0,0,0,0,0,0,0,0,0,0,0,0,0,0,0,0,0,0,0,0,0,0,0,0,0,0,0,0,0,0,0,0,0,0,0,0,0,0,0,0,0,0,0,0,0,0,0,0,0,0,0,0,0,0,0,0,0,0,0,0,0,0,0,0,0,0,0,0,0,0,0,0,0,0,0,0],"id":0,"left_children":[1,3,5,7,9,11,13,15,17,19,21,23,25,27,29,31,33,35,37,39,41,43,45,47,49,51,53,55,57,59,61,63,65,67,69,71,73,75,77,-1,79,81,83,85,87,89,91,93,95,97,99,-1,101,103,105,-1,107,109,111,113,115,117,-1,-1,-1,-1,-1,-1,-1,-1,-1,-1,-1,-1,-1,-1,-1,-1,-1,-1,-1,-1,-1,-1,-1,-1,-1,-1,-1,-1,-1,-1,-1,-1,-1,-1,-1,-1,-1,-1,-1,-1,-1,-1,-1,-1,-1,-1,-1,-1,-1,-1,-1,-1,-1,-1,-1,-1,-1],"loss_changes":[1.1209569E5,1.5257754E4,1.3721941E4,1.9044453E3,9.926738E2,2.798254E3,1.4349219E3,8.8201953E2,6.381738E2,6.111968E2,7.8983093E2,9.6194116E2,6.984873E2,2.4520264E2,1.1953438E3,1.0068555E2,3.2437695E2,6.4803516E2,4.4249902E2,1.6898657E2,6.336084E2,4.4446844E2,5.514094E2,7.6810547E2,6.1177515E2,2.0400269E2,5.325029E2,6.138889E2,2.5224756E2,5.5408984E2,8.366367E2,3.385869E2,2.8580078E1,3.7128418E2,3.7694727E2,6.561437E2,4.1062207E2,2.3709259E2,4.1622656E2,0E0,1.8091052E2,5.919887E2,5.5105273E2,2.0293625E2,5.186193E2,7.0696924E2,6.321284E2,4.0197858E2,1.7528833E2,5.74961E2,2.2344623E2,0E0,1.8574406E2,1.0256206E3,7.733999E2,0E0,7.368733E1,3.3257397E2,6.277644E2,9.759207E1,3.8882812E2,3.203584E2,0E0,0E0,0E0,0E0,0E0,0E0,0E0,0E0,0E0,0E0,0E0,0E0,0E0,0E0,0E0,0E0,0E0,0E0,0E0,0E0,0E0,0E0,0E0,0E0,0E0,0E0,0E0,0E0,0E0,0E0,0E0,0E0,0E0,0E0,0E0,0E0,0E0,0E0,0E0,0E0,0E0,0E0,0E0,0E0,0E0,0E0,0E0,0E0,0E0,0E0,0E0,0E0,0E0,0E0,0E0,0E0,0E0],"parents":[2147483647,0,0,1,1,2,2,3,3,4,4,5,5,6,6,7,7,8,8,9,9,10,10,11,11,12,12,13,13,14,14,15,15,16,16,17,17,18,18,19,19,20,20,21,21,22,22,23,23,24,24,25,25,26,26,27,27,28,28,29,29,30,30,31,31,32,32,33,33,34,34,35,35,36,36,37,37,38,38,40,40,41,41,42,42,43,43,44,44,45,45,46,46,47,47,48,48,49,49,50,50,52,52,53,53,54,54,56,56,57,57,58,58,59,59,60,60,61,61],"right_children":[2,4,6,8,10,12,14,16,18,20,22,24,26,28,30,32,34,36,38,40,42,44,46,48,50,52,54,56,58,60,62,64,66,68,70,72,74,76,78,-1,80,82,84,86,88,90,92,94,96,98,100,-1,102,104,106,-1,108,110,112,114,116,118,-1,-1,-1,-1,-1,-1,-1,-1,-1,-1,-1,-1,-1,-1,-1,-1,-1,-1,-1,-1,-1,-1,-1,-1,-1,-1,-1,-1,-1,-1,-1,-1,-1,-1,-1,-1,-1,-1,-1,-1,-1,-1,-1,-1,-1,-1,-1,-1,-1,-1,-1,-1,-1,-1,-1,-1,-1],"split_conditions":[1.0041328E3,7.573655E2,1.3035417E3,6.263701E2,8.937192E2,1.1758116E3,5.6161978E3,6.473636E3,6.685448E3,4.267405E3,6.75028E3,4.338026E3,3.3154172E3,2.920591E3,1.1686726E4,1.0580034E4,1.0019493E4,6.2227134E3,6.898639E3,3.1386753E3,4.856754E3,9.091826E2,8.0264478E3,1.2506591E4,1.4781696E4,2.9640684E3,1.1180741E4,4.567488E3,1.1066996E4,2.1775784E3,1.4597218E4,9.303372E3,1.4570806E4,6.5556245E3,5.785099E2,5.3829956E3,5.7861426E3,6.563314E2,2.2740486E3,-1.2774228E0,3.5705713E3,1.37067705E4,6.9634443E3,6.558441E3,5.3424907E3,9.915142E2,1.0758759E4,1.1534486E4,2.2283508E3,1.3391856E4,6.649327E3,6.289939E-1,1.2204568E3,1.236084E4,1.4735997E4,1.7411394E0,4.6441323E3,1.341622E3,1.1413768E4,7.6579375E3,6.685448E3,1.4678646E3,-5.595063E-1,-1.257369E0,-4.7977218E-1,-1.5480078E0,-7.1244216E-1,3.6012283E-1,-8.631135E-1,-9.45906E-1,-1.3761724E0,-2.1981323E-1,-1.0061687E0,-1.2315699E0,-6.4088315E-1,-6.852077E-1,3.77917E-1,-8.884195E-3,-7.0171565E-1,-3.6779076E-1,-8.136884E-1,-4.888956E-2,-7.4531066E-1,-6.911432E-1,-3.46954E-1,-4.471026E-1,4.5365915E-1,-3.271376E-2,4.3270952E-1,-5.627145E-1,2.7070084E-1,6.941359E-2,-3.411421E-1,4.567496E-1,-2.069625E-1,3.0055952E-1,1.2767253E0,1.8050282E-1,-1.4094274E-1,5.3478062E-2,1.0598034E0,2.1447252E-1,-8.084631E-1,5.8830005E-1,4.6840575E-2,8.1255656E-1,-9.136725E-2,-3.2620966E-1,4.1248375E-1,7.765568E-2,6.0172606E-1,1.8154964E0,6.390273E-1,-2.754726E-1,4.3738553E-1,8.2955927E-1,1.2026448E0,7.269136E-1,1.2892108E0],"split_indices":[1,1,1,1,1,1,3,3,3,3,2,2,3,2,2,2,2,2,3,3,2,1,3,3,3,2,3,3,2,2,3,2,2,3,1,3,3,1,2,0,3,3,3,2,2,1,2,3,2,2,2,0,1,2,3,0,3,1,2,3,3,1,0,0,0,0,0,0,0,0,0,0,0,0,0,0,0,0,0,0,0,0,0,0,0,0,0,0,0,0,0,0,0,0,0,0,0,0,0,0,0,0,0,0,0,0,0,0,0,0,0,0,0,0,0,0,0,0,0],"split_type":[0,0,0,0,0,0,0,0,0,0,0,0,0,0,0,0,0,0,0,0,0,0,0,0,0,0,0,0,0,0,0,0,0,0,0,0,0,0,0,0,0,0,0,0,0,0,0,0,0,0,0,0,0,0,0,0,0,0,0,0,0,0,0,0,0,0,0,0,0,0,0,0,0,0,0,0,0,0,0,0,0,0,0,0,0,0,0,0,0,0,0,0,0,0,0,0,0,0,0,0,0,0,0,0,0,0,0,0,0,0,0,0,0,0,0,0,0,0,0],"sum_hessian":[3.178E3,1.638E3,1.54E3,8.24E2,8.14E2,9.38E2,6.02E2,3.97E2,4.27E2,4.44E2,3.7E2,5.59E2,3.79E2,1.33E2,4.69E2,1.11E2,2.86E2,1.26E2,3.01E2,4.8E1,3.96E2,1.29E2,2.41E2,9E1,4.69E2,8E0,3.71E2,1.1E1,1.22E2,3.57E2,1.12E2,7.2E1,3.9E1,1.63E2,1.23E2,4.3E1,8.3E1,8E0,2.93E2,5E0,4.3E1,1.1E2,2.86E2,2.3E1,1.06E2,9.2E1,1.49E2,7.4E1,1.6E1,4.57E2,1.2E1,1E0,7E0,2.35E2,1.36E2,6E0,5E0,8.6E1,3.6E1,7E0,3.5E2,1.08E2,4E0,6.4E1,8E0,3.6E1,3E0,2E0,1.61E2,8.5E1,3.8E1,2.3E1,2E1,6.4E1,1.9E1,2E0,6E0,9E0,2.84E2,1.9E1,2.4E1,9.7E1,1.3E1,6E1,2.26E2,2.1E1,2E0,7.1E1,3.5E1,8.1E1,1.1E1,7E1,7.9E1,6.4E1,1E1,3E0,1.3E1,3.93E2,6.4E1,3E0,9E0,2E0,5E0,1.92E2,4.3E1,1.26E2,1E1,1E0,4E0,1.5E1,7.1E1,5E0,3.1E1,2E0,5E0,4.2E1,3.08E2,9.5E1,1.3E1],"tree_param":{"num_deleted":"0","num_feature":"4","num_nodes":"119","size_leaf_vector":"1"}},{"base_weights":[7.197063E-2,-8.242883E0,9.921541E0,-1.2614327E1,-2.381177E0,4.7899456E0,1.5788744E1,-1.689196E1,-7.7548966E0,-6.864109E0,2.3969617E0,1.1540085E0,9.424487E0,1.1879653E1,2.0995483E1,-1.9154469E1,-1.3428059E1,-1.0556086E1,-4.692379E0,-9.294103E0,-4.251985E0,2.5863707E-1,5.5208664E0,-1.9081305E0,4.1148458E0,6.3344493E0,1.2152607E1,9.553651E0,1.4554551E1,1.756822E1,2.3257172E1,-2.1074245E0,-1.6770908E1,-1.5554917E0,-1.0739344E0,-1.2157097E1,-7.7823634E0,-6.452415E0,-1.6446991E0,-1.1185244E1,-6.743979E0,-6.3653827E0,-1.8997208E0,-1.7545933E0,3.0306585E0,3.1188154E0,8.347279E0,-3.5983112E0,4.334158E-1,1.6086434E0,6.0817747E0,3.9463713E0,8.397793E0,1.0185396E1,1.4278403E1,7.2837605E0,1.1570699E1,1.2409834E1,1.7171305E0,1.5699544E0,1.9749994E0,1.9738785E0,2.4248905E0,-1.78313E0,-1.3929297E0,-1.3869047E0,-1.1060041E0,-9.0318245E-1,-6.1752486E-1,-7.860486E-1,-4.952056E-1,-2.583217E-1,9.6926047E-4,-1.1540761E0,-7.8905326E-1,-7.6376325E-1,-5.074243E-1,-7.387052E-1,-5.1192015E-1,-2.8325334E-1,1.2446194E-2,-2.798574E-1,-1.5153046E-2,9.69033E-2,4.043654E-1,1.2040532E-1,4.0165886E-1,6.4453244E-1,8.9768916E-1,-6.19691E-1,-2.5177795E-1,-1.3139652E-1,1.7129336E-1,3.5057705E-2,2.783871E-1,5.1935923E-1,7.8146183E-1,2.2185571E-1,5.2586305E-1,6.0515946E-1,9.258504E-1,8.636634E-1,1.1584412E0,1.1650505E0,1.5192758E0,5.4493874E-1,8.159189E-1,2.14481E-1,1.163658E0,1.0429733E0,1.3204235E0],"categories":[],"categories_nodes":[],"categories_segments":[],"categories_sizes":[],"default_left":[0,0,0,0,0,0,0,0,0,0,0,0,0,0,0,0,0,0,0,0,0,0,0,0,0,0,0,0,0,0,0,0,0,0,0,0,0,0,0,0,0,0,0,0,0,0,0,0,0,0,0,0,0,0,0,0,0,0,0,0,0,0,0,0,0,0,0,0,0,0,0,0,0,0,0,0,0,0,0,0,0,0,0,0,0,0,0,0,0,0,0,0,0,0,0,0,0,0,0,0,0,0,0,0,0,0,0,0,0,0,0],"id":1,"left_children":[1,3,5,7,9,11,13,15,17,19,21,23,25,27,29,31,33,35,37,39,41,43,45,47,49,51,53,55,57,59,61,-1,63,-1,-1,65,67,69,71,73,75,77,79,81,83,85,87,89,91,93,95,97,99,101,103,105,107,109,-1,-1,-1,-1,-1,-1,-1,-1,-1,-1,-1,-1,-1,-1,-1,-1,-1,-1,-1,-1,-1,-1,-1,-1,-1,-1,-1,-1,-1,-1,-1,-1,-1,-1,-1,-1,-1,-1,-1,-1,-1,-1,-1,-1,-1,-1,-1,-1,-1,-1,-1,-1,-1],"loss_changes":[2.5977967E5,4.4041953E4,4.3639297E4,2.034161E4,1.5782073E4,1.3064365E4,1.3526703E4,3.8383281E3,3.920877E3,2.3711562E3,2.382726E3,3.961064E3,2.7957988E3,2.2788281E3,1.8274766E3,1.079625E3,1.031207E3,9.736172E2,1.1847559E3,8.680137E2,9.067661E2,1.194138E3,9.5725195E2,8.527679E2,1.0838018E3,7.6386816E2,6.0486523E2,8.7989453E2,7.8853125E2,1.7155469E2,1.1363281E2,0E0,1.8536328E2,0E0,0E0,1.27708984E2,1.2543652E2,2.5767188E2,1.2915451E2,3.7010742E1,8.829956E1,8.443262E1,1.6867166E2,2.0680316E2,1.835379E2,1.3216351E2,1.96333E1,3.3450964E2,2.0574887E2,1.450835E2,1.4895947E2,1.621709E2,1.161084E2,1.0810254E2,2.2148438E1,1.1797461E2,4.1972656E1,2.0365234E1,0E0,0E0,0E0,0E0,0E0,0E0,0E0,0E0,0E0,0E0,0E0,0E0,0E0,0E0,0E0,0E0,0E0,0E0,0E0,0E0,0E0,0E0,0E0,0E0,0E0,0E0,0E0,0E0,0E0,0E0,0E0,0E0,0E0,0E0,0E0,0E0,0E0,0E0,0E0,0E0,0E0,0E0,0E0,0E0,0E0,0E0,0E0,0E0,0E0,0E0,0E0,0E0,0E0],"parents":[2147483647,0,0,1,1,2,2,3,3,4,4,5,5,6,6,7,7,8,8,9,9,10,10,11,11,12,12,13,13,14,14,15,15,16,16,17,17,18,18,19,19,20,20,21,21,22,22,23,23,24,24,25,25,26,26,27,27,28,28,29,29,30,30,32,32,35,35,36,36,37,37,38,38,39,39,40,40,41,41,42,42,43,43,44,44,45,45,46,46,47,47,48,48,49,49,50,50,51,51,52,52,53,53,54,54,55,55,56,56,57,57],"right_children":[2,4,6,8,10,12,14,16,18,20,22,24,26,28,30,32,34,36,38,40,42,44,46,48,50,52,54,56,58,60,62,-1,64,-1,-1,66,68,70,72,74,76,78,80,82,84,86,88,90,92,94,96,98,100,102,104,106,108,110,-1,-1,-1,-1,-1,-1,-1,-1,-1,-1,-1,-1,-1,-1,-1,-1,-1,-1,-1,-1,-1,-1,-1,-1,-1,-1,-1,-1,-1,-1,-1,-1,-1,-1,-1,-1,-1,-1,-1,-1,-1,-1,-1,-1,-1,-1,-1,-1,-1,-1,-1,-1,-1],"split_conditions":[2.7442934E1,1.0581711E3,1.0253182E3,1.42813E1,1.3850626E1,3.993279E1,4.0333252E1,8.4728845E2,7.8063556E2,1.286723E3,1.3276102E3,7.736664E2,7.399489E2,1.2651066E3,1.2015653E3,7.059953E0,7.8103285E0,2.2689478E1,2.3077873E1,7.059953E0,7.66757E0,2.106785E1,2.0483643E1,3.4444263E1,3.332315E1,4.4507057E1,4.5323605E1,3.2944275E1,3.4613827E1,4.5323605E1,4.2858963E1,-2.1074245E0,7.214935E2,-1.5554917E0,-1.0739344E0,6.056503E2,6.5974945E2,1.83893E1,9.4359973E2,1.2600349E3,1.1834294E3,4.350861E0,1.4344108E3,1.2096714E3,1.1370476E3,1.626056E1,2.2912645E1,5.832231E2,5.832231E2,9.0564526E2,3.748259E1,6.0796246E2,5.710246E2,8.8198004E2,8.1378217E2,1.1279587E3,3.050366E3,3.0053709E1,1.7171305E0,1.5699544E0,1.9749994E0,1.9738785E0,2.4248905E0,-1.78313E0,-1.3929297E0,-1.3869047E0,-1.1060041E0,-9.0318245E-1,-6.1752486E-1,-7.860486E-1,-4.952056E-1,-2.583217E-1,9.6926047E-4,-1.1540761E0,-7.8905326E-1,-7.6376325E-1,-5.074243E-1,-7.387052E-1,-5.1192015E-1,-2.8325334E-1,1.2446194E-2,-2.798574E-1,-1.5153046E-2,9.69033E-2,4.043654E-1,1.2040532E-1,4.0165886E-1,6.4453244E-1,8.9768916E-1,-6.19691E-1,-2.5177795E-1,-1.3139652E-1,1.7129336E-1,3.5057705E-2,2.783871E-1,5.1935923E-1,7.8146183E-1,2.2185571E-1,5.2586305E-1,6.0515946E-1,9.258504E-1,8.636634E-1,1.1584412E0,1.1650505E0,1.5192758E0,5.4493874E-1,8.159189E-1,2.14481E-1,1.163658E0,1.0429733E0,1.3204235E0],"split_indices":[0,1,1,0,0,0,0,1,1,1,1,1,1,1,1,0,0,0,0,0,0,0,0,0,0,0,0,0,0,0,0,0,1,0,0,1,1,0,1,1,1,0,1,1,1,0,0,1,1,1,0,1,1,1,1,1,3,0,0,0,0,0,0,0,0,0,0,0,0,0,0,0,0,0,0,0,0,0,0,0,0,0,0,0,0,0,0,0,0,0,0,0,0,0,0,0,0,0,0,0,0,0,0,0,0,0,0,0,0,0,0],"split_type":[0,0,0,0,0,0,0,0,0,0,0,0,0,0,0,0,0,0,0,0,0,0,0,0,0,0,0,0,0,0,0,0,0,0,0,0,0,0,0,0,0,0,0,0,0,0,0,0,0,0,0,0,0,0,0,0,0,0,0,0,0,0,0,0,0,0,0,0,0,0,0,0,0,0,0,0,0,0,0,0,0,0,0,0,0,0,0,0,0,0,0,0,0,0,0,0,0,0,0,0,0,0,0,0,0,0,0,0,0,0,0],"sum_hessian":[3.17E3,1.719E3,1.451E3,9.84E2,7.35E2,7.75E2,6.76E2,5.22E2,4.62E2,3.79E2,3.56E2,4.35E2,3.4E2,3.88E2,2.88E2,3.13E2,2.09E2,2.4E2,2.22E2,1.95E2,1.84E2,2.12E2,1.44E2,2.14E2,2.21E2,1.61E2,1.79E2,2.1E2,1.78E2,1.18E2,1.7E2,1.69E2,1.44E2,1.14E2,9.5E1,1.5E2,9E1,1.4E2,8.2E1,1.1E2,8.5E1,9.6E1,8.8E1,1.23E2,8.9E1,7.9E1,6.5E1,1.24E2,9E1,9.8E1,1.23E2,7.6E1,8.5E1,9.6E1,8.3E1,1.01E2,1.09E2,1.01E2,7.7E1,6.8E1,5E1,4.2E1,1.28E2,1.01E2,4.3E1,5.4E1,9.6E1,4.8E1,4.2E1,7E1,7E1,5.2E1,3E1,9.7E1,1.3E1,5.3E1,3.2E1,5E1,4.6E1,6E1,2.8E1,7.4E1,4.9E1,3E1,5.9E1,2.6E1,5.3E1,1.9E1,4.6E1,3.5E1,8.9E1,3.8E1,5.2E1,4.8E1,5E1,8.4E1,3.9E1,3.4E1,4.2E1,2.5E1,6E1,4.9E1,4.7E1,2.5E1,5.8E1,3.5E1,6.6E1,1E0,1.08E2,3.3E1,6.8E1],"tree_param":{"num_deleted":"0","num_feature":"4","num_nodes":"111","size_leaf_vector":"1"}},{"base_weights":[6.129756E-2,-7.7576056E0,8.536465E0,-1.1971636E1,-2.669194E0,3.752579E0,1.367023E1,-1.5454463E1,-7.601236E0,-6.939232E0,1.1080017E0,8.483968E-1,8.718073E0,9.104575E0,1.7539438E1,-1.7131102E1,-1.1787829E1,-9.922944E0,-4.9090686E0,-8.802359E0,-4.1474113E0,-1.0469081E0,3.5917048E0,-9.767304E-1,4.4088883E0,5.6642165E0,1.0512422E1,6.175844E0,1.1103321E1,1.4761581E1,2.0135508E1,-1.8466228E1,-1.4722595E1,-1.3871559E0,-9.965606E-1,-1.1791076E1,-8.254841E0,-7.2453814E0,-3.1801126E0,-1.0499906E1,-7.1622496E0,-5.8910065E0,-2.5524514E0,-3.1820266E0,1.0005646E0,1.2303662E0,6.1768827E0,-3.379359E0,8.614689E-1,1.261027E0,5.9708805E0,3.8480306E0,7.198007E0,8.4266205E0,1.1477521E1,4.4068103E0,7.5469E0,9.669183E0,1.277948E1,1.2125912E1,1.7000922E0,1.7339658E0,2.2147605E0,-2.0173302E0,-1.6875695E0,-1.5740236E0,-1.2176864E0,-1.3084973E0,-1.0444702E0,-9.5734674E-1,-6.622193E-1,-8.5959226E-1,-6.163855E-1,-4.6951294E-1,-2.1884339E-1,-1.1138325E0,-8.4112865E-1,-7.891961E-1,-5.667214E-1,-6.758382E-1,-4.5637187E-1,-3.945249E-1,-1.5773624E-1,-4.4911668E-1,-1.7342435E-1,1.38878375E-2,2.7891088E-1,2.8635994E-2,2.672777E-1,4.7761795E-1,7.498598E-1,-5.730034E-1,-1.961796E-1,-7.605492E-2,2.6732728E-1,1.0238274E-2,2.4126926E-1,4.2058507E-1,6.940678E-1,2.3995252E-1,4.875234E-1,5.0817645E-1,7.6834285E-1,5.953789E-1,9.378481E-1,1.0193629E0,1.273889E0,3.262891E-1,5.203112E-1,6.708825E-1,8.7281704E-1,8.2312775E-1,1.1139807E0,1.1325074E0,1.4554032E0,1.0406084E0,1.3105329E0],"categories":[],"categories_nodes":[],"categories_segments":[],"categories_sizes":[],"default_left":[0,0,0,0,0,0,0,0,0,0,0,0,0,0,0,0,0,0,0,0,0,0,0,0,0,0,0,0,0,0,0,0,0,0,0,0,0,0,0,0,0,0,0,0,0,0,0,0,0,0,0,0,0,0,0,0,0,0,0,0,0,0,0,0,0,0,0,0,0,0,0,0,0,0,0,0,0,0,0,0,0,0,0,0,0,0,0,0,0,0,0,0,0,0,0,0,0,0,0,0,0,0,0,0,0,0,0,0,0,0,0,0,0,0,0,0,0],"id":2,"left_children":[1,3,5,7,9,11,13,15,17,19,21,23,25,27,29,31,33,35,37,39,41,43,45,47,49,51,53,55,57,59,61,63,65,-1,-1,67,69,71,73,75,77,79,81,83,85,87,89,91,93,95,97,99,101,103,105,107,109,111,113,115,-1,-1,-1,-1,-1,-1,-1,-1,-1,-1,-1,-1,-1,-1,-1,-1,-1,-1,-1,-1,-1,-1,-1,-1,-1,-1,-1,-1,-1,-1,-1,-1,-1,-1,-1,-1,-1,-1,-1,-1,-1,-1,-1,-1,-1,-1,-1,-1,-1,-1,-1,-1,-1,-1,-1,-1,-1],"loss_changes":[2.1225166E5,3.569015E4,3.7694664E4,1.3746859E4,1.2201619E4,1.1484945E4,1.2927766E4,2.9058672E3,2.4874766E3,1.8087363E3,2.1555815E3,3.2798184E3,1.5498652E3,1.9316953E3,2.5838828E3,8.3421875E2,4.7449414E2,5.768867E2,7.433989E2,5.1327344E2,3.8457812E2,9.476669E2,1.133197E3,1.4782773E3,8.3254297E2,2.8040405E2,2.7168555E2,3.0753467E2,3.5976367E2,9.5366016E2,7.59625E2,2.4775781E2,1.3714453E2,0E0,0E0,3.518457E1,1.8901953E2,6.23916E1,1.558042E2,4.036621E1,7.501318E1,4.631006E1,9.779846E1,1.9249585E2,1.7038902E2,1.3374155E2,1.2772656E2,4.711631E2,5.605924E2,7.689497E1,1.6483008E2,6.643347E1,2.028711E1,8.856445E1,6.704492E1,4.047412E1,1.7119629E1,1.4531934E2,6.487012E1,1.9610352E1,0E0,0E0,0E0,0E0,0E0,0E0,0E0,0E0,0E0,0E0,0E0,0E0,0E0,0E0,0E0,0E0,0E0,0E0,0E0,0E0,0E0,0E0,0E0,0E0,0E0,0E0,0E0,0E0,0E0,0E0,0E0,0E0,0E0,0E0,0E0,0E0,0E0,0E0,0E0,0E0,0E0,0E0,0E0,0E0,0E0,0E0,0E0,0E0,0E0,0E0,0E0,0E0,0E0,0E0,0E0,0E0,0E0],"parents":[2147483647,0,0,1,1,2,2,3,3,4,4,5,5,6,6,7,7,8,8,9,9,10,10,11,11,12,12,13,13,14,14,15,15,16,16,17,17,18,18,19,19,20,20,21,21,22,22,23,23,24,24,25,25,26,26,27,27,28,28,29,29,30,30,31,31,32,32,35,35,36,36,37,37,38,38,39,39,40,40,41,41,42,42,43,43,44,44,45,45,46,46,47,47,48,48,49,49,50,50,51,51,52,52,53,53,54,54,55,55,56,56,57,57,58,58,59,59],"right_children":[2,4,6,8,10,12,14,16,18,20,22,24,26,28,30,32,34,36,38,40,42,44,46,48,50,52,54,56,58,60,62,64,66,-1,-1,68,70,72,74,76,78,80,82,84,86,88,90,92,94,96,98,100,102,104,106,108,110,112,114,116,-1,-1,-1,-1,-1,-1,-1,-1,-1,-1,-1,-1,-1,-1,-1,-1,-1,-1,-1,-1,-1,-1,-1,-1,-1,-1,-1,-1,-1,-1,-1,-1,-1,-1,-1,-1,-1,-1,-1,-1,-1,-1,-1,-1,-1,-1,-1,-1,-1,-1,-1,-1,-1,-1,-1,-1,-1],"split_conditions":[2.6169546E1,1.0383264E3,1.0078974E3,1.4050225E1,1.2007281E1,4.0741257E1,3.68201E1,8.7335315E2,7.9087683E2,1.314625E3,1.2951102E3,8.422255E2,6.9371704E2,1.2096714E3,1.2204568E3,8.526206E0,6.9185796E0,1.9889671E1,1.8766495E1,5.559874E0,6.374433E0,1.83893E1,1.8998955E1,3.24159E1,3.1808868E1,4.582446E1,4.3395916E1,3.0771038E1,3.2048275E1,4.2858963E1,4.3006985E1,6.774818E2,7.3305316E2,-1.3871559E0,-9.965606E-1,6.408686E2,6.639203E2,8.9825024E2,8.937192E2,1.2368168E3,1.2180681E3,3.892826E0,1.375933E3,1.1781226E3,2.3582474E1,1.5838084E1,2.2689478E1,6.408686E2,6.5974945E2,2.916959E1,3.4908085E1,5.8624915E2,5.4159595E2,8.012313E2,8.3560925E2,1.0924935E3,1.1473422E3,1.3503177E3,1.3461191E3,1.0857783E3,1.7000922E0,1.7339658E0,2.2147605E0,-2.0173302E0,-1.6875695E0,-1.5740236E0,-1.2176864E0,-1.3084973E0,-1.0444702E0,-9.5734674E-1,-6.622193E-1,-8.5959226E-1,-6.163855E-1,-4.6951294E-1,-2.1884339E-1,-1.1138325E0,-8.4112865E-1,-7.891961E-1,-5.667214E-1,-6.758382E-1,-4.5637187E-1,-3.945249E-1,-1.5773624E-1,-4.4911668E-1,-1.7342435E-1,1.38878375E-2,2.7891088E-1,2.8635994E-2,2.672777E-1,4.7761795E-1,7.498598E-1,-5.730034E-1,-1.961796E-1,-7.605492E-2,2.6732728E-1,1.0238274E-2,2.4126926E-1,4.2058507E-1,6.940678E-1,2.3995252E-1,4.875234E-1,5.0817645E-1,7.6834285E-1,5.953789E-1,9.378481E-1,1.0193629E0,1.273889E0,3.262891E-1,5.203112E-1,6.708825E-1,8.7281704E-1,8.2312775E-1,1.1139807E0,1.1325074E0,1.4554032E0,1.0406084E0,1.3105329E0],"split_indices":[0,1,1,0,0,0,0,1,1,1,1,1,1,1,1,0,0,0,0,0,0,0,0,0,0,0,0,0,0,0,0,1,1,0,0,1,1,1,1,1,1,0,1,1,0,0,0,1,1,0,0,1,1,1,1,1,1,1,1,1,0,0,0,0,0,0,0,0,0,0,0,0,0,0,0,0,0,0,0,0,0,0,0,0,0,0,0,0,0,0,0,0,0,0,0,0,0,0,0,0,0,0,0,0,0,0,0,0,0,0,0,0,0,0,0,0,0],"split_type":[0,0,0,0,0,0,0,0,0,0,0,0,0,0,0,0,0,0,0,0,0,0,0,0,0,0,0,0,0,0,0,0,0,0,0,0,0,0,0,0,0,0,0,0,0,0,0,0,0,0,0,0,0,0,0,0,0,0,0,0,0,0,0,0,0,0,0,0,0,0,0,0,0,0,0,0,0,0,0,0,0,0,0,0,0,0,0,0,0,0,0,0,0,0,0,0,0,0,0,0,0,0,0,0,0,0,0,0,0,0,0,0,0,0,0,0,0],"sum_hessian":[3.201E3,1.665E3,1.536E3,9.1E2,7.55E2,7.96E2,7.4E2,5.05E2,4.05E2,3.54E2,4.01E2,5.03E2,2.93E2,3.41E2,3.99E2,3.44E2,1.61E2,2.16E2,1.89E2,2.11E2,1.43E2,2.15E2,1.86E2,3.33E2,1.7E2,1.1E2,1.83E2,1.4E2,2.01E2,1.96E2,2.03E2,2.17E2,1.27E2,7.2E1,8.9E1,9.9E1,1.17E2,7.9E1,1.1E2,1.01E2,1.1E2,6.7E1,7.6E1,1.05E2,1.1E2,9.8E1,8.8E1,1.44E2,1.89E2,5.7E1,1.13E2,5.2E1,5.8E1,6.1E1,1.22E2,6.3E1,7.7E1,1.12E2,8.9E1,9.3E1,1.03E2,8.9E1,1.14E2,9.9E1,1.18E2,8.7E1,4E1,4.6E1,5.3E1,6.2E1,5.5E1,3.2E1,4.7E1,4.2E1,6.8E1,7.4E1,2.7E1,7.1E1,3.9E1,3.8E1,2.9E1,3E1,4.6E1,5.4E1,5.1E1,7.5E1,3.5E1,6E1,3.8E1,4.5E1,4.3E1,5.3E1,9.1E1,1E2,8.9E1,2.9E1,2.8E1,4.2E1,7.1E1,2.3E1,2.9E1,1.3E1,4.5E1,1.9E1,4.2E1,6.5E1,5.7E1,2.8E1,3.5E1,4.9E1,2.8E1,6E1,5.2E1,5.3E1,3.6E1,3.8E1,5.5E1],"tree_param":{"num_deleted":"0","num_feature":"4","num_nodes":"117","size_leaf_vector":"1"}},{"base_weights":[-8.449469E-3,-4.2754617E0,4.4631243E0,-6.488991E0,-1.7626402E0,2.794744E0,7.250217E0,-7.7872953E0,-5.3489428E0,-5.2227936E0,-1.307697E0,1.5701962E0,4.337833E0,4.7824383E0,7.843647E0,-1.0915406E1,-7.1121316E0,-4.915661E0,-9.400365E0,-4.6820097E0,-1.1906638E1,2.157252E-1,-2.0353947E0,5.0513635E0,1.2257013E0,-1.0432811E0,4.6843987E0,3.6761363E0,9.337722E0,4.741761E0,8.082093E0,-9.940137E0,-1.4792527E0,-6.0294223E0,-8.050106E0,9.0470374E-1,-5.1022043E0,-1.3471402E1,-7.965772E0,1.9770554E0,-4.9542847E0,-1.3804766E0,-1.1579984E-1,-2.9172114E-1,4.2097735E0,-3.4870427E0,-1.1590263E0,4.6376318E-1,6.213216E0,1.0957662E0,8.181526E0,5.8345217E-1,-5.788726E-1,5.284909E0,2.5399356E0,4.513382E0,8.434418E-2,1.4602044E0,5.279392E0,7.2447033E0,1.1540397E0,1.151812E1,7.6056795E0,-8.4211606E-1,-1.2476084E0,-1.0885407E0,-5.525251E-1,-9.5308954E-1,-6.670573E-1,-4.0900502E-1,2.647823E-1,-5.630224E-1,-2.8458974E-1,-1.2648313E-1,-1.6352443E0,-4.3565774E-1,-9.8959064E-1,-3.3970097E-1,4.9340802E-1,-6.6826653E-1,-4.1519496E-1,-2.821007E-1,4.9680974E-2,4.7419205E-1,-1.2399461E-1,-4.478449E-1,-1.217491E-1,-3.7285116E-2,-2.9493484E-1,5.213398E-1,-4.3464985E-1,5.4184955E-2,7.8932303E-1,1.9262742E-1,4.5445986E-2,8.720503E-1,1.8848585E-1,-2.9438776E-1,3.4826058E-1,4.7034597E-1,8.977647E-1,-1.6277121E-1,3.738255E-1,8.001781E-2,6.1778486E-1,4.671889E-1,-2.9727143E-1,-9.565526E-2,6.406762E-1,1.8509841E-1,9.8022074E-1,8.760077E-1,-2.102979E-1,3.211591E-1,1.2552067E0,7.9527324E-1,1.7932561E-1],"categories":[],"categories_nodes":[],"categories_segments":[],"categories_sizes":[],"default_left":[0,0,0,0,0,0,0,0,0,0,0,0,0,0,0,0,0,0,0,0,0,0,0,0,0,0,0,0,0,0,0,0,0,0,0,0,0,0,0,0,0,0,0,0,0,0,0,0,0,0,0,0,0,0,0,0,0,0,0,0,0,0,0,0,0,0,0,0,0,0,0,0,0,0,0,0,0,0,0,0,0,0,0,0,0,0,0,0,0,0,0,0,0,0,0,0,0,0,0,0,0,0,0,0,0,0,0,0,0,0,0,0,0,0,0,0,0],"id":3,"left_children":[1,3,5,7,9,11,13,15,17,19,21,23,25,27,29,31,33,35,37,39,41,43,45,47,49,51,53,55,57,59,61,63,-1,65,67,69,71,73,75,77,79,-1,-1,81,83,85,87,89,91,93,95,97,-1,99,101,103,105,-1,107,109,111,113,115,-1,-1,-1,-1,-1,-1,-1,-1,-1,-1,-1,-1,-1,-1,-1,-1,-1,-1,-1,-1,-1,-1,-1,-1,-1,-1,-1,-1,-1,-1,-1,-1,-1,-1,-1,-1,-1,-1,-1,-1,-1,-1,-1,-1,-1,-1,-1,-1,-1,-1,-1,-1,-1,-1],"loss_changes":[6.1114047E4,9.104189E3,7.2512246E3,1.2462227E3,1.2030564E3,1.8443921E3,8.179336E2,7.759199E2,7.721338E2,2.6428613E2,7.555714E2,6.5036646E2,8.1275684E2,5.489558E2,3.0802148E2,1.1517383E2,2.9128125E2,4.6539648E2,1.4751855E2,1.6239258E2,1.0493158E2,4.49535E2,5.8196826E2,2.5762646E2,4.420105E2,2.1232643E2,5.09917E2,2.8484473E2,3.9093762E2,3.1407446E2,6.2256836E2,1.20117676E2,0E0,3.2993457E2,2.963789E2,1.3257584E2,4.727832E2,3.2923108E2,1.9928052E2,8.04798E1,8.349658E1,0E0,0E0,3.945347E2,7.873126E1,3.8323608E2,4.0533765E2,2.7406354E2,3.664707E2,2.609306E2,1.3046387E1,2.2505792E2,0E0,6.370488E2,4.6076556E2,4.7025745E2,2.8052158E2,0E0,1.05096436E2,2.7037463E2,4.154561E2,3.961245E2,7.613906E2,0E0,0E0,0E0,0E0,0E0,0E0,0E0,0E0,0E0,0E0,0E0,0E0,0E0,0E0,0E0,0E0,0E0,0E0,0E0,0E0,0E0,0E0,0E0,0E0,0E0,0E0,0E0,0E0,0E0,0E0,0E0,0E0,0E0,0E0,0E0,0E0,0E0,0E0,0E0,0E0,0E0,0E0,0E0,0E0,0E0,0E0,0E0,0E0,0E0,0E0,0E0,0E0,0E0,0E0],"parents":[2147483647,0,0,1,1,2,2,3,3,4,4,5,5,6,6,7,7,8,8,9,9,10,10,11,11,12,12,13,13,14,14,15,15,16,16,17,17,18,18,19,19,20,20,21,21,22,22,23,23,24,24,25,25,26,26,27,27,28,28,29,29,30,30,31,31,33,33,34,34,35,35,36,36,37,37,38,38,39,39,40,40,43,43,44,44,45,45,46,46,47,47,48,48,49,49,50,50,51,51,53,53,54,54,55,55,56,56,58,58,59,59,60,60,61,61,62,62],"right_children":[2,4,6,8,10,12,14,16,18,20,22,24,26,28,30,32,34,36,38,40,42,44,46,48,50,52,54,56,58,60,62,64,-1,66,68,70,72,74,76,78,80,-1,-1,82,84,86,88,90,92,94,96,98,-1,100,102,104,106,-1,108,110,112,114,116,-1,-1,-1,-1,-1,-1,-1,-1,-1,-1,-1,-1,-1,-1,-1,-1,-1,-1,-1,-1,-1,-1,-1,-1,-1,-1,-1,-1,-1,-1,-1,-1,-1,-1,-1,-1,-1,-1,-1,-1,-1,-1,-1,-1,-1,-1,-1,-1,-1,-1,-1,-1,-1,-1],"split_conditions":[1.0011197E3,7.6766846E2,1.3035417E3,8.555248E3,4.3651406E3,1.1628597E3,5.5018345E3,5.4159595E2,1.39715205E4,1.4463663E4,6.1157524E3,3.08183E3,3.673579E3,1.4559188E3,2.8118416E3,5.356121E2,8.3302295E3,2.4843005E3,5.310569E2,2.3250535E3,3.8813362E3,9.639363E2,8.598249E2,1.0383264E3,1.4888687E4,1.3129239E4,1.1967252E4,4.9024985E3,5.6514824E3,2.434239E3,3.9949387E3,1.0718623E4,-1.4792527E0,2.5257048E3,5.5018345E3,6.168788E2,1.185319E4,5.084515E2,1.4379918E4,3.0974258E3,8.2450665E2,-1.3804766E0,-1.1579984E-1,3.08183E3,1.3891571E4,1.2308917E4,1.2103096E4,2.5716313E3,2.3250535E3,8.415505E3,1.2792379E4,7.343553E3,-5.788726E-1,1.0530964E4,6.473636E3,3.702086E3,6.6054546E3,1.4602044E0,7.737681E3,2.1775784E3,6.847127E3,6.249986E3,1.4441124E4,-8.4211606E-1,-1.2476084E0,-1.0885407E0,-5.525251E-1,-9.5308954E-1,-6.670573E-1,-4.0900502E-1,2.647823E-1,-5.630224E-1,-2.8458974E-1,-1.2648313E-1,-1.6352443E0,-4.3565774E-1,-9.8959064E-1,-3.3970097E-1,4.9340802E-1,-6.6826653E-1,-4.1519496E-1,-2.821007E-1,4.9680974E-2,4.7419205E-1,-1.2399461E-1,-4.478449E-1,-1.217491E-1,-3.7285116E-2,-2.9493484E-1,5.213398E-1,-4.3464985E-1,5.4184955E-2,7.8932303E-1,1.9262742E-1,4.5445986E-2,8.720503E-1,1.8848585E-1,-2.9438776E-1,3.4826058E-1,4.7034597E-1,8.977647E-1,-1.6277121E-1,3.738255E-1,8.001781E-2,6.1778486E-1,4.671889E-1,-2.9727143E-1,-9.565526E-2,6.406762E-1,1.8509841E-1,9.8022074E-1,8.760077E-1,-2.102979E-1,3.211591E-1,1.2552067E0,7.9527324E-1,1.7932561E-1],"split_indices":[1,1,1,3,3,1,3,1,2,2,2,2,3,1,2,1,2,2,1,2,3,1,1,1,3,2,2,3,2,2,2,2,0,2,3,1,2,1,2,3,1,0,0,2,3,2,2,2,2,2,2,2,0,2,3,3,2,0,2,2,3,3,3,0,0,0,0,0,0,0,0,0,0,0,0,0,0,0,0,0,0,0,0,0,0,0,0,0,0,0,0,0,0,0,0,0,0,0,0,0,0,0,0,0,0,0,0,0,0,0,0,0,0,0,0,0,0],"split_type":[0,0,0,0,0,0,0,0,0,0,0,0,0,0,0,0,0,0,0,0,0,0,0,0,0,0,0,0,0,0,0,0,0,0,0,0,0,0,0,0,0,0,0,0,0,0,0,0,0,0,0,0,0,0,0,0,0,0,0,0,0,0,0,0,0,0,0,0,0,0,0,0,0,0,0,0,0,0,0,0,0,0,0,0,0,0,0,0,0,0,0,0,0,0,0,0,0,0,0,0,0,0,0,0,0,0,0,0,0,0,0,0,0,0,0,0,0],"sum_hessian":[3.201E3,1.638E3,1.563E3,8.7E2,7.68E2,9.79E2,5.84E2,4.04E2,4.66E2,8.8E1,6.8E2,5.47E2,4.32E2,1.15E2,4.69E2,6.9E1,3.35E2,4.23E2,4.3E1,8.3E1,5E0,2.2E2,4.6E2,4.8E1,4.99E2,2.6E1,4.06E2,9.4E1,2.1E1,3.5E1,4.34E2,5.8E1,1.1E1,1.59E2,1.76E2,1.3E1,4.1E2,9E0,3.4E1,3E0,8E1,4E0,1E0,1.96E2,2.4E1,1.72E2,2.88E2,1E1,3.8E1,4.91E2,8E0,2E1,6E0,3.16E2,9E1,7.6E1,1.8E1,8E0,1.3E1,2E1,1.5E1,5E1,3.84E2,3.9E1,1.9E1,1.3E1,1.46E2,8.2E1,9.4E1,3E0,1E1,3.31E2,7.9E1,2E0,7E0,1.3E1,2.1E1,1E0,2E0,2.3E1,5.7E1,4.6E1,1.5E2,2.2E1,2E0,1.19E2,5.3E1,2.01E2,8.7E1,5E0,5E0,9E0,2.9E1,2.13E2,2.78E2,7E0,1E0,9E0,1.1E1,2.75E2,4.1E1,2E1,7E1,2.4E1,5.2E1,7E0,1.1E1,2E0,1.1E1,7E0,1.3E1,4E0,1.1E1,6E0,4.4E1,3.62E2,2.2E1],"tree_param":{"num_deleted":"0","num_feature":"4","num_nodes":"117","size_leaf_vector":"1"}},{"base_weights":[6.223553E-3,-6.8315115E0,8.10336E0,-1.087651E1,-3.273166E0,5.2642198E0,1.24435215E1,-1.2509018E1,-9.024107E0,-5.314907E0,-1.5717734E0,3.5513818E0,7.096589E0,1.0234395E1,1.3269681E1,-1.3238257E1,-1.119962E1,-7.5603065E0,-9.778063E0,-1.8498458E0,-5.576451E0,-2.7097602E0,-7.28147E-1,2.1406019E0,4.322854E0,7.778362E0,5.8936E0,1.062362E1,7.415878E0,1.2707497E1,1.4484982E1,-6.580873E0,-1.3364255E1,-2.3624985E-1,-1.1239713E0,-8.261008E0,-6.2422686E0,-1.0689042E1,-8.935117E0,-2.6502187E0,1.2586068E0,-5.3128138E0,-7.150656E0,-3.306688E0,-1.4511076E0,-9.8426753E-1,1.7182847E0,1.083099E0,2.9668477E0,4.773081E0,2.5377507E0,3.484311E0,7.929732E0,5.2518597E0,7.009766E0,3.0018142E-1,1.0711604E1,1.2825803E0,8.634331E0,7.893018E0,1.2848877E0,1.6044258E0,1.2985506E1,-7.027121E-1,-1.9016926E-1,-1.3411739E0,-4.7292915E-1,-2.8023902E-1,-8.494738E-1,-3.3943054E-1,-6.615938E-1,-1.0748419E0,-1.9101194E-1,-8.9762735E-1,-1.6395085E-1,-3.1974003E-1,2.394913E-1,3.011449E-1,-7.8388706E-2,-6.311113E-1,-4.8226443E-1,-8.033379E-1,-4.11069E-1,-5.3662445E-2,-3.7706777E-1,-2.4744394E-1,-1.947125E-2,-5.677719E-2,-2.1128924E-1,-3.4683135E-1,2.0425408E-1,1.6199502E-1,-6.7154616E-2,3.082553E-1,-1.4599296E-1,3.2107338E-1,5.252093E-1,-3.3414133E-3,4.165155E-1,3.9825407E-1,7.948521E-2,6.785541E-1,8.356374E-1,3.9298654E-1,5.8552873E-1,9.674265E-1,6.121499E-1,1.0770391E0,1.2789786E-1,7.775955E-3,2.0265411E-1,2.3635523E-1,8.8458437E-1,8.7962276E-1,4.0883446E-1,5.538352E-1,1.3238584E0],"categories":[],"categories_nodes":[],"categories_segments":[],"categories_sizes":[],"default_left":[0,0,0,0,0,0,0,0,0,0,0,0,0,0,0,0,0,0,0,0,0,0,0,0,0,0,0,0,0,0,0,0,0,0,0,0,0,0,0,0,0,0,0,0,0,0,0,0,0,0,0,0,0,0,0,0,0,0,0,0,0,0,0,0,0,0,0,0,0,0,0,0,0,0,0,0,0,0,0,0,0,0,0,0,0,0,0,0,0,0,0,0,0,0,0,0,0,0,0,0,0,0,0,0,0,0,0,0,0,0,0,0,0,0,0,0,0],"id":4,"left_children":[1,3,5,7,9,11,13,15,17,19,21,23,25,27,29,31,33,35,37,39,41,43,45,47,49,51,53,55,57,59,61,63,65,-1,-1,67,69,71,73,75,77,79,81,83,85,87,89,91,93,95,97,99,101,103,105,-1,107,109,111,113,-1,-1,115,-1,-1,-1,-1,-1,-1,-1,-1,-1,-1,-1,-1,-1,-1,-1,-1,-1,-1,-1,-1,-1,-1,-1,-1,-1,-1,-1,-1,-1,-1,-1,-1,-1,-1,-1,-1,-1,-1,-1,-1,-1,-1,-1,-1,-1,-1,-1,-1,-1,-1,-1,-1,-1,-1],"loss_changes":[1.772823E5,2.4950102E4,1.7997258E4,2.3405078E3,3.2042256E3,2.7607656E3,9.185703E2,2.589297E2,3.4814062E2,3.6957324E2,4.8346118E2,4.918423E2,3.0382227E2,9.713281E1,9.8796875E1,1.3653516E2,2.8771484E1,7.166162E1,9.450586E1,8.060032E1,1.2262109E2,1.5626062E2,1.8457957E2,1.4055151E2,2.2585547E2,1.4672656E2,7.584961E1,6.035742E1,1.5981628E2,9.6625E1,8.1015625E1,3.6019897E-1,4.3003906E1,0E0,0E0,8.351123E1,3.0816406E1,3.814746E1,2.505664E1,7.675281E1,2.7644577E1,1.338457E2,1.07985596E2,1.839115E2,9.053662E1,1.2310016E2,5.40316E1,7.088947E1,5.1785156E1,1.5890918E2,2.599805E2,1.10963745E1,6.870508E1,5.977246E1,6.937256E1,0E0,6.1541016E1,4.1136827E0,3.171875E0,5.501709E-1,0E0,0E0,5.4847656E1,0E0,0E0,0E0,0E0,0E0,0E0,0E0,0E0,0E0,0E0,0E0,0E0,0E0,0E0,0E0,0E0,0E0,0E0,0E0,0E0,0E0,0E0,0E0,0E0,0E0,0E0,0E0,0E0,0E0,0E0,0E0,0E0,0E0,0E0,0E0,0E0,0E0,0E0,0E0,0E0,0E0,0E0,0E0,0E0,0E0,0E0,0E0,0E0,0E0,0E0,0E0,0E0,0E0,0E0],"parents":[2147483647,0,0,1,1,2,2,3,3,4,4,5,5,6,6,7,7,8,8,9,9,10,10,11,11,12,12,13,13,14,14,15,15,16,16,17,17,18,18,19,19,20,20,21,21,22,22,23,23,24,24,25,25,26,26,27,27,28,28,29,29,30,30,31,31,32,32,35,35,36,36,37,37,38,38,39,39,40,40,41,41,42,42,43,43,44,44,45,45,46,46,47,47,48,48,49,49,50,50,51,51,52,52,53,53,54,54,56,56,57,57,58,58,59,59,62,62],"right_children":[2,4,6,8,10,12,14,16,18,20,22,24,26,28,30,32,34,36,38,40,42,44,46,48,50,52,54,56,58,60,62,64,66,-1,-1,68,70,72,74,76,78,80,82,84,86,88,90,92,94,96,98,100,102,104,106,-1,108,110,112,114,-1,-1,116,-1,-1,-1,-1,-1,-1,-1,-1,-1,-1,-1,-1,-1,-1,-1,-1,-1,-1,-1,-1,-1,-1,-1,-1,-1,-1,-1,-1,-1,-1,-1,-1,-1,-1,-1,-1,-1,-1,-1,-1,-1,-1,-1,-1,-1,-1,-1,-1,-1,-1,-1,-1,-1,-1],"split_conditions":[2.7442934E1,1.2169834E1,4.0900738E1,6.1019115E0,1.8998955E1,3.4444263E1,4.3395916E1,3.892826E0,6.2706177E3,2.690568E3,2.2689478E1,3.0053709E1,1.0303404E4,1.2874151E4,4.807083E1,2.392496E3,3.050366E3,4.7383926E3,8.756157E0,2.5716313E3,1.3356274E4,1.1399513E4,1.3451048E4,8.779068E3,1.2257063E4,3.3674902E3,3.8275646E1,2.2740486E3,4.9024985E3,3.531987E3,8.787238E3,8.595081E3,1.4963843E4,-2.3624985E-1,-1.1239713E0,2.1140718E3,4.9894985E3,1.4137586E4,1.4691267E4,1.367388E4,1.0847324E4,1.4462238E1,1.1714174E4,3.7881775E3,9.303372E3,1.0952181E4,2.392496E3,1.214295E4,1.4570806E4,6.0475967E3,1.3391856E4,3.1386753E3,3.6449055E1,1.185319E4,5.3829956E3,3.0018142E-1,1.4491878E4,4.148709E1,1.308843E4,1.2831723E4,1.2848877E0,1.6044258E0,3.6334001E3,-7.027121E-1,-1.9016926E-1,-1.3411739E0,-4.7292915E-1,-2.8023902E-1,-8.494738E-1,-3.3943054E-1,-6.615938E-1,-1.0748419E0,-1.9101194E-1,-8.9762735E-1,-1.6395085E-1,-3.1974003E-1,2.394913E-1,3.011449E-1,-7.8388706E-2,-6.311113E-1,-4.8226443E-1,-8.033379E-1,-4.11069E-1,-5.3662445E-2,-3.7706777E-1,-2.4744394E-1,-1.947125E-2,-5.677719E-2,-2.1128924E-1,-3.4683135E-1,2.0425408E-1,1.6199502E-1,-6.7154616E-2,3.082553E-1,-1.4599296E-1,3.2107338E-1,5.252093E-1,-3.3414133E-3,4.165155E-1,3.9825407E-1,7.948521E-2,6.785541E-1,8.356374E-1,3.9298654E-1,5.8552873E-1,9.674265E-1,6.121499E-1,1.0770391E0,1.2789786E-1,7.775955E-3,2.0265411E-1,2.3635523E-1,8.8458437E-1,8.7962276E-1,4.0883446E-1,5.538352E-1,1.3238584E0],"split_indices":[0,0,0,0,0,0,0,0,2,2,0,0,2,2,0,2,3,2,0,2,2,3,3,3,2,3,0,2,3,3,2,3,3,0,0,2,2,3,3,3,3,0,3,2,2,2,2,2,2,3,2,3,0,2,3,0,3,0,2,2,0,0,3,0,0,0,0,0,0,0,0,0,0,0,0,0,0,0,0,0,0,0,0,0,0,0,0,0,0,0,0,0,0,0,0,0,0,0,0,0,0,0,0,0,0,0,0,0,0,0,0,0,0,0,0,0,0],"split_type":[0,0,0,0,0,0,0,0,0,0,0,0,0,0,0,0,0,0,0,0,0,0,0,0,0,0,0,0,0,0,0,0,0,0,0,0,0,0,0,0,0,0,0,0,0,0,0,0,0,0,0,0,0,0,0,0,0,0,0,0,0,0,0,0,0,0,0,0,0,0,0,0,0,0,0,0,0,0,0,0,0,0,0,0,0,0,0,0,0,0,0,0,0,0,0,0,0,0,0,0,0,0,0,0,0,0,0,0,0,0,0,0,0,0,0,0,0],"sum_hessian":[3.2E3,1.735E3,1.465E3,8.11E2,9.24E2,8.87E2,5.78E2,4.28E2,3.83E2,4.19E2,5.05E2,4.6E2,4.27E2,1.61E2,4.17E2,2.69E2,1.59E2,1.34E2,2.49E2,3E1,3.89E2,2.14E2,2.91E2,1.64E2,2.96E2,2.69E2,1.58E2,1.39E2,2.2E1,2.93E2,1.24E2,6E0,2.63E2,1E0,1.58E2,8.4E1,5E1,1.14E2,1.35E2,2.4E1,6E0,3.37E2,5.2E1,1.44E2,7E1,2.64E2,2.7E1,7.3E1,9.1E1,2.35E2,6.1E1,1E1,2.59E2,1.04E2,5.4E1,2E0,1.37E2,4E0,1.8E1,1E1,2.83E2,5.6E1,6.8E1,5E0,1E0,2.61E2,2E0,4E0,8E1,7E0,4.3E1,1.13E2,1E0,1.34E2,1E0,2.2E1,2E0,3E0,3E0,1.07E2,2.3E2,3.9E1,1.3E1,2.1E1,1.23E2,3.8E1,3.2E1,1.94E2,7E1,1E0,2.6E1,5.6E1,1.7E1,8.9E1,2E0,5.7E1,1.78E2,2.4E1,3.7E1,8E0,2E0,7.5E1,1.84E2,3.5E1,6.9E1,1.1E1,4.3E1,1.36E2,1E0,2E0,2E0,1E0,1.7E1,7E0,3E0,3E0,6.5E1],"tree_param":{"num_deleted":"0","num_feature":"4","num_nodes":"117","size_leaf_vector":"1"}},{"base_weights":[3.6649045E-2,-6.1084843E0,7.205323E0,-9.7987995E0,-2.311511E0,3.1907275E0,1.1319628E1,-1.2998224E1,-6.2217975E0,-6.0228615E0,8.0599034E-1,3.829699E-1,6.5734415E0,8.42585E0,1.5102177E1,-1.50549135E1,-1.1492753E1,-8.075887E0,-4.292018E0,-7.8338947E0,-3.6813545E0,-1.3323237E0,2.7823389E0,-1.6411828E0,2.6444178E0,3.8679066E0,8.263215E0,6.8124757E0,1.0775955E1,1.3194525E1,1.7561368E0,-1.6225865E0,-1.3052858E0,-1.3663782E0,-1.0163128E1,-9.091613E0,-5.42752E0,-5.8961306E0,-2.5976663E0,-8.834478E0,-6.053231E0,-4.691628E0,-2.0265732E0,-2.8863237E0,9.276145E-1,6.396533E-1,4.7819753E0,-3.928566E0,-7.4705905E-1,1.0134203E0,4.0904207E0,2.317003E0,5.714556E0,6.963396E0,9.557502E0,5.6381903E0,8.985087E0,8.825141E0,1.2489644E0,1.1707914E0,1.4825448E0,-1.1046823E0,-8.8119954E-1,-1.0375208E0,-8.10523E-1,-6.0678893E-1,-3.9140597E-1,-7.00045E-1,-4.9147892E-1,-3.4057733E-1,-1.4527582E-1,-1.022055E0,-8.098462E-1,-6.959409E-1,-5.067175E-1,-5.067921E-1,-2.9224452E-1,-3.0414423E-1,-1.2173995E-1,-4.237773E-1,-1.9076397E-1,1.8421909E-2,2.4544911E-1,-5.0430622E-2,1.6479403E-1,3.493744E-1,6.033021E-1,-5.2833796E-1,-2.7683222E-1,-1.8058006E-1,3.6069896E-2,3.5938244E-2,2.6811573E-1,2.559447E-1,4.7429806E-1,8.795212E-2,2.9874036E-1,4.058829E-1,6.128064E-1,5.384735E-1,7.776195E-1,8.3905977E-1,1.0742377E0,4.4543836E-1,6.7255E-1,3.2510212E-1,9.0817195E-1,7.6952523E-1,9.7649014E-1],"categories":[],"categories_nodes":[],"categories_segments":[],"categories_sizes":[],"default_left":[0,0,0,0,0,0,0,0,0,0,0,0,0,0,0,0,0,0,0,0,0,0,0,0,0,0,0,0,0,0,0,0,0,0,0,0,0,0,0,0,0,0,0,0,0,0,0,0,0,0,0,0,0,0,0,0,0,0,0,0,0,0,0,0,0,0,0,0,0,0,0,0,0,0,0,0,0,0,0,0,0,0,0,0,0,0,0,0,0,0,0,0,0,0,0,0,0,0,0,0,0,0,0,0,0,0,0,0,0],"id":5,"left_children":[1,3,5,7,9,11,13,15,17,19,21,23,25,27,29,31,33,35,37,39,41,43,45,47,49,51,53,55,57,59,-1,-1,-1,-1,61,63,65,67,69,71,73,75,77,79,81,83,85,87,89,91,93,95,97,99,101,103,105,107,-1,-1,-1,-1,-1,-1,-1,-1,-1,-1,-1,-1,-1,-1,-1,-1,-1,-1,-1,-1,-1,-1,-1,-1,-1,-1,-1,-1,-1,-1,-1,-1,-1,-1,-1,-1,-1,-1,-1,-1,-1,-1,-1,-1,-1,-1,-1,-1,-1,-1,-1],"loss_changes":[1.4154062E5,2.421695E4,2.445754E4,9.953891E3,9.886275E3,7.1391636E3,7.8827656E3,1.2548125E3,1.452544E3,1.6238232E3,1.968967E3,1.8903766E3,1.5257891E3,1.5059258E3,1.2476562E3,2.3538672E2,6.4103516E2,5.167959E2,5.437285E2,3.3522656E2,2.773667E2,7.895486E2,1.0332701E3,4.4245203E2,4.5523767E2,3.668651E2,2.834043E2,5.8569434E2,4.492832E2,2.6503906E2,0E0,0E0,0E0,0E0,1.0603516E2,1.0524219E2,3.4371338E1,7.819263E1,8.893756E1,5.618164E1,3.6803223E1,5.4957764E1,5.0892242E1,1.6721277E2,1.037107E2,1.370513E2,1.7942407E2,8.0455505E1,1.861029E2,1.00173355E2,9.0032715E1,6.82988E1,1.5187866E1,9.538965E1,4.898047E1,1.8130615E2,1.6894043E1,1.01796875E1,0E0,0E0,0E0,0E0,0E0,0E0,0E0,0E0,0E0,0E0,0E0,0E0,0E0,0E0,0E0,0E0,0E0,0E0,0E0,0E0,0E0,0E0,0E0,0E0,0E0,0E0,0E0,0E0,0E0,0E0,0E0,0E0,0E0,0E0,0E0,0E0,0E0,0E0,0E0,0E0,0E0,0E0,0E0,0E0,0E0,0E0,0E0,0E0,0E0,0E0,0E0],"parents":[2147483647,0,0,1,1,2,2,3,3,4,4,5,5,6,6,7,7,8,8,9,9,10,10,11,11,12,12,13,13,14,14,15,15,16,16,17,17,18,18,19,19,20,20,21,21,22,22,23,23,24,24,25,25,26,26,27,27,28,28,29,29,34,34,35,35,36,36,37,37,38,38,39,39,40,40,41,41,42,42,43,43,44,44,45,45,46,46,47,47,48,48,49,49,50,50,51,51,52,52,53,53,54,54,55,55,56,56,57,57],"right_children":[2,4,6,8,10,12,14,16,18,20,22,24,26,28,30,32,34,36,38,40,42,44,46,48,50,52,54,56,58,60,-1,-1,-1,-1,62,64,66,68,70,72,74,76,78,80,82,84,86,88,90,92,94,96,98,100,102,104,106,108,-1,-1,-1,-1,-1,-1,-1,-1,-1,-1,-1,-1,-1,-1,-1,-1,-1,-1,-1,-1,-1,-1,-1,-1,-1,-1,-1,-1,-1,-1,-1,-1,-1,-1,-1,-1,-1,-1,-1,-1,-1,-1,-1,-1,-1,-1,-1,-1,-1,-1,-1],"split_conditions":[2.7442934E1,9.915142E2,1.0011197E3,1.3850626E1,1.2169834E1,3.9259476E1,4.0333252E1,7.035355E2,7.52182E2,1.286723E3,1.2204568E3,7.736664E2,6.9371704E2,1.2771859E3,1.2687642E3,7.8103285E0,4.748264E0,2.377981E1,2.0916693E1,7.059953E0,7.66757E0,2.0682135E1,1.8998955E1,3.0771038E1,3.31217E1,4.503509E1,4.503509E1,3.518499E1,3.332315E1,4.582446E1,1.7561368E0,-1.6225865E0,-1.3052858E0,-1.3663782E0,9.960984E0,1.773331E1,6.880411E2,1.6867277E1,2.5121365E1,1.0817216E3,1.1144995E3,1.4559188E3,1.3690991E3,1.5838084E1,2.5284838E1,1.3798378E3,2.3077873E1,6.263701E2,6.325741E2,9.4359973E2,8.502724E2,5.5709906E2,5.470612E2,8.166024E2,8.28746E2,1.1540231E3,3.050366E3,1.3902207E3,1.2489644E0,1.1707914E0,1.4825448E0,-1.1046823E0,-8.8119954E-1,-1.0375208E0,-8.10523E-1,-6.0678893E-1,-3.9140597E-1,-7.00045E-1,-4.9147892E-1,-3.4057733E-1,-1.4527582E-1,-1.022055E0,-8.098462E-1,-6.959409E-1,-5.067175E-1,-5.067921E-1,-2.9224452E-1,-3.0414423E-1,-1.2173995E-1,-4.237773E-1,-1.9076397E-1,1.8421909E-2,2.4544911E-1,-5.0430622E-2,1.6479403E-1,3.493744E-1,6.033021E-1,-5.2833796E-1,-2.7683222E-1,-1.8058006E-1,3.6069896E-2,3.5938244E-2,2.6811573E-1,2.559447E-1,4.7429806E-1,8.795212E-2,2.9874036E-1,4.058829E-1,6.128064E-1,5.384735E-1,7.776195E-1,8.3905977E-1,1.0742377E0,4.4543836E-1,6.7255E-1,3.2510212E-1,9.0817195E-1,7.6952523E-1,9.7649014E-1],"split_indices":[0,1,1,0,0,0,0,1,1,1,1,1,1,1,1,0,0,0,0,0,0,0,0,0,0,0,0,0,0,0,0,0,0,0,0,0,1,0,0,1,1,1,1,0,0,1,0,1,1,1,1,1,1,1,1,1,3,1,0,0,0,0,0,0,0,0,0,0,0,0,0,0,0,0,0,0,0,0,0,0,0,0,0,0,0,0,0,0,0,0,0,0,0,0,0,0,0,0,0,0,0,0,0,0,0,0,0,0,0],"split_type":[0,0,0,0,0,0,0,0,0,0,0,0,0,0,0,0,0,0,0,0,0,0,0,0,0,0,0,0,0,0,0,0,0,0,0,0,0,0,0,0,0,0,0,0,0,0,0,0,0,0,0,0,0,0,0,0,0,0,0,0,0,0,0,0,0,0,0,0,0,0,0,0,0,0,0,0,0,0,0,0,0,0,0,0,0,0,0,0,0,0,0,0,0,0,0,0,0,0,0,0,0,0,0,0,0,0,0,0,0],"sum_hessian":[3.211E3,1.729E3,1.482E3,8.76E2,8.53E2,7.51E2,7.31E2,4.61E2,4.15E2,3.89E2,4.64E2,4.11E2,3.4E2,4.16E2,3.15E2,1.91E2,2.7E2,2.1E2,2.05E2,2.18E2,1.71E2,2.23E2,2.41E2,2.17E2,1.94E2,1.32E2,2.08E2,2.49E2,1.67E2,1.81E2,1.34E2,1.16E2,7.5E1,9.9E1,1.71E2,1.5E2,6E1,1.04E2,1.01E2,1.37E2,8.1E1,1.05E2,6.6E1,1.32E2,9.1E1,1.17E2,1.24E2,6E1,1.57E2,9.2E1,1.02E2,7.3E1,5.9E1,1.07E2,1.01E2,1.64E2,8.5E1,8.1E1,8.6E1,9.9E1,8.2E1,9.9E1,7.2E1,6.1E1,8.9E1,4E1,2E1,4.6E1,5.8E1,5.8E1,4.3E1,4.3E1,9.4E1,3.9E1,4.2E1,8.5E1,2E1,2.8E1,3.8E1,5.4E1,7.8E1,6.2E1,2.9E1,5.5E1,6.2E1,6.3E1,6.1E1,2.6E1,3.4E1,8E1,7.7E1,6.7E1,2.5E1,3.2E1,7E1,2.4E1,4.9E1,1.4E1,4.5E1,3.9E1,6.8E1,5.5E1,4.6E1,8.1E1,8.3E1,2E0,8.3E1,4.1E1,4E1],"tree_param":{"num_deleted":"0","num_feature":"4","num_nodes":"109","size_leaf_vector":"1"}},{"base_weights":[5.36485E-2,-5.3256707E0,6.7911453E0,-8.459857E0,-2.0626144E0,4.124903E0,9.918506E0,-1.0123459E1,-7.0241632E0,-4.323293E0,-9.8608446E-1,2.8434825E0,5.3689175E0,8.57115E0,1.1091818E1,-1.0832583E1,-9.302942E0,-7.8788013E0,-5.845106E0,-1.7742327E-1,-4.556918E0,-1.9618973E0,-6.12675E-2,1.8298639E0,3.0913541E0,6.2830124E0,4.568071E0,8.986096E0,5.657449E0,5.573536E-1,1.1156472E1,-4.3161353E-1,-1.0903299E1,-1.028676E1,-8.3139E0,-6.566233E0,-8.379564E0,-6.620194E0,-5.0434318E0,-3.6957114E0,9.1108257E-1,-6.7027693E0,-4.344354E0,-2.8876612E0,-8.825721E-1,1.1927161E-1,-2.3854177E0,2.1114352E0,-1.8373033E0,2.470524E0,3.5430155E0,5.0862093E0,7.1646566E0,4.6551356E0,1.363893E0,9.180469E0,5.781695E0,1.5410415E0,6.183587E0,1.7434438E-1,1.1178868E0,-1.0949438E0,-3.9751258E-1,-1.9909775E-1,-1.0352074E0,-7.247483E-1,-9.1850084E-1,-2.207208E-1,-6.760194E-1,-8.4973556E-1,-3.920511E-1,-5.0625896E-1,-7.73967E-1,-5.1384753E-1,-2.4313603E-4,-8.745379E-2,-6.029616E-1,-2.149622E-2,1.9212584E-1,-1.0020156E-1,-7.217744E-1,-4.0919882E-1,-5.6021297E-1,-1.8527119E-1,-3.442909E-1,-4.0529396E-2,-1.6254859E-1,-1.7500326E-2,1.4015023E-1,-3.9012894E-1,-1.02817655E-1,2.3522924E-1,-9.1337435E-2,8.823749E-2,-3.442736E-1,1.426484E-2,2.5419325E-1,5.0186604E-1,3.3054683E-1,6.807275E-1,4.3007585E-1,2.191072E-1,7.4023074E-1,4.415731E-1,7.1859044E-1,-4.9394425E-2,4.038991E-1,1.1128577E0,8.7783146E-1,3.9008477E-1,6.8862885E-1,-5.035555E-2,2.070672E-1,2.2721788E-2,6.3444203E-1],"categories":[],"categories_nodes":[],"categories_segments":[],"categories_sizes":[],"default_left":[0,0,0,0,0,0,0,0,0,0,0,0,0,0,0,0,0,0,0,0,0,0,0,0,0,0,0,0,0,0,0,0,0,0,0,0,0,0,0,0,0,0,0,0,0,0,0,0,0,0,0,0,0,0,0,0,0,0,0,0,0,0,0,0,0,0,0,0,0,0,0,0,0,0,0,0,0,0,0,0,0,0,0,0,0,0,0,0,0,0,0,0,0,0,0,0,0,0,0,0,0,0,0,0,0,0,0,0,0,0,0,0,0,0,0],"id":6,"left_children":[1,3,5,7,9,11,13,15,17,19,21,23,25,27,29,31,33,35,37,39,41,43,45,47,49,51,53,55,57,-1,59,-1,61,63,65,67,69,71,73,75,77,79,81,83,85,87,89,91,93,95,97,99,101,103,105,107,109,111,113,-1,-1,-1,-1,-1,-1,-1,-1,-1,-1,-1,-1,-1,-1,-1,-1,-1,-1,-1,-1,-1,-1,-1,-1,-1,-1,-1,-1,-1,-1,-1,-1,-1,-1,-1,-1,-1,-1,-1,-1,-1,-1,-1,-1,-1,-1,-1,-1,-1,-1,-1,-1,-1,-1,-1,-1],"loss_changes":[1.15434484E5,1.8093555E4,1.1748039E4,2.0839258E3,2.110081E3,1.2034033E3,9.3052734E2,1.3926172E2,4.443164E2,2.699204E2,5.321219E2,8.9073975E1,2.535166E2,3.1886914E2,5.8878906E1,5.1416016E1,1.0722461E2,1.2752344E2,9.5311035E1,6.49204E1,9.065088E1,2.8384497E2,1.2806953E2,8.341458E1,7.5608154E1,1.5015088E2,5.1632812E1,1.1172461E2,7.8496216E1,0E0,5.0679688E1,0E0,2.3384766E1,3.0169922E1,2.932959E1,5.3511475E1,6.99668E1,1.3913867E2,5.073877E1,2.0373856E1,1.5371171E1,5.6532043E1,5.355713E1,8.158826E1,4.6651382E1,1.0715182E2,4.0758698E1,5.4747772E1,2.9491385E1,2.114502E1,4.322119E1,7.6406006E1,1.0101904E2,9.070752E1,3.7138817E1,9.6177734E1,9.455261E0,7.6966953E0,3.238855E1,0E0,0E0,0E0,0E0,0E0,0E0,0E0,0E0,0E0,0E0,0E0,0E0,0E0,0E0,0E0,0E0,0E0,0E0,0E0,0E0,0E0,0E0,0E0,0E0,0E0,0E0,0E0,0E0,0E0,0E0,0E0,0E0,0E0,0E0,0E0,0E0,0E0,0E0,0E0,0E0,0E0,0E0,0E0,0E0,0E0,0E0,0E0,0E0,0E0,0E0,0E0,0E0,0E0,0E0,0E0,0E0],"parents":[2147483647,0,0,1,1,2,2,3,3,4,4,5,5,6,6,7,7,8,8,9,9,10,10,11,11,12,12,13,13,14,14,15,15,16,16,17,17,18,18,19,19,20,20,21,21,22,22,23,23,24,24,25,25,26,26,27,27,28,28,30,30,32,32,33,33,34,34,35,35,36,36,37,37,38,38,39,39,40,40,41,41,42,42,43,43,44,44,45,45,46,46,47,47,48,48,49,49,50,50,51,51,52,52,53,53,54,54,55,55,56,56,57,57,58,58],"right_children":[2,4,6,8,10,12,14,16,18,20,22,24,26,28,30,32,34,36,38,40,42,44,46,48,50,52,54,56,58,-1,60,-1,62,64,66,68,70,72,74,76,78,80,82,84,86,88,90,92,94,96,98,100,102,104,106,108,110,112,114,-1,-1,-1,-1,-1,-1,-1,-1,-1,-1,-1,-1,-1,-1,-1,-1,-1,-1,-1,-1,-1,-1,-1,-1,-1,-1,-1,-1,-1,-1,-1,-1,-1,-1,-1,-1,-1,-1,-1,-1,-1,-1,-1,-1,-1,-1,-1,-1,-1,-1,-1,-1,-1,-1,-1,-1],"split_conditions":[2.8286598E1,1.3850626E1,3.993279E1,6.1019115E0,1.83893E1,3.3818054E1,4.4507057E1,3.1687486E0,1.0340895E1,2.690568E3,2.3077873E1,5.8218667E3,7.5362915E3,1.2874151E4,2.2740486E3,2.2740486E3,8.501611E3,6.062571E3,8.744427E3,2.1140718E3,3.7788804E3,9.266919E3,1.4107659E4,1.4500526E4,3.059155E1,3.6579475E1,1.4650169E4,1.4441124E4,4.6441323E3,5.573536E-1,3.0974258E3,-4.3161353E-1,1.4963843E4,3.050366E3,1.1399513E4,2.1140718E3,1.4137586E4,7.9808613E3,1.4903668E4,1.5209936E1,1.5043916E1,1.42813E1,1.2921003E4,6.6054546E3,2.0916693E1,1.2126387E4,9.205872E3,5.6678184E3,4.3651406E3,2.2740486E3,7.0059785E3,3.9457551E3,3.2366367E3,1.3891571E4,1.4781696E4,4.171543E3,1.4847786E4,4.148709E1,4.0220703E1,1.7434438E-1,1.1178868E0,-1.0949438E0,-3.9751258E-1,-1.9909775E-1,-1.0352074E0,-7.247483E-1,-9.1850084E-1,-2.207208E-1,-6.760194E-1,-8.4973556E-1,-3.920511E-1,-5.0625896E-1,-7.73967E-1,-5.1384753E-1,-2.4313603E-4,-8.745379E-2,-6.029616E-1,-2.149622E-2,1.9212584E-1,-1.0020156E-1,-7.217744E-1,-4.0919882E-1,-5.6021297E-1,-1.8527119E-1,-3.442909E-1,-4.0529396E-2,-1.6254859E-1,-1.7500326E-2,1.4015023E-1,-3.9012894E-1,-1.02817655E-1,2.3522924E-1,-9.1337435E-2,8.823749E-2,-3.442736E-1,1.426484E-2,2.5419325E-1,5.0186604E-1,3.3054683E-1,6.807275E-1,4.3007585E-1,2.191072E-1,7.4023074E-1,4.415731E-1,7.1859044E-1,-4.9394425E-2,4.038991E-1,1.1128577E0,8.7783146E-1,3.9008477E-1,6.8862885E-1,-5.035555E-2,2.070672E-1,2.2721788E-2,6.3444203E-1],"split_indices":[0,0,0,0,0,0,0,0,0,2,0,3,2,2,2,2,3,2,3,2,3,3,2,2,0,0,3,3,3,0,3,0,3,3,3,2,3,2,2,0,0,0,2,2,0,3,3,3,3,2,3,2,3,3,3,2,3,0,0,0,0,0,0,0,0,0,0,0,0,0,0,0,0,0,0,0,0,0,0,0,0,0,0,0,0,0,0,0,0,0,0,0,0,0,0,0,0,0,0,0,0,0,0,0,0,0,0,0,0,0,0,0,0,0,0],"split_type":[0,0,0,0,0,0,0,0,0,0,0,0,0,0,0,0,0,0,0,0,0,0,0,0,0,0,0,0,0,0,0,0,0,0,0,0,0,0,0,0,0,0,0,0,0,0,0,0,0,0,0,0,0,0,0,0,0,0,0,0,0,0,0,0,0,0,0,0,0,0,0,0,0,0,0,0,0,0,0,0,0,0,0,0,0,0,0,0,0,0,0,0,0,0,0,0,0,0,0,0,0,0,0,0,0,0,0,0,0,0,0,0,0,0,0],"sum_hessian":[3.183E3,1.77E3,1.413E3,9.02E2,8.68E2,7.64E2,6.49E2,4.15E2,4.87E2,2.79E2,5.89E2,3.78E2,3.86E2,3.06E2,3.43E2,2.16E2,1.99E2,2.79E2,2.08E2,1.5E1,2.64E2,2.86E2,3.03E2,7.6E1,3.02E2,1.77E2,2.09E2,2.66E2,4E1,5E0,3.38E2,3E0,2.13E2,9.5E1,1.04E2,8.1E1,1.98E2,1.02E2,1.06E2,3E0,1.2E1,2.1E1,2.43E2,1.53E2,1.33E2,2.82E2,2.1E1,7.1E1,5E0,1.3E2,1.72E2,7.8E1,9.9E1,2.03E2,6E0,2.49E2,1.7E1,5E0,3.5E1,1E0,3.37E2,2.11E2,2E0,1E0,9.4E1,5.1E1,5.3E1,4E0,7.7E1,1.92E2,6E0,4.5E1,5.7E1,1.04E2,2E0,2E0,1E0,6E0,6E0,2E0,1.9E1,2.06E2,3.7E1,5.5E1,9.8E1,8.2E1,5.1E1,2.3E2,5.2E1,9E0,1.2E1,6.6E1,5E0,2E0,3E0,4E0,1.26E2,2.1E1,1.51E2,2.2E1,5.6E1,5E0,9.4E1,1.88E2,1.5E1,4E0,2E0,3.8E1,2.11E2,8E0,9E0,1E0,4E0,1E0,3.4E1],"tree_param":{"num_deleted":"0","num_feature":"4","num_nodes":"115","size_leaf_vector":"1"}},{"base_weights":[7.6086774E-2,-4.887944E0,5.943601E0,-7.9201145E0,-2.341543E0,3.5989702E0,8.916429E0,-9.005277E0,-6.493841E0,-3.9908261E0,-1.0840625E0,2.3945227E0,4.8327284E0,7.3895125E0,9.795691E0,-9.8284645E0,-8.336845E0,-6.952896E0,-5.5272207E0,-1.6889689E0,-4.1226654E0,-2.0436738E0,-3.7819976E-1,8.935359E-1,2.8054204E0,5.6590943E0,4.1746078E0,7.724362E0,4.3067527E0,9.364724E0,1.078194E1,-8.6169815E0,-1.0623418E1,-9.857121E0,-7.98152E0,-7.471861E-1,-7.0031753E0,-6.0196767E0,-4.145058E0,-2.7476451E0,5.7942428E-2,-3.604377E0,-4.458886E0,-2.725316E0,-1.2673213E0,-2.0602067E0,-1.0232379E-1,1.7120748E0,-1.784182E0,1.3914921E0,3.3539598E0,4.0116234E0,6.091755E0,3.5721438E0,4.4938927E0,6.97612E-2,7.7532005E0,1.8797503E0,5.096714E0,6.644786E0,9.604325E-1,1.1724901E0,9.357703E0,-4.2619926E-1,-8.899681E-1,-1.078007E0,-5.0323904E-1,-1.8914282E-1,-9.996058E-1,-5.484814E-1,-8.0903715E-1,-1.13120966E-1,-0E0,-8.0583304E-2,-7.0262825E-1,-1.4653495E-1,-6.349941E-1,-2.922227E-1,-5.492496E-1,-3.1126538E-1,1.1312363E-1,1.24829136E-1,-1.362065E-1,-3.8665217E-1,-1.8035509E-1,-5.730683E-1,-3.8343805E-1,-1.9069526E-1,-3.551275E-1,-8.128497E-2,-3.372037E-1,-3.3017868E-1,1.9556044E-1,5.778011E-3,-2.4943279E-1,6.0903825E-2,3.0342433E-1,-3.848219E-1,-7.634044E-2,7.23124E-2,2.660733E-1,3.4392756E-1,7.993762E-2,1.4083928E-1,4.4266525E-1,1.969485E-2,6.175643E-1,1.7460677E-1,4.2197838E-1,4.6051693E-1,2.2648513E-1,7.8622913E-1,4.7096997E-1,3.7907016E-1,5.9431624E-2,3.196878E-1,6.4768785E-1,7.606752E-1,2.7953467E-1,4.306502E-1,9.686834E-1],"categories":[],"categories_nodes":[],"categories_segments":[],"categories_sizes":[],"default_left":[0,0,0,0,0,0,0,0,0,0,0,0,0,0,0,0,0,0,0,0,0,0,0,0,0,0,0,0,0,0,0,0,0,0,0,0,0,0,0,0,0,0,0,0,0,0,0,0,0,0,0,0,0,0,0,0,0,0,0,0,0,0,0,0,0,0,0,0,0,0,0,0,0,0,0,0,0,0,0,0,0,0,0,0,0,0,0,0,0,0,0,0,0,0,0,0,0,0,0,0,0,0,0,0,0,0,0,0,0,0,0,0,0,0,0,0,0,0,0,0,0],"id":7,"left_children":[1,3,5,7,9,11,13,15,17,19,21,23,25,27,29,31,33,35,37,39,41,43,45,47,49,51,53,55,57,59,61,63,65,67,69,71,73,75,77,79,81,83,85,87,89,91,93,95,97,99,101,103,105,107,109,-1,111,113,115,117,-1,-1,119,-1,-1,-1,-1,-1,-1,-1,-1,-1,-1,-1,-1,-1,-1,-1,-1,-1,-1,-1,-1,-1,-1,-1,-1,-1,-1,-1,-1,-1,-1,-1,-1,-1,-1,-1,-1,-1,-1,-1,-1,-1,-1,-1,-1,-1,-1,-1,-1,-1,-1,-1,-1,-1,-1,-1,-1,-1,-1],"loss_changes":[9.393307E4,1.346923E4,1.026859E4,1.1735156E3,1.9674849E3,1.2181113E3,7.9990625E2,1.6385938E2,1.14740234E2,1.1718457E2,3.654333E2,2.5677588E2,1.9728223E2,2.1533691E2,7.128125E1,9.5296875E1,5.7289062E1,6.638086E1,5.3668457E1,4.481411E1,5.0734863E1,1.173324E2,1.4481285E2,2.0469449E2,2.5080469E2,1.0142969E2,2.757544E1,3.7719727E1,3.9570007E1,1.2550391E2,4.6648438E1,6.2939453E1,4.40166E1,2.8600098E1,1.18828125E1,8.844087E-1,2.649121E1,1.162605E2,3.9129578E1,2.495665E1,1.8591919E1,6.704761E1,1.6054053E2,7.4470215E1,1.0110275E2,2.259734E2,1.0378945E2,1.0133409E2,4.2953377E1,7.7479645E1,4.8480225E1,3.639868E1,6.6881836E1,9.2559814E1,2.534497E1,0E0,3.3429688E1,1.6959839E1,2.8146484E1,7.767822E1,0E0,0E0,4.333496E1,0E0,0E0,0E0,0E0,0E0,0E0,0E0,0E0,0E0,0E0,0E0,0E0,0E0,0E0,0E0,0E0,0E0,0E0,0E0,0E0,0E0,0E0,0E0,0E0,0E0,0E0,0E0,0E0,0E0,0E0,0E0,0E0,0E0,0E0,0E0,0E0,0E0,0E0,0E0,0E0,0E0,0E0,0E0,0E0,0E0,0E0,0E0,0E0,0E0,0E0,0E0,0E0,0E0,0E0,0E0,0E0,0E0,0E0],"parents":[2147483647,0,0,1,1,2,2,3,3,4,4,5,5,6,6,7,7,8,8,9,9,10,10,11,11,12,12,13,13,14,14,15,15,16,16,17,17,18,18,19,19,20,20,21,21,22,22,23,23,24,24,25,25,26,26,27,27,28,28,29,29,30,30,31,31,32,32,33,33,34,34,35,35,36,36,37,37,38,38,39,39,40,40,41,41,42,42,43,43,44,44,45,45,46,46,47,47,48,48,49,49,50,50,51,51,52,52,53,53,54,54,56,56,57,57,58,58,59,59,62,62],"right_children":[2,4,6,8,10,12,14,16,18,20,22,24,26,28,30,32,34,36,38,40,42,44,46,48,50,52,54,56,58,60,62,64,66,68,70,72,74,76,78,80,82,84,86,88,90,92,94,96,98,100,102,104,106,108,110,-1,112,114,116,118,-1,-1,120,-1,-1,-1,-1,-1,-1,-1,-1,-1,-1,-1,-1,-1,-1,-1,-1,-1,-1,-1,-1,-1,-1,-1,-1,-1,-1,-1,-1,-1,-1,-1,-1,-1,-1,-1,-1,-1,-1,-1,-1,-1,-1,-1,-1,-1,-1,-1,-1,-1,-1,-1,-1,-1,-1,-1,-1,-1,-1],"split_conditions":[2.7442934E1,1.2169834E1,3.993279E1,6.9185796E0,1.8600904E1,3.3460953E1,4.3395916E1,3.1687486E0,1.0340895E1,2.690568E3,2.2101671E1,5.9060654E3,7.343553E3,1.3276254E4,4.807083E1,7.737681E3,4.9963525E3,2.0623977E3,1.0539519E4,2.392496E3,7.84643E3,9.266919E3,4.6441323E3,1.214295E4,2.916959E1,3.4908085E1,3.56007E1,3.050366E3,1.3476554E4,4.267405E3,9.350766E3,3.531987E3,1.4691267E4,3.050366E3,5.183297E3,7.66757E0,3.050366E3,2.9640684E3,1.1269063E1,1.1310929E4,1.1399513E4,1.773331E1,7.3819604E3,8.581004E3,2.1482841E1,2.6169546E1,1.4061949E4,7.4305703E3,3.673579E3,1.1066996E4,3.332315E1,4.745792E3,3.050366E3,6.6185283E3,1.4543662E4,6.97612E-2,1.4441124E4,4.049622E1,4.0900738E1,1.2792379E4,9.604325E-1,1.1724901E0,1.0019493E4,-4.2619926E-1,-8.899681E-1,-1.078007E0,-5.0323904E-1,-1.8914282E-1,-9.996058E-1,-5.484814E-1,-8.0903715E-1,-1.13120966E-1,-0E0,-8.0583304E-2,-7.0262825E-1,-1.4653495E-1,-6.349941E-1,-2.922227E-1,-5.492496E-1,-3.1126538E-1,1.1312363E-1,1.24829136E-1,-1.362065E-1,-3.8665217E-1,-1.8035509E-1,-5.730683E-1,-3.8343805E-1,-1.9069526E-1,-3.551275E-1,-8.128497E-2,-3.372037E-1,-3.3017868E-1,1.9556044E-1,5.778011E-3,-2.4943279E-1,6.0903825E-2,3.0342433E-1,-3.848219E-1,-7.634044E-2,7.23124E-2,2.660733E-1,3.4392756E-1,7.993762E-2,1.4083928E-1,4.4266525E-1,1.969485E-2,6.175643E-1,1.7460677E-1,4.2197838E-1,4.6051693E-1,2.2648513E-1,7.8622913E-1,4.7096997E-1,3.7907016E-1,5.9431624E-2,3.196878E-1,6.4768785E-1,7.606752E-1,2.7953467E-1,4.306502E-1,9.686834E-1],"split_indices":[0,0,0,0,0,0,0,0,0,2,0,3,2,2,0,2,3,2,3,2,2,3,3,2,0,0,0,3,2,3,2,3,3,3,3,0,3,2,0,3,3,0,3,2,0,0,2,2,3,2,0,3,3,3,3,0,3,0,0,2,0,0,2,0,0,0,0,0,0,0,0,0,0,0,0,0,0,0,0,0,0,0,0,0,0,0,0,0,0,0,0,0,0,0,0,0,0,0,0,0,0,0,0,0,0,0,0,0,0,0,0,0,0,0,0,0,0,0,0,0,0],"split_type":[0,0,0,0,0,0,0,0,0,0,0,0,0,0,0,0,0,0,0,0,0,0,0,0,0,0,0,0,0,0,0,0,0,0,0,0,0,0,0,0,0,0,0,0,0,0,0,0,0,0,0,0,0,0,0,0,0,0,0,0,0,0,0,0,0,0,0,0,0,0,0,0,0,0,0,0,0,0,0,0,0,0,0,0,0,0,0,0,0,0,0,0,0,0,0,0,0,0,0,0,0,0,0,0,0,0,0,0,0,0,0,0,0,0,0,0,0,0,0,0,0],"sum_hessian":[3.223E3,1.746E3,1.477E3,7.96E2,9.5E2,8.27E2,6.5E2,4.49E2,3.47E2,4.1E2,5.4E2,4.2E2,4.07E2,2.41E2,4.09E2,1.95E2,2.54E2,2.31E2,1.16E2,2.3E1,3.87E2,2.28E2,3.12E2,9.1E1,3.29E2,1.77E2,2.3E2,2.16E2,2.5E1,2.92E2,1.17E2,8.2E1,1.13E2,4.3E1,2.11E2,2E0,2.29E2,8.3E1,3.3E1,1.4E1,9E0,1.57E2,2.3E2,1.2E2,1.08E2,4.3E1,2.69E2,7E1,2.1E1,9.3E1,2.36E2,3.9E1,1.38E2,8.4E1,1.46E2,1E0,2.15E2,7E0,1.8E1,2.6E1,2.66E2,6.6E1,5.1E1,6E0,7.6E1,1.09E2,4E0,1E0,4.2E1,1.1E1,2E2,1E0,1E0,1E0,2.28E2,6E0,7.7E1,1.9E1,1.4E1,1.3E1,1E0,5E0,4E0,1.36E2,2.1E1,7.3E1,1.57E2,6.2E1,5.8E1,9E1,1.8E1,3.3E1,1E1,2.53E2,1.6E1,3.9E1,3.1E1,6E0,1.5E1,6.2E1,3.1E1,2.28E2,8E0,6E0,3.3E1,2E0,1.36E2,2.3E1,6.1E1,1.38E2,8E0,2.06E2,9E0,2E0,5E0,9E0,9E0,2E1,6E0,4E0,4.7E1],"tree_param":{"num_deleted":"0","num_feature":"4","num_nodes":"121","size_leaf_vector":"1"}},{"base_weights":[-3.3486385E-2,-4.6650667E0,5.158715E0,-7.128976E0,-2.403436E0,2.9730873E0,8.017283E0,-8.089091E0,-5.7635527E0,-3.7785585E0,-1.3328661E0,1.7613362E0,4.345197E0,6.9519176E0,8.934657E0,-8.818237E0,-7.4594903E0,-4.623162E0,-6.180112E0,-2.63354E0,-4.1759744E0,-1.9525166E0,-7.000483E-1,1.0138837E0,2.4538596E0,5.249317E0,3.7178552E0,6.1070647E0,7.5802007E0,8.630538E0,1.0133785E0,-2.859334E-1,-8.888602E0,-8.898532E0,-7.119604E0,-4.327727E0,-7.704673E-1,-7.0542016E0,-5.420523E0,-2.9229703E0,7.030617E-1,-5.636864E0,-3.7727752E0,2.7391737E0,-2.0392873E0,5.7292575E-1,-1.0625432E0,1.3051575E0,-1.0576718E0,1.4130063E0,3.2233744E0,4.299992E0,5.970436E0,3.458791E0,4.7728963E0,6.386728E0,2.653347E0,3.6820593E0,7.796148E0,1.5165035E-1,8.649828E0,-8.960854E-1,-2.866308E-1,-1.7968571E-1,-9.0141946E-1,-7.2485703E-1,-4.5305476E-1,-4.5066363E-1,-4.007161E-2,-8.879861E-1,-6.6754025E-1,-5.4866993E-1,-6.2448706E-2,-1.3191193E-1,-3.3317423E-1,1.9343282E-1,-2.1829294E-2,-7.3447686E-1,-4.7276482E-1,-2.968409E-1,-4.124352E-1,3.847467E-1,-7.9700015E-2,-2.606195E-1,-1.4365517E-1,-3.5034654E-1,1.04322806E-1,-2.834072E-1,-8.0859415E-2,1.0884505E-1,2.7398968E-1,-3.3991703E-1,4.3886253E-3,1.7176293E-1,-3.7813342E-1,6.391191E-1,2.9746735E-1,5.806213E-1,3.5917497E-1,6.4104486E-1,3.3363432E-1,3.6478308E-1,2.122731E-1,-4.2533606E-2,4.9029776E-1,6.627314E-2,6.426418E-1,6.218489E-2,5.3530747E-1,4.0719995E-1,-5.8672144E-3,8.1740427E-1,6.382479E-1,8.664009E-1,2.261186E-1],"categories":[],"categories_nodes":[],"categories_segments":[],"categories_sizes":[],"default_left":[0,0,0,0,0,0,0,0,0,0,0,0,0,0,0,0,0,0,0,0,0,0,0,0,0,0,0,0,0,0,0,0,0,0,0,0,0,0,0,0,0,0,0,0,0,0,0,0,0,0,0,0,0,0,0,0,0,0,0,0,0,0,0,0,0,0,0,0,0,0,0,0,0,0,0,0,0,0,0,0,0,0,0,0,0,0,0,0,0,0,0,0,0,0,0,0,0,0,0,0,0,0,0,0,0,0,0,0,0,0,0,0,0,0,0],"id":8,"left_children":[1,3,5,7,9,11,13,15,17,19,21,23,25,27,29,31,33,35,37,39,41,43,45,47,49,51,53,55,57,59,-1,-1,61,63,65,67,-1,69,71,73,75,77,79,81,83,85,87,89,91,93,95,97,99,101,103,105,107,109,111,-1,113,-1,-1,-1,-1,-1,-1,-1,-1,-1,-1,-1,-1,-1,-1,-1,-1,-1,-1,-1,-1,-1,-1,-1,-1,-1,-1,-1,-1,-1,-1,-1,-1,-1,-1,-1,-1,-1,-1,-1,-1,-1,-1,-1,-1,-1,-1,-1,-1,-1,-1,-1,-1,-1,-1],"loss_changes":[7.753102E4,9.477371E3,9.471672E3,1.0204297E3,1.3046787E3,1.4266074E3,5.793867E2,1.5110742E2,1.318623E2,1.6533545E2,1.9521515E2,2.3527429E2,2.0873291E2,1.163584E2,3.829883E1,6.3560547E1,6.3191406E1,5.193994E1,1.238457E2,1.0174548E2,1.4684375E2,1.0851282E2,1.1601935E2,1.359611E2,1.856084E2,8.488623E1,4.8812744E1,1.1447461E2,1.1577637E2,2.5113281E1,0E0,0E0,6.537695E1,2.050586E1,3.8438477E1,6.023291E1,0E0,1.5931152E1,3.9126465E1,5.742285E1,1.0803751E1,5.724048E1,5.152539E1,2.2967072E1,8.093384E1,1.10768524E2,8.507034E1,5.757492E1,7.2705E1,1.6926697E2,8.7197754E1,5.7146606E1,8.195093E1,4.168799E1,3.2961792E1,2.3657715E1,6.188761E1,1.6685516E1,3.3450195E1,0E0,5.1367188E0,0E0,0E0,0E0,0E0,0E0,0E0,0E0,0E0,0E0,0E0,0E0,0E0,0E0,0E0,0E0,0E0,0E0,0E0,0E0,0E0,0E0,0E0,0E0,0E0,0E0,0E0,0E0,0E0,0E0,0E0,0E0,0E0,0E0,0E0,0E0,0E0,0E0,0E0,0E0,0E0,0E0,0E0,0E0,0E0,0E0,0E0,0E0,0E0,0E0,0E0,0E0,0E0,0E0,0E0],"parents":[2147483647,0,0,1,1,2,2,3,3,4,4,5,5,6,6,7,7,8,8,9,9,10,10,11,11,12,12,13,13,14,14,15,15,16,16,17,17,18,18,19,19,20,20,21,21,22,22,23,23,24,24,25,25,26,26,27,27,28,28,29,29,32,32,33,33,34,34,35,35,37,37,38,38,39,39,40,40,41,41,42,42,43,43,44,44,45,45,46,46,47,47,48,48,49,49,50,50,51,51,52,52,53,53,54,54,55,55,56,56,57,57,58,58,60,60],"right_children":[2,4,6,8,10,12,14,16,18,20,22,24,26,28,30,32,34,36,38,40,42,44,46,48,50,52,54,56,58,60,-1,-1,62,64,66,68,-1,70,72,74,76,78,80,82,84,86,88,90,92,94,96,98,100,102,104,106,108,110,112,-1,114,-1,-1,-1,-1,-1,-1,-1,-1,-1,-1,-1,-1,-1,-1,-1,-1,-1,-1,-1,-1,-1,-1,-1,-1,-1,-1,-1,-1,-1,-1,-1,-1,-1,-1,-1,-1,-1,-1,-1,-1,-1,-1,-1,-1,-1,-1,-1,-1,-1,-1,-1,-1,-1,-1],"split_conditions":[2.672796E1,1.2169834E1,3.993279E1,6.9185796E0,1.8070189E1,3.3460953E1,4.4507057E1,3.1687486E0,5.862523E3,5.5889766E3,2.2101671E1,3.0053709E1,7.2077397E3,4.170723E1,4.8957577E1,2.2740486E3,4.9963525E3,1.3945631E4,9.222953E0,5.393868E3,5.5018345E3,2.2283508E3,4.544081E3,1.3538657E4,8.667161E3,3.6579475E1,3.852037E1,1.3614765E4,3.999631E3,3.0974258E3,1.0133785E0,-2.859334E-1,1.4928744E4,3.050366E3,1.4212508E4,1.37067705E4,-7.704673E-1,4.778133E3,1.4735997E4,2.690568E3,6.249986E3,1.4462238E1,8.779068E3,2.0682135E1,9.266919E3,2.3077873E1,4.511309E3,1.2595102E4,6.8050654E3,1.4500526E4,8.941109E3,3.8305542E3,3.9259476E1,3.7777557E1,7.2560615E3,3.050366E3,4.0900738E1,3.8315117E3,1.2024532E4,1.5165035E-1,1.4949909E4,-8.960854E-1,-2.866308E-1,-1.7968571E-1,-9.0141946E-1,-7.2485703E-1,-4.5305476E-1,-4.5066363E-1,-4.007161E-2,-8.879861E-1,-6.6754025E-1,-5.4866993E-1,-6.2448706E-2,-1.3191193E-1,-3.3317423E-1,1.9343282E-1,-2.1829294E-2,-7.3447686E-1,-4.7276482E-1,-2.968409E-1,-4.124352E-1,3.847467E-1,-7.9700015E-2,-2.606195E-1,-1.4365517E-1,-3.5034654E-1,1.04322806E-1,-2.834072E-1,-8.0859415E-2,1.0884505E-1,2.7398968E-1,-3.3991703E-1,4.3886253E-3,1.7176293E-1,-3.7813342E-1,6.391191E-1,2.9746735E-1,5.806213E-1,3.5917497E-1,6.4104486E-1,3.3363432E-1,3.6478308E-1,2.122731E-1,-4.2533606E-2,4.9029776E-1,6.627314E-2,6.426418E-1,6.218489E-2,5.3530747E-1,4.0719995E-1,-5.8672144E-3,8.1740427E-1,6.382479E-1,8.664009E-1,2.261186E-1],"split_indices":[0,0,0,0,0,0,0,0,2,2,0,0,2,0,0,2,3,3,0,2,3,2,2,2,3,0,0,2,3,3,0,0,3,3,3,3,0,3,3,2,3,0,3,0,3,0,3,2,3,2,3,2,0,0,2,3,0,3,3,0,2,0,0,0,0,0,0,0,0,0,0,0,0,0,0,0,0,0,0,0,0,0,0,0,0,0,0,0,0,0,0,0,0,0,0,0,0,0,0,0,0,0,0,0,0,0,0,0,0,0,0,0,0,0,0],"split_type":[0,0,0,0,0,0,0,0,0,0,0,0,0,0,0,0,0,0,0,0,0,0,0,0,0,0,0,0,0,0,0,0,0,0,0,0,0,0,0,0,0,0,0,0,0,0,0,0,0,0,0,0,0,0,0,0,0,0,0,0,0,0,0,0,0,0,0,0,0,0,0,0,0,0,0,0,0,0,0,0,0,0,0,0,0,0,0,0,0,0,0,0,0,0,0,0,0,0,0,0,0,0,0,0,0,0,0,0,0,0,0,0,0,0,0],"sum_hessian":[3.222E3,1.703E3,1.519E3,8.14E2,8.89E2,8.62E2,6.57E2,4.75E2,3.39E2,3.88E2,5.01E2,4.59E2,4.03E2,3.08E2,3.49E2,2.14E2,2.61E2,9.4E1,2.45E2,1.02E2,2.86E2,2.52E2,2.49E2,2.22E2,2.37E2,1.62E2,2.41E2,1.36E2,1.72E2,2.85E2,6.4E1,3E0,2.11E2,4.5E1,2.16E2,8.8E1,6E0,1.1E2,1.35E2,9.4E1,8E0,5.9E1,2.27E2,4E0,2.48E2,5.5E1,1.94E2,1.95E2,2.7E1,1.02E2,1.35E2,7.3E1,8.9E1,1.97E2,4.4E1,1.25E2,1.1E1,1E1,1.62E2,1E0,2.84E2,2.08E2,3E0,1E0,4.4E1,2.04E2,1.2E1,8.4E1,4E0,1.5E1,9.5E1,1.33E2,2E0,2E1,7.4E1,3E0,5E0,1.8E1,4.1E1,7.2E1,1.55E2,3E0,1E0,1.26E2,1.22E2,5E0,5E1,2.3E1,1.71E2,1.71E2,2.4E1,8E0,1.9E1,9.7E1,5E0,8E0,1.27E2,2.1E1,5.2E1,7.5E1,1.4E1,1.71E2,2.6E1,1E0,4.3E1,1E0,1.24E2,7E0,4E0,9E0,1E0,1.24E2,3.8E1,2.83E2,1E0],"tree_param":{"num_deleted":"0","num_feature":"4","num_nodes":"115","size_leaf_vector":"1"}},{"base_weights":[2.4111005E-3,-4.023245E0,4.7972975E0,-6.239834E0,-1.7448708E0,2.9488523E0,7.1529818E0,-7.3242E0,-5.0612335E0,-2.578142E0,-3.0525875E-1,1.8082501E0,3.7376356E0,5.867622E0,7.7507105E0,-6.4390244E0,-7.9174423E0,-5.449379E-2,-5.1085486E0,-3.2072074E0,-1.8882009E0,-1.8316202E0,-4.371102E-2,5.4160815E-1,2.2551165E0,3.082797E0,4.2985535E0,8.293286E0,5.4412985E0,7.997622E-1,6.6119566E0,-8.296632E0,-6.1291966E0,-8.262191E0,-6.3963614E0,-5.4541266E-1,9.045908E-2,-5.5361443E0,-4.591112E0,-2.2097545E0,-3.557445E0,-1.1105977E0,-2.3332875E0,-2.5368083E0,2.4454002E0,9.089729E-2,-2.0582287E0,1.4550807E0,-2.1385777E0,-1.9936147E0,2.3333483E0,-4.0890524E-1,3.1640975E0,4.9862127E0,3.554601E0,3.9790154E0,8.634202E-1,5.7498684E0,3.0940459E0,3.4441986E0,7.497007E0,-3.043407E-1,-8.631315E-1,-6.3061124E-1,-4.4325772E-1,-8.6523765E-1,-6.9980514E-1,-2.0698862E-1,-6.6083133E-1,1.857626E-2,-8.843919E-2,-5.2600247E-1,-6.5215117E-1,-5.1060724E-1,-3.9769417E-1,-2.5348473E-1,1.3425678E-1,-4.503551E-1,-3.1115547E-1,2.2502065E-1,-1.2804195E-1,-9.402278E-3,-2.5559208E-1,-1.902336E-1,-5.798429E-1,3.1379384E-1,-8.049137E-2,1.2656485E-1,-1.08445315E-2,-3.160496E-1,-9.6059196E-2,-1.27313165E-2,2.7442464E-1,-4.1210553E-1,-1.0074277E-1,-2.3896833E-1,-1.5466996E-2,1.7669268E-1,2.884467E-1,1.2051387E-1,-1.5422119E-1,4.240109E-1,2.9656953E-1,5.154278E-1,1.7454231E-1,3.0622798E-1,4.442804E-1,4.6249387E-1,9.706232E-2,3.931292E-1,6.201334E-1,2.2287157E-1,4.7392702E-1,7.24723E-2,3.875593E-1,6.501247E-1,1.0071708E0],"categories":[],"categories_nodes":[],"categories_segments":[],"categories_sizes":[],"default_left":[0,0,0,0,0,0,0,0,0,0,0,0,0,0,0,0,0,0,0,0,0,0,0,0,0,0,0,0,0,0,0,0,0,0,0,0,0,0,0,0,0,0,0,0,0,0,0,0,0,0,0,0,0,0,0,0,0,0,0,0,0,0,0,0,0,0,0,0,0,0,0,0,0,0,0,0,0,0,0,0,0,0,0,0,0,0,0,0,0,0,0,0,0,0,0,0,0,0,0,0,0,0,0,0,0,0,0,0,0,0,0,0,0,0,0,0,0],"id":9,"left_children":[1,3,5,7,9,11,13,15,17,19,21,23,25,27,29,31,33,35,37,39,41,43,45,47,49,51,53,55,57,-1,59,61,63,65,67,69,-1,71,73,75,77,79,81,83,85,87,89,91,93,95,97,99,101,103,105,107,-1,109,111,113,115,-1,-1,-1,-1,-1,-1,-1,-1,-1,-1,-1,-1,-1,-1,-1,-1,-1,-1,-1,-1,-1,-1,-1,-1,-1,-1,-1,-1,-1,-1,-1,-1,-1,-1,-1,-1,-1,-1,-1,-1,-1,-1,-1,-1,-1,-1,-1,-1,-1,-1,-1,-1,-1,-1,-1,-1],"loss_changes":[6.1536645E4,8.740344E3,6.3134805E3,1.0838086E3,1.0257712E3,7.2773193E2,4.4410352E2,1.8651172E2,9.964844E1,2.286726E2,1.25485565E2,1.8868152E2,1.630542E2,1.6756201E2,6.74043E1,5.5907227E1,8.622266E1,2.8116212E0,6.649609E1,9.007764E1,8.739661E1,1.4495341E2,7.359994E1,2.2094003E2,8.711731E1,6.572534E1,1.128999E2,7.036133E0,1.10973145E2,0E0,2.0578564E2,1.4759888E1,2.0500488E1,4.393457E1,3.497168E1,1.2255629E0,0E0,2.5736816E1,4.0774902E1,9.1289856E1,7.255054E1,5.8145775E1,8.175281E1,7.097571E1,1.8515839E1,5.973417E1,1.7120064E1,1.3728893E2,4.6912514E1,3.0176945E0,7.060657E1,1.2867527E1,3.3884277E1,6.1664795E1,4.11792E1,2.724125E0,0E0,1.035083E2,2.1484955E1,2.0194565E1,9.6946045E1,0E0,0E0,0E0,0E0,0E0,0E0,0E0,0E0,0E0,0E0,0E0,0E0,0E0,0E0,0E0,0E0,0E0,0E0,0E0,0E0,0E0,0E0,0E0,0E0,0E0,0E0,0E0,0E0,0E0,0E0,0E0,0E0,0E0,0E0,0E0,0E0,0E0,0E0,0E0,0E0,0E0,0E0,0E0,0E0,0E0,0E0,0E0,0E0,0E0,0E0,0E0,0E0,0E0,0E0,0E0,0E0],"parents":[2147483647,0,0,1,1,2,2,3,3,4,4,5,5,6,6,7,7,8,8,9,9,10,10,11,11,12,12,13,13,14,14,15,15,16,16,17,17,18,18,19,19,20,20,21,21,22,22,23,23,24,24,25,25,26,26,27,27,28,28,30,30,31,31,32,32,33,33,34,34,35,35,37,37,38,38,39,39,40,40,41,41,42,42,43,43,44,44,45,45,46,46,47,47,48,48,49,49,50,50,51,51,52,52,53,53,54,54,55,55,57,57,58,58,59,59,60,60],"right_children":[2,4,6,8,10,12,14,16,18,20,22,24,26,28,30,32,34,36,38,40,42,44,46,48,50,52,54,56,58,-1,60,62,64,66,68,70,-1,72,74,76,78,80,82,84,86,88,90,92,94,96,98,100,102,104,106,108,-1,110,112,114,116,-1,-1,-1,-1,-1,-1,-1,-1,-1,-1,-1,-1,-1,-1,-1,-1,-1,-1,-1,-1,-1,-1,-1,-1,-1,-1,-1,-1,-1,-1,-1,-1,-1,-1,-1,-1,-1,-1,-1,-1,-1,-1,-1,-1,-1,-1,-1,-1,-1,-1,-1,-1,-1,-1,-1,-1],"split_conditions":[2.7442934E1,1.3699405E1,3.993279E1,6.9185796E0,2.2101671E1,3.24159E1,4.3006985E1,7.788832E3,2.1140718E3,1.7890705E1,4.567488E3,6.8050654E3,3.579125E1,4.171543E3,1.254889E4,1.00356E0,1.2457729E4,2.0623977E3,1.0340895E1,5.5889766E3,6.83045E3,2.7088049E1,1.4107659E4,1.214295E4,2.1140718E3,3.3674902E3,8.415505E3,4.567488E3,1.3276254E4,7.997622E-1,7.2157866E3,2.392496E3,7.05914E3,5.29529E0,1.2548732E4,5.994262E3,9.045908E-2,1.2792379E4,9.205872E3,5.393868E3,5.994262E3,2.2283508E3,4.0294932E3,1.1612433E4,4.186454E3,6.208051E3,9.205872E3,6.2706177E3,1.3356274E4,2.8678164E1,3.0053709E1,7.310336E3,3.8305542E3,3.9763367E1,3.8275646E1,4.3056885E3,8.634202E-1,6.318255E3,1.0889656E4,1.3129239E4,1.4278343E4,-3.043407E-1,-8.631315E-1,-6.3061124E-1,-4.4325772E-1,-8.6523765E-1,-6.9980514E-1,-2.0698862E-1,-6.6083133E-1,1.857626E-2,-8.843919E-2,-5.2600247E-1,-6.5215117E-1,-5.1060724E-1,-3.9769417E-1,-2.5348473E-1,1.3425678E-1,-4.503551E-1,-3.1115547E-1,2.2502065E-1,-1.2804195E-1,-9.402278E-3,-2.5559208E-1,-1.902336E-1,-5.798429E-1,3.1379384E-1,-8.049137E-2,1.2656485E-1,-1.08445315E-2,-3.160496E-1,-9.6059196E-2,-1.27313165E-2,2.7442464E-1,-4.1210553E-1,-1.0074277E-1,-2.3896833E-1,-1.5466996E-2,1.7669268E-1,2.884467E-1,1.2051387E-1,-1.5422119E-1,4.240109E-1,2.9656953E-1,5.154278E-1,1.7454231E-1,3.0622798E-1,4.442804E-1,4.6249387E-1,9.706232E-2,3.931292E-1,6.201334E-1,2.2287157E-1,4.7392702E-1,7.24723E-2,3.875593E-1,6.501247E-1,1.0071708E0],"split_indices":[0,0,0,0,0,0,0,2,2,0,3,3,0,2,2,0,3,2,0,2,2,0,2,2,2,3,2,3,2,0,3,2,2,0,3,3,0,2,3,2,3,2,3,2,3,3,3,2,2,0,0,2,2,0,0,3,0,2,3,2,2,0,0,0,0,0,0,0,0,0,0,0,0,0,0,0,0,0,0,0,0,0,0,0,0,0,0,0,0,0,0,0,0,0,0,0,0,0,0,0,0,0,0,0,0,0,0,0,0,0,0,0,0,0,0,0,0],"split_type":[0,0,0,0,0,0,0,0,0,0,0,0,0,0,0,0,0,0,0,0,0,0,0,0,0,0,0,0,0,0,0,0,0,0,0,0,0,0,0,0,0,0,0,0,0,0,0,0,0,0,0,0,0,0,0,0,0,0,0,0,0,0,0,0,0,0,0,0,0,0,0,0,0,0,0,0,0,0,0,0,0,0,0,0,0,0,0,0,0,0,0,0,0,0,0,0,0,0,0,0,0,0,0,0,0,0,0,0,0,0,0,0,0,0,0,0,0],"sum_hessian":[3.186E3,1.732E3,1.454E3,8.77E2,8.55E2,8.16E2,6.38E2,4.54E2,4.23E2,5.41E2,3.14E2,3.35E2,4.81E2,2.06E2,4.32E2,1.87E2,2.67E2,4E0,4.19E2,2.81E2,2.6E2,4.5E1,2.69E2,8.8E1,2.47E2,2.25E2,2.56E2,2.8E1,1.78E2,3.5E2,8.2E1,2.3E1,1.64E2,2.14E2,5.3E1,3E0,1E0,2.24E2,1.95E2,7.5E1,2.06E2,9.6E1,1.64E2,3.9E1,6E0,2.53E2,1.6E1,6.6E1,2.2E1,4E0,2.43E2,5E0,2.2E2,1.3E2,1.26E2,3E0,2.5E1,1.56E2,2.2E1,1.9E1,6.3E1,2E0,2.1E1,1.46E2,1.8E1,1.59E2,5.5E1,3E0,5E1,1E0,2E0,1.8E2,4.4E1,1.02E2,9.3E1,6.9E1,6E0,6.3E1,1.43E2,4E0,9.2E1,1.5E1,1.49E2,3.4E1,5E0,5E0,1E0,3.6E1,2.17E2,7E0,9E0,3E1,3.6E1,7E0,1.5E1,3E0,1E0,1.22E2,1.21E2,2E0,3E0,3.1E1,1.89E2,1.23E2,7E0,8.4E1,4.2E1,2E0,1E0,3.3E1,1.23E2,1.6E1,6E0,3E0,1.6E1,4.8E1,1.5E1],"tree_param":{"num_deleted":"0","num_feature":"4","num_nodes":"117","size_leaf_vector":"1"}},{"base_weights":[9.632489E-3,-3.5294564E0,4.4656744E0,-6.356977E0,2.8511974E-1,1.1878546E0,8.249279E0,-8.149175E0,-4.16416E0,-1.5157756E0,2.9125333E0,-1.3205163E0,2.630908E0,6.1033487E0,9.961917E0,-9.87416E0,-5.9840965E0,-5.5903606E0,-1.8171237E0,-3.1990356E0,-4.320413E-2,1.0588112E0,4.380062E0,-3.4571326E0,2.0375143E-1,6.018527E-1,4.12075E0,4.207932E0,7.59777E0,8.448123E0,1.2107522E1,-1.0904058E1,-8.932545E0,-6.841403E0,-4.7734776E0,-6.7122326E0,-4.396305E0,-2.7851727E0,-7.581872E-1,-4.200465E0,-1.8004737E0,-8.402018E-1,1.2469682E0,3.198689E-1,2.4648736E0,3.2839546E0,5.399477E0,-4.4302855E0,-2.6923325E0,-6.2682277E-1,1.4544055E0,-8.627025E-1,1.7436624E0,3.2675312E0,5.4994626E0,3.0574317E0,4.856921E0,6.5795784E0,8.840542E-1,7.4808025E0,1.0152709E1,1.103501E0,1.3255075E0,-1.1463007E0,-9.055304E-1,-9.851224E-1,-7.906335E-1,-7.7502525E-1,-6.2744594E-1,-5.640635E-1,-4.0767232E-1,-7.38061E-1,-5.549113E-1,-5.382039E-1,-3.2882634E-1,-3.646074E-1,-1.8995191E-1,-1.4885287E-1,1.38844475E-2,-5.073548E-1,-3.5760275E-1,-2.4047616E-1,-8.8350795E-2,-1.734142E-1,-2.1693712E-2,3.2782614E-2,2.1974538E-1,-9.721956E-2,6.311837E-2,1.1934688E-1,2.9650614E-1,2.4023168E-1,4.3600708E-1,4.290392E-1,6.249966E-1,-4.991583E-1,-3.1807408E-1,-3.029841E-1,-1.4209086E-1,-1.4533769E-1,4.6187136E-2,1.829795E-2,1.8301737E-1,-1.4172919E-1,-2.212376E-2,6.46173E-2,2.2970298E-1,2.557796E-1,4.527081E-1,4.583253E-1,6.906395E-1,2.2811644E-1,3.8651732E-1,3.666678E-1,5.4371166E-1,5.60974E-1,7.145835E-1,6.2529135E-1,8.506689E-1,8.401624E-1,1.0908355E0],"categories":[],"categories_nodes":[],"categories_segments":[],"categories_sizes":[],"default_left":[0,0,0,0,0,0,0,0,0,0,0,0,0,0,0,0,0,0,0,0,0,0,0,0,0,0,0,0,0,0,0,0,0,0,0,0,0,0,0,0,0,0,0,0,0,0,0,0,0,0,0,0,0,0,0,0,0,0,0,0,0,0,0,0,0,0,0,0,0,0,0,0,0,0,0,0,0,0,0,0,0,0,0,0,0,0,0,0,0,0,0,0,0,0,0,0,0,0,0,0,0,0,0,0,0,0,0,0,0,0,0,0,0,0,0,0,0,0,0,0,0],"id":10,"left_children":[1,3,5,7,9,11,13,15,17,19,21,23,25,27,29,31,33,35,37,39,41,43,45,47,49,51,53,55,57,59,61,63,65,67,69,71,73,75,77,79,81,83,85,87,89,91,93,95,97,99,101,103,105,107,109,111,113,115,-1,117,119,-1,-1,-1,-1,-1,-1,-1,-1,-1,-1,-1,-1,-1,-1,-1,-1,-1,-1,-1,-1,-1,-1,-1,-1,-1,-1,-1,-1,-1,-1,-1,-1,-1,-1,-1,-1,-1,-1,-1,-1,-1,-1,-1,-1,-1,-1,-1,-1,-1,-1,-1,-1,-1,-1,-1,-1,-1,-1,-1,-1],"loss_changes":[5.0055105E4,1.9082486E4,1.7414031E4,3.9576758E3,3.5722537E3,2.7328691E3,2.3338281E3,2.0233047E3,1.5255322E3,1.1100045E3,8.299783E2,8.998997E2,1.4450508E3,7.939531E2,1.0681875E3,2.0027539E2,2.2564941E2,3.5115918E2,1.7692694E2,2.8455444E2,2.4779045E2,1.4127594E2,1.7247339E2,7.295068E1,1.692737E2,3.4272998E2,3.058247E2,8.217139E1,1.4528223E2,2.7679785E2,3.222461E1,4.191797E1,7.777734E1,2.4166992E1,4.0681885E1,7.047461E1,1.3544043E2,6.1903564E1,5.6028477E1,4.6959473E1,4.6862457E1,8.244573E1,7.940117E1,3.7183258E1,2.5934662E1,6.949274E1,5.4195312E1,1.767279E1,2.400061E1,8.895714E1,3.0518295E1,3.1540047E1,6.806256E1,1.4236487E2,1.0125781E2,2.1919403E1,3.5780518E1,9.711914E0,0E0,1.229458E2,5.6606445E0,0E0,0E0,0E0,0E0,0E0,0E0,0E0,0E0,0E0,0E0,0E0,0E0,0E0,0E0,0E0,0E0,0E0,0E0,0E0,0E0,0E0,0E0,0E0,0E0,0E0,0E0,0E0,0E0,0E0,0E0,0E0,0E0,0E0,0E0,0E0,0E0,0E0,0E0,0E0,0E0,0E0,0E0,0E0,0E0,0E0,0E0,0E0,0E0,0E0,0E0,0E0,0E0,0E0,0E0,0E0,0E0,0E0,0E0,0E0,0E0],"parents":[2147483647,0,0,1,1,2,2,3,3,4,4,5,5,6,6,7,7,8,8,9,9,10,10,11,11,12,12,13,13,14,14,15,15,16,16,17,17,18,18,19,19,20,20,21,21,22,22,23,23,24,24,25,25,26,26,27,27,28,28,29,29,30,30,31,31,32,32,33,33,34,34,35,35,36,36,37,37,38,38,39,39,40,40,41,41,42,42,43,43,44,44,45,45,46,46,47,47,48,48,49,49,50,50,51,51,52,52,53,53,54,54,55,55,56,56,57,57,59,59,60,60],"right_children":[2,4,6,8,10,12,14,16,18,20,22,24,26,28,30,32,34,36,38,40,42,44,46,48,50,52,54,56,58,60,62,64,66,68,70,72,74,76,78,80,82,84,86,88,90,92,94,96,98,100,102,104,106,108,110,112,114,116,-1,118,120,-1,-1,-1,-1,-1,-1,-1,-1,-1,-1,-1,-1,-1,-1,-1,-1,-1,-1,-1,-1,-1,-1,-1,-1,-1,-1,-1,-1,-1,-1,-1,-1,-1,-1,-1,-1,-1,-1,-1,-1,-1,-1,-1,-1,-1,-1,-1,-1,-1,-1,-1,-1,-1,-1,-1,-1,-1,-1,-1,-1],"split_conditions":[2.8286598E1,1.0581711E3,1.0321179E3,1.5388545E1,1.626056E1,6.995716E2,3.748259E1,8.1378217E2,8.28746E2,1.2651066E3,1.2549402E3,3.7777557E1,3.719526E1,1.2295214E3,1.3035417E3,6.503106E2,8.756157E0,6.880411E2,2.1482841E1,9.321913E0,1.0201781E1,2.3266848E1,1.393973E3,5.744284E2,4.503509E1,8.502724E2,9.091826E2,1.1183463E3,1.364995E3,4.5530285E1,4.4003956E1,1.1433839E1,6.1019115E0,9.0564526E2,9.1112726E2,2.3582474E1,2.1638575E1,9.377168E2,9.479717E2,3.36753E0,1.1709747E3,1.364995E3,1.3842451E3,1.0857783E3,1.0962585E3,2.2101671E1,2.106785E1,3.518499E1,3.56007E1,6.056503E2,5.470612E2,3.24159E1,3.1565378E1,4.582446E1,4.5323605E1,3.256165E1,3.1192966E1,3.2195213E1,8.840542E-1,1.132677E3,1.1144995E3,1.103501E0,1.3255075E0,-1.1463007E0,-9.055304E-1,-9.851224E-1,-7.906335E-1,-7.7502525E-1,-6.2744594E-1,-5.640635E-1,-4.0767232E-1,-7.38061E-1,-5.549113E-1,-5.382039E-1,-3.2882634E-1,-3.646074E-1,-1.8995191E-1,-1.4885287E-1,1.38844475E-2,-5.073548E-1,-3.5760275E-1,-2.4047616E-1,-8.8350795E-2,-1.734142E-1,-2.1693712E-2,3.2782614E-2,2.1974538E-1,-9.721956E-2,6.311837E-2,1.1934688E-1,2.9650614E-1,2.4023168E-1,4.3600708E-1,4.290392E-1,6.249966E-1,-4.991583E-1,-3.1807408E-1,-3.029841E-1,-1.4209086E-1,-1.4533769E-1,4.6187136E-2,1.829795E-2,1.8301737E-1,-1.4172919E-1,-2.212376E-2,6.46173E-2,2.2970298E-1,2.557796E-1,4.527081E-1,4.583253E-1,6.906395E-1,2.2811644E-1,3.8651732E-1,3.666678E-1,5.4371166E-1,5.60974E-1,7.145835E-1,6.2529135E-1,8.506689E-1,8.401624E-1,1.0908355E0],"split_indices":[0,1,1,0,0,1,0,1,1,1,1,0,0,1,1,1,0,1,0,0,0,0,1,1,0,1,1,1,1,0,0,0,0,1,1,0,0,1,1,0,1,1,1,1,1,0,0,0,0,1,1,0,0,0,0,0,0,0,0,1,1,0,0,0,0,0,0,0,0,0,0,0,0,0,0,0,0,0,0,0,0,0,0,0,0,0,0,0,0,0,0,0,0,0,0,0,0,0,0,0,0,0,0,0,0,0,0,0,0,0,0,0,0,0,0,0,0,0,0,0,0],"split_type":[0,0,0,0,0,0,0,0,0,0,0,0,0,0,0,0,0,0,0,0,0,0,0,0,0,0,0,0,0,0,0,0,0,0,0,0,0,0,0,0,0,0,0,0,0,0,0,0,0,0,0,0,0,0,0,0,0,0,0,0,0,0,0,0,0,0,0,0,0,0,0,0,0,0,0,0,0,0,0,0,0,0,0,0,0,0,0,0,0,0,0,0,0,0,0,0,0,0,0,0,0,0,0,0,0,0,0,0,0,0,0,0,0,0,0,0,0,0,0,0,0],"sum_hessian":[3.172E3,1.768E3,1.404E3,1.015E3,7.53E2,7.53E2,6.51E2,5.57E2,4.58E2,4.47E2,3.06E2,2.75E2,4.78E2,2.91E2,3.6E2,3.08E2,2.49E2,2.84E2,1.74E2,2.08E2,2.39E2,1.36E2,1.7E2,1.14E2,1.61E2,2.03E2,2.75E2,1.3E2,1.61E2,2.14E2,1.46E2,1.42E2,1.66E2,1.43E2,1.06E2,1.44E2,1.4E2,9E1,8.4E1,1.2E2,8.8E1,1.48E2,9.1E1,9E1,4.6E1,8.4E1,8.6E1,4.8E1,6.6E1,9.7E1,6.4E1,8.9E1,1.14E2,1.72E2,1.03E2,4.9E1,8.1E1,9.2E1,6.9E1,1.4E2,7.4E1,8.1E1,6.5E1,1.05E2,3.7E1,8.3E1,8.3E1,5E1,9.3E1,4.4E1,6.2E1,8.8E1,5.6E1,7.2E1,6.8E1,4.4E1,4.6E1,4.6E1,3.8E1,4.7E1,7.3E1,5.2E1,3.6E1,6E1,8.8E1,4.7E1,4.4E1,1.7E1,7.3E1,1.4E1,3.2E1,4.8E1,3.6E1,4E1,4.6E1,3.1E1,1.7E1,5.1E1,1.5E1,5.5E1,4.2E1,1.5E1,4.9E1,4.7E1,4.2E1,3.9E1,7.5E1,1.12E2,6E1,6.5E1,3.8E1,2.7E1,2.2E1,2.9E1,5.2E1,3.8E1,5.4E1,6.7E1,7.3E1,2.6E1,4.8E1],"tree_param":{"num_deleted":"0","num_feature":"4","num_nodes":"121","size_leaf_vector":"1"}},{"base_weights":[-1.4109092E-2,-3.2965515E0,3.8648775E0,-6.6425023E0,-7.0442015E-1,9.3831563E-1,7.230187E0,-8.5972595E0,-5.0512776E0,-2.739374E0,9.4892114E-1,-9.6273375E-1,2.376103E0,5.8194647E0,9.667846E0,-9.990513E-1,-7.4055195E0,-6.7271895E0,-4.0841837E0,-4.357803E0,-8.4249175E-1,-7.456397E-1,3.0026104E0,-3.0126047E0,5.63267E-1,1.8575095E-1,3.7035158E0,4.40109E0,7.3394322E0,7.325275E0,1.0766176E1,-8.2897294E-1,-6.620132E0,-7.606948E-1,-5.410846E0,-4.9062614E0,-2.5430932E0,-5.2290115E0,-3.600616E0,-1.9911387E0,-2.1751887E-1,-2.0127876E0,1.8139042E-2,1.392135E0,3.8440433E0,-4.094913E0,-2.3166096E0,-4.5013052E-1,1.4274814E0,-3.1059387E-1,1.8507617E0,3.0334191E0,5.061012E0,3.5426733E0,5.756156E0,5.8995976E0,8.293419E0,5.9041715E-1,7.777499E-1,9.846308E0,1.2225506E0,-7.222245E-1,-5.8354485E-1,-6.1708486E-1,-4.725822E-1,-5.2260226E-1,-3.6301088E-1,-3.1613606E-1,-1.4857729E-1,-5.8763355E-1,-4.0849075E-1,-4.097652E-1,-2.5089243E-1,-2.642526E-1,-1.1579495E-1,-1.3207309E-1,2.9294733E-2,-2.6575372E-1,-5.929613E-2,-7.2714955E-2,1.0286168E-1,4.5100726E-2,2.2164483E-1,2.6508024E-1,4.8249245E-1,-4.3678102E-1,-3.0693328E-1,-2.876966E-1,-1.7406033E-1,-1.7546178E-1,-5.092533E-3,6.962432E-2,1.9841038E-1,-1.09398894E-1,6.3299015E-2,1.094255E-1,2.6670054E-1,2.2084753E-1,3.8691378E-1,4.353013E-1,6.6325086E-1,2.5208852E-1,4.1282853E-1,4.4847026E-1,6.424708E-1,5.2139187E-1,6.890622E-1,7.060861E-1,9.488171E-1,8.9701647E-1,1.0986289E0],"categories":[],"categories_nodes":[],"categories_segments":[],"categories_sizes":[],"default_left":[0,0,0,0,0,0,0,0,0,0,0,0,0,0,0,0,0,0,0,0,0,0,0,0,0,0,0,0,0,0,0,0,0,0,0,0,0,0,0,0,0,0,0,0,0,0,0,0,0,0,0,0,0,0,0,0,0,0,0,0,0,0,0,0,0,0,0,0,0,0,0,0,0,0,0,0,0,0,0,0,0,0,0,0,0,0,0,0,0,0,0,0,0,0,0,0,0,0,0,0,0,0,0,0,0,0,0,0,0,0,0],"id":11,"left_children":[1,3,5,7,9,11,13,15,17,19,21,23,25,27,29,-1,31,33,35,37,39,41,43,45,47,49,51,53,55,57,59,-1,61,-1,63,65,67,69,71,73,75,77,79,81,83,85,87,89,91,93,95,97,99,101,103,105,107,-1,-1,109,-1,-1,-1,-1,-1,-1,-1,-1,-1,-1,-1,-1,-1,-1,-1,-1,-1,-1,-1,-1,-1,-1,-1,-1,-1,-1,-1,-1,-1,-1,-1,-1,-1,-1,-1,-1,-1,-1,-1,-1,-1,-1,-1,-1,-1,-1,-1,-1,-1,-1,-1],"loss_changes":[4.050219E4,1.493841E4,1.435193E4,2.2942734E3,3.2730464E3,2.13714E3,2.2737344E3,4.8216602E2,6.4730273E2,1.334315E3,1.8712792E3,1.056113E3,1.292761E3,8.978662E2,5.548379E2,0E0,7.210254E1,1.3240527E2,3.2503906E2,1.3531152E2,1.4435641E2,2.8574307E2,3.2341602E2,9.834497E1,1.7064407E2,1.4039374E2,2.358125E2,2.4156396E2,2.3398438E2,5.409668E0,1.0025391E2,0E0,5.213867E0,0E0,3.067749E0,5.073828E1,5.6940308E1,5.424414E1,5.9055298E1,3.509378E1,7.48258E1,9.971216E1,1.4010114E2,6.467526E1,1.725603E2,1.2434082E0,2.3579773E1,4.659832E1,4.1088013E1,9.7573654E1,2.078775E1,1.20458496E2,7.016577E1,7.3298584E1,4.3198975E1,2.1301514E1,1.1100781E2,0E0,0E0,6.326172E0,0E0,0E0,0E0,0E0,0E0,0E0,0E0,0E0,0E0,0E0,0E0,0E0,0E0,0E0,0E0,0E0,0E0,0E0,0E0,0E0,0E0,0E0,0E0,0E0,0E0,0E0,0E0,0E0,0E0,0E0,0E0,0E0,0E0,0E0,0E0,0E0,0E0,0E0,0E0,0E0,0E0,0E0,0E0,0E0,0E0,0E0,0E0,0E0,0E0,0E0,0E0],"parents":[2147483647,0,0,1,1,2,2,3,3,4,4,5,5,6,6,7,7,8,8,9,9,10,10,11,11,12,12,13,13,14,14,16,16,17,17,18,18,19,19,20,20,21,21,22,22,23,23,24,24,25,25,26,26,27,27,28,28,29,29,30,30,32,32,34,34,35,35,36,36,37,37,38,38,39,39,40,40,41,41,42,42,43,43,44,44,45,45,46,46,47,47,48,48,49,49,50,50,51,51,52,52,53,53,54,54,55,55,56,56,59,59],"right_children":[2,4,6,8,10,12,14,16,18,20,22,24,26,28,30,-1,32,34,36,38,40,42,44,46,48,50,52,54,56,58,60,-1,62,-1,64,66,68,70,72,74,76,78,80,82,84,86,88,90,92,94,96,98,100,102,104,106,108,-1,-1,110,-1,-1,-1,-1,-1,-1,-1,-1,-1,-1,-1,-1,-1,-1,-1,-1,-1,-1,-1,-1,-1,-1,-1,-1,-1,-1,-1,-1,-1,-1,-1,-1,-1,-1,-1,-1,-1,-1,-1,-1,-1,-1,-1,-1,-1,-1,-1,-1,-1,-1,-1],"split_conditions":[2.7442934E1,9.1933466E2,1.0200827E3,1.1619216E1,1.2169834E1,3.719526E1,4.148709E1,6.9371704E2,6.5974945E2,1.2180681E3,1.2180681E3,7.434426E2,6.97183E2,1.2440494E3,1.1709747E3,-9.990513E-1,4.748264E0,2.106785E1,2.1638575E1,5.1561933E0,1.3191073E3,1.7540955E1,1.6867277E1,5.9761005E2,8.7803107E2,4.77283E1,9.157861E2,3.579125E1,3.282048E1,1.0692064E3,1.375933E3,-8.2897294E-1,8.2056323E2,-7.606948E-1,5.5165735E2,8.648181E2,8.0490314E2,1.1091954E3,1.1049501E3,6.374433E0,4.1777167E0,1.132677E3,1.0817216E3,1.3798378E3,1.375933E3,3.4751762E1,3.1565378E1,2.9761486E1,3.256165E1,6.018788E2,6.018788E2,4.368493E1,4.6953423E1,1.1183463E3,1.0962585E3,1.3902207E3,1.361625E3,5.9041715E-1,7.777499E-1,4.6587685E1,1.2225506E0,-7.222245E-1,-5.8354485E-1,-6.1708486E-1,-4.725822E-1,-5.2260226E-1,-3.6301088E-1,-3.1613606E-1,-1.4857729E-1,-5.8763355E-1,-4.0849075E-1,-4.097652E-1,-2.5089243E-1,-2.642526E-1,-1.1579495E-1,-1.3207309E-1,2.9294733E-2,-2.6575372E-1,-5.929613E-2,-7.2714955E-2,1.0286168E-1,4.5100726E-2,2.2164483E-1,2.6508024E-1,4.8249245E-1,-4.3678102E-1,-3.0693328E-1,-2.876966E-1,-1.7406033E-1,-1.7546178E-1,-5.092533E-3,6.962432E-2,1.9841038E-1,-1.09398894E-1,6.3299015E-2,1.094255E-1,2.6670054E-1,2.2084753E-1,3.8691378E-1,4.353013E-1,6.6325086E-1,2.5208852E-1,4.1282853E-1,4.4847026E-1,6.424708E-1,5.2139187E-1,6.890622E-1,7.060861E-1,9.488171E-1,8.9701647E-1,1.0986289E0],"split_indices":[0,1,1,0,0,0,0,1,1,1,1,1,1,1,1,0,0,0,0,0,1,0,0,1,1,0,1,0,0,1,1,0,1,0,1,1,1,1,1,0,0,1,1,1,1,0,0,0,0,1,1,0,0,1,1,1,1,0,0,0,0,0,0,0,0,0,0,0,0,0,0,0,0,0,0,0,0,0,0,0,0,0,0,0,0,0,0,0,0,0,0,0,0,0,0,0,0,0,0,0,0,0,0,0,0,0,0,0,0,0,0],"split_type":[0,0,0,0,0,0,0,0,0,0,0,0,0,0,0,0,0,0,0,0,0,0,0,0,0,0,0,0,0,0,0,0,0,0,0,0,0,0,0,0,0,0,0,0,0,0,0,0,0,0,0,0,0,0,0,0,0,0,0,0,0,0,0,0,0,0,0,0,0,0,0,0,0,0,0,0,0,0,0,0,0,0,0,0,0,0,0,0,0,0,0,0,0,0,0,0,0,0,0,0,0,0,0,0,0,0,0,0,0,0,0],"sum_hessian":[3.179E3,1.722E3,1.457E3,7.51E2,9.71E2,7.8E2,6.77E2,3.35E2,4.16E2,4.35E2,5.36E2,3.36E2,4.44E2,4.31E2,2.46E2,1.51E2,1.84E2,1.5E2,2.66E2,2.34E2,2.01E2,2.94E2,2.42E2,1.43E2,1.93E2,1.68E2,2.76E2,2.25E2,2.06E2,8.1E1,1.65E2,8.2E1,1.02E2,8.7E1,6.3E1,1.72E2,9.4E1,1.06E2,1.28E2,7E1,1.31E2,1.1E2,1.84E2,8.4E1,1.58E2,5.4E1,8.9E1,8.9E1,1.04E2,1.3E2,3.8E1,1.87E2,8.9E1,1.4E2,8.5E1,8.5E1,1.21E2,2.3E1,5.8E1,1.06E2,5.9E1,5.3E1,4.9E1,2.6E1,3.7E1,1.35E2,3.7E1,5.8E1,3.6E1,6.5E1,4.1E1,8.6E1,4.2E1,3.8E1,3.2E1,4.1E1,9E1,7.5E1,3.5E1,1.06E2,7.8E1,4E1,4.4E1,7.3E1,8.5E1,4E1,1.4E1,4.3E1,4.6E1,2E1,6.9E1,4.6E1,5.8E1,7.1E1,5.9E1,2.1E1,1.7E1,9.6E1,9.1E1,6.4E1,2.5E1,5.3E1,8.7E1,3.2E1,5.3E1,5.4E1,3.1E1,6.3E1,5.8E1,6.5E1,4.1E1],"tree_param":{"num_deleted":"0","num_feature":"4","num_nodes":"111","size_leaf_vector":"1"}},{"base_weights":[8.7689534E-2,-3.2320578E0,3.2439797E0,-5.64565E0,-2.1374789E-1,3.7926328E-1,6.254549E0,-6.936257E0,-4.0935025E0,-1.2807275E0,1.8709612E0,-1.159988E0,1.8997486E0,4.595909E0,7.901479E0,-8.146104E0,-5.3143787E0,-5.4408264E0,-2.6113575E0,-2.6568372E0,-4.5593657E-2,5.1781875E-1,3.28933E0,-3.1328883E0,9.0565346E-2,7.7213384E-2,3.199795E0,3.1388438E0,6.0513506E0,6.1772003E0,9.53582E0,-9.351786E-1,-7.466021E0,-6.1596313E0,-4.3461328E0,-6.4474363E0,-4.794239E0,-3.6386828E0,-1.9296417E0,-3.416001E0,-1.6913713E0,-1.0301124E0,7.830657E-1,-3.4567833E-1,1.0463259E0,2.4313214E0,3.9819613E0,-4.1131783E0,-2.4894118E0,-7.7243197E-1,1.0597463E0,-8.7869465E-1,8.326086E-1,2.4322524E0,3.971747E0,2.2969158E0,3.965376E0,5.493366E0,7.149672E-1,5.021692E0,7.0010633E0,8.517984E0,1.0729322E0,-8.51137E-1,-6.9110554E-1,-6.770916E-1,-5.380947E-1,-5.0203115E-1,-3.4580505E-1,-7.002385E-1,-5.322772E-1,-5.2285147E-1,-3.7215802E-1,-4.347336E-1,-2.907428E-1,-3.0127358E-1,-1.3481878E-1,-4.310085E-1,-2.8848416E-1,-2.2278753E-1,-8.887226E-2,-1.3406512E-1,1.6022354E-2,2.8115317E-2,1.9830304E-1,-6.9899015E-2,8.303922E-3,4.9488213E-2,1.5821148E-1,1.8266784E-1,3.223226E-1,3.318075E-1,4.49754E-1,-4.665714E-1,-3.3465317E-1,-2.939803E-1,-1.7843436E-1,-1.5526274E-1,-1.9588498E-2,3.5310246E-2,1.7823932E-1,-1.4071576E-1,-5.541618E-3,1.4534478E-2,1.5429169E-1,1.2809394E-1,2.98489E-1,3.3578357E-1,4.9814573E-1,1.2793504E-1,2.82308E-1,2.9677692E-1,4.5959446E-1,4.679788E-1,6.182328E-1,3.9425623E-1,5.7540435E-1,6.124664E-1,7.9808336E-1,7.808162E-1,1.0186275E0],"categories":[],"categories_nodes":[],"categories_segments":[],"categories_sizes":[],"default_left":[0,0,0,0,0,0,0,0,0,0,0,0,0,0,0,0,0,0,0,0,0,0,0,0,0,0,0,0,0,0,0,0,0,0,0,0,0,0,0,0,0,0,0,0,0,0,0,0,0,0,0,0,0,0,0,0,0,0,0,0,0,0,0,0,0,0,0,0,0,0,0,0,0,0,0,0,0,0,0,0,0,0,0,0,0,0,0,0,0,0,0,0,0,0,0,0,0,0,0,0,0,0,0,0,0,0,0,0,0,0,0,0,0,0,0,0,0,0,0,0,0],"id":12,"left_children":[1,3,5,7,9,11,13,15,17,19,21,23,25,27,29,31,33,35,37,39,41,43,45,47,49,51,53,55,57,59,61,-1,63,65,67,69,71,73,75,77,79,81,83,85,87,89,91,93,95,97,99,101,103,105,107,109,111,113,-1,115,117,119,-1,-1,-1,-1,-1,-1,-1,-1,-1,-1,-1,-1,-1,-1,-1,-1,-1,-1,-1,-1,-1,-1,-1,-1,-1,-1,-1,-1,-1,-1,-1,-1,-1,-1,-1,-1,-1,-1,-1,-1,-1,-1,-1,-1,-1,-1,-1,-1,-1,-1,-1,-1,-1,-1,-1,-1,-1,-1,-1],"loss_changes":[3.3624184E4,1.1391899E4,1.4184148E4,1.7112969E3,1.5504792E3,1.9775829E3,2.1532266E3,8.8349414E2,7.7776807E2,7.8316095E2,4.508603E2,1.0368191E3,1.0064121E3,8.325967E2,1.0695664E3,1.4906836E2,1.3995361E2,1.0269336E2,1.261875E2,1.534939E2,1.9989406E2,5.610821E1,5.8019775E1,9.191968E1,2.1663866E2,1.2925873E2,1.3664062E2,1.315293E2,8.20293E1,1.5213281E2,1.5450195E2,0E0,4.2317383E1,1.3282471E1,4.1065674E1,1.017749E1,4.0204346E1,2.5500427E1,6.918518E1,4.4309692E1,3.9909515E1,4.173314E1,7.931893E1,7.238775E0,2.1464104E1,1.9463501E1,5.517029E0,1.0271606E1,2.6355164E1,6.114624E1,6.145685E1,3.4146465E1,4.8423843E1,7.655487E1,5.80636E1,5.1124878E1,4.9138916E1,4.6773926E1,0E0,4.4310547E1,4.6739258E1,5.4845703E1,0E0,0E0,0E0,0E0,0E0,0E0,0E0,0E0,0E0,0E0,0E0,0E0,0E0,0E0,0E0,0E0,0E0,0E0,0E0,0E0,0E0,0E0,0E0,0E0,0E0,0E0,0E0,0E0,0E0,0E0,0E0,0E0,0E0,0E0,0E0,0E0,0E0,0E0,0E0,0E0,0E0,0E0,0E0,0E0,0E0,0E0,0E0,0E0,0E0,0E0,0E0,0E0,0E0,0E0,0E0,0E0,0E0,0E0,0E0],"parents":[2147483647,0,0,1,1,2,2,3,3,4,4,5,5,6,6,7,7,8,8,9,9,10,10,11,11,12,12,13,13,14,14,15,15,16,16,17,17,18,18,19,19,20,20,21,21,22,22,23,23,24,24,25,25,26,26,27,27,28,28,29,29,30,30,32,32,33,33,34,34,35,35,36,36,37,37,38,38,39,39,40,40,41,41,42,42,43,43,44,44,45,45,46,46,47,47,48,48,49,49,50,50,51,51,52,52,53,53,54,54,55,55,56,56,57,57,59,59,60,60,61,61],"right_children":[2,4,6,8,10,12,14,16,18,20,22,24,26,28,30,32,34,36,38,40,42,44,46,48,50,52,54,56,58,60,62,-1,64,66,68,70,72,74,76,78,80,82,84,86,88,90,92,94,96,98,100,102,104,106,108,110,112,114,-1,116,118,120,-1,-1,-1,-1,-1,-1,-1,-1,-1,-1,-1,-1,-1,-1,-1,-1,-1,-1,-1,-1,-1,-1,-1,-1,-1,-1,-1,-1,-1,-1,-1,-1,-1,-1,-1,-1,-1,-1,-1,-1,-1,-1,-1,-1,-1,-1,-1,-1,-1,-1,-1,-1,-1,-1,-1,-1,-1,-1,-1],"split_conditions":[2.5121365E1,1.0422999E3,1.0078974E3,7.9087683E2,1.5838084E1,3.719526E1,3.748259E1,1.3537233E1,1.1846666E1,1.2687642E3,1.281462E3,7.214935E2,6.97183E2,1.2440494E3,1.2333279E3,6.128405E2,6.639203E2,4.1777167E0,9.0252637E2,8.526206E0,7.66757E0,1.1235054E3,1.393973E3,5.785099E2,8.673405E2,4.2101665E1,8.4728845E2,3.1192966E1,1.42004E3,4.234436E1,1.375933E3,-9.351786E-1,3.892826E0,1.962291E1,1.9756887E1,9.4994366E2,9.7517084E2,1.737594E1,1.626056E1,1.1370476E3,1.1628597E3,1.4478566E3,1.4344108E3,1.0817216E3,1.962291E1,2.0916693E1,2.0093813E1,3.1670187E1,3.1565378E1,3.0281895E1,3.1565378E1,6.056503E2,6.056503E2,4.2557537E1,4.503509E1,1.0924935E3,1.1235054E3,3.1808868E1,7.149672E-1,1.0857783E3,1.1235054E3,4.6587685E1,1.0729322E0,-8.51137E-1,-6.9110554E-1,-6.770916E-1,-5.380947E-1,-5.0203115E-1,-3.4580505E-1,-7.002385E-1,-5.322772E-1,-5.2285147E-1,-3.7215802E-1,-4.347336E-1,-2.907428E-1,-3.0127358E-1,-1.3481878E-1,-4.310085E-1,-2.8848416E-1,-2.2278753E-1,-8.887226E-2,-1.3406512E-1,1.6022354E-2,2.8115317E-2,1.9830304E-1,-6.9899015E-2,8.303922E-3,4.9488213E-2,1.5821148E-1,1.8266784E-1,3.223226E-1,3.318075E-1,4.49754E-1,-4.665714E-1,-3.3465317E-1,-2.939803E-1,-1.7843436E-1,-1.5526274E-1,-1.9588498E-2,3.5310246E-2,1.7823932E-1,-1.4071576E-1,-5.541618E-3,1.4534478E-2,1.5429169E-1,1.2809394E-1,2.98489E-1,3.3578357E-1,4.9814573E-1,1.2793504E-1,2.82308E-1,2.9677692E-1,4.5959446E-1,4.679788E-1,6.182328E-1,3.9425623E-1,5.7540435E-1,6.124664E-1,7.9808336E-1,7.808162E-1,1.0186275E0],"split_indices":[0,1,1,1,0,0,0,0,0,1,1,1,1,1,1,1,1,0,1,0,0,1,1,1,1,0,1,0,1,0,1,0,0,0,0,1,1,0,0,1,1,1,1,1,0,0,0,0,0,0,0,1,1,0,0,1,1,0,0,1,1,0,0,0,0,0,0,0,0,0,0,0,0,0,0,0,0,0,0,0,0,0,0,0,0,0,0,0,0,0,0,0,0,0,0,0,0,0,0,0,0,0,0,0,0,0,0,0,0,0,0,0,0,0,0,0,0,0,0,0,0],"split_type":[0,0,0,0,0,0,0,0,0,0,0,0,0,0,0,0,0,0,0,0,0,0,0,0,0,0,0,0,0,0,0,0,0,0,0,0,0,0,0,0,0,0,0,0,0,0,0,0,0,0,0,0,0,0,0,0,0,0,0,0,0,0,0,0,0,0,0,0,0,0,0,0,0,0,0,0,0,0,0,0,0,0,0,0,0,0,0,0,0,0,0,0,0,0,0,0,0,0,0,0,0,0,0,0,0,0,0,0,0,0,0,0,0,0,0,0,0,0,0,0,0],"sum_hessian":[3.207E3,1.563E3,1.644E3,8.68E2,6.95E2,8.43E2,8.01E2,4.72E2,3.96E2,4.6E2,2.35E2,4.19E2,4.24E2,4.01E2,4E2,2.68E2,2.04E2,2.06E2,1.9E2,2.17E2,2.43E2,1.21E2,1.14E2,1.62E2,2.57E2,1.77E2,2.47E2,2.02E2,1.99E2,1.97E2,2.03E2,9.2E1,1.76E2,1.06E2,9.8E1,7.7E1,1.29E2,7.4E1,1.16E2,1.2E2,9.7E1,1.11E2,1.32E2,4.6E1,7.5E1,5.3E1,6.1E1,6.2E1,1E2,1.36E2,1.21E2,7.8E1,9.9E1,1.26E2,1.21E2,1.02E2,1E2,1.36E2,6.3E1,8.5E1,1.12E2,1.14E2,8.9E1,5.6E1,1.2E2,5.5E1,5.1E1,5.3E1,4.5E1,4.8E1,2.9E1,8.9E1,4E1,3.5E1,3.9E1,3.9E1,7.7E1,4.2E1,7.8E1,5.7E1,4E1,8.8E1,2.3E1,9.4E1,3.8E1,2.5E1,2.1E1,3.8E1,3.7E1,3.2E1,2.1E1,3E1,3.1E1,3.3E1,2.9E1,5.9E1,4.1E1,5.7E1,7.9E1,6.2E1,5.9E1,4.7E1,3.1E1,5.1E1,4.8E1,4.2E1,8.4E1,7.8E1,4.3E1,3.6E1,6.6E1,4.1E1,5.9E1,6.6E1,7E1,3.7E1,4.8E1,6.3E1,4.9E1,8.4E1,3E1],"tree_param":{"num_deleted":"0","num_feature":"4","num_nodes":"121","size_leaf_vector":"1"}},{"base_weights":[-3.8864233E-2,-2.6375465E0,2.4503124E0,-3.9421034E0,-1.5765995E0,7.948402E-1,3.4629195E0,-4.5837555E0,-3.3418884E0,-2.0906951E0,-8.80123E-1,4.496959E-2,1.0450219E0,2.5002637E0,4.193767E0,-5.6137257E0,-4.2823534E0,-3.8624532E0,-2.766893E0,-1.1376256E0,-2.529952E0,-2.443121E0,-6.392317E-1,5.432053E-1,-5.056776E-1,1.4104197E0,5.27593E-1,1.8367705E0,2.985639E0,2.7270787E0,4.41105E0,-4.46161E0,-6.269402E0,-5.2642794E0,-3.9495533E0,-2.4479723E0,-4.210909E0,-2.5438178E0,-4.6029053E0,-1.7811917E0,-5.103599E-1,-2.9757318E0,-1.863208E0,-1.5153608E0,-3.7076051E0,-4.473104E-1,-1.232584E0,7.527813E-1,-2.2551494E0,-1.7573634E0,7.982509E-2,1.2629565E0,3.6938615E0,-8.3042574E-1,7.0566726E-1,2.2023678E0,-6.456413E-1,3.079306E0,6.359378E-1,3.045795E0,-3.9007467E-1,4.127566E0,5.5027103E0,-6.136254E-1,-2.60653E-1,-6.8809974E-1,-4.0567324E-1,-5.4577047E-1,-9.734751E-2,-3.3066127E-1,-4.4563165E-1,-7.532653E-2,-2.8449845E-1,-3.033683E-1,-4.4889116E-1,-2.810543E-1,-1.0469543E-1,-4.7735143E-1,-8.012783E-2,-1.718011E-2,-2.1921344E-1,2.9755047E-1,-7.7665634E-2,-3.2019988E-1,-2.3422103E-1,-2.2809517E-1,-1.1615566E-1,2.2065337E-1,-1.7232376E-1,-4.7038552E-1,-2.6431173E-1,-9.32089E-2,-9.430679E-3,-1.596892E-1,2.7266506E-2,-3.392876E-2,1.4824286E-1,-2.651771E-1,-8.602114E-3,-2.374393E-1,4.727908E-2,6.0859114E-2,-1.0387281E-1,4.3636042E-1,1.1965542E-1,1.3572046E-1,4.3513137E-1,8.100369E-2,-1.6050054E-1,3.6300253E-2,1.20325975E-1,-1.3664263E-2,2.3388277E-1,4.050828E-1,-1.0142787E-1,2.903183E-1,4.0736166E-1,1.3333687E-1,-1.6350007E-1,5.4554397E-1,2.7330872E-1,9.304474E-3,-1.9359553E-1,4.277266E-1,2.8134695E-1,5.856598E-1,2.4111538E-1],"categories":[],"categories_nodes":[],"categories_segments":[],"categories_sizes":[],"default_left":[0,0,0,0,0,0,0,0,0,0,0,0,0,0,0,0,0,0,0,0,0,0,0,0,0,0,0,0,0,0,0,0,0,0,0,0,0,0,0,0,0,0,0,0,0,0,0,0,0,0,0,0,0,0,0,0,0,0,0,0,0,0,0,0,0,0,0,0,0,0,0,0,0,0,0,0,0,0,0,0,0,0,0,0,0,0,0,0,0,0,0,0,0,0,0,0,0,0,0,0,0,0,0,0,0,0,0,0,0,0,0,0,0,0,0,0,0,0,0,0,0,0,0,0,0,0,0],"id":13,"left_children":[1,3,5,7,9,11,13,15,17,19,21,23,25,27,29,31,33,35,37,39,41,43,45,47,49,51,53,55,57,59,61,63,65,67,69,71,73,75,77,79,81,83,85,87,89,91,93,95,97,99,101,103,105,107,109,111,113,115,117,119,121,123,125,-1,-1,-1,-1,-1,-1,-1,-1,-1,-1,-1,-1,-1,-1,-1,-1,-1,-1,-1,-1,-1,-1,-1,-1,-1,-1,-1,-1,-1,-1,-1,-1,-1,-1,-1,-1,-1,-1,-1,-1,-1,-1,-1,-1,-1,-1,-1,-1,-1,-1,-1,-1,-1,-1,-1,-1,-1,-1,-1,-1,-1,-1,-1,-1],"loss_changes":[2.0744746E4,2.164833E3,2.742671E3,2.5463477E2,3.0829688E2,1.1672122E2,7.036582E2,7.9586914E1,9.8501465E1,2.0523901E2,1.3743973E2,4.3351715E1,8.735657E1,1.3605493E2,1.7081934E2,2.6100586E1,6.4885254E1,8.267383E1,6.0479614E1,6.3048035E1,9.5026855E1,5.134311E1,3.594902E1,5.0224224E1,5.5272938E1,8.676465E1,4.7730015E1,1.7310693E2,5.3352783E1,7.795221E1,1.310586E2,7.6329285E1,3.0535278E1,4.7160767E1,5.030371E1,2.4409943E1,3.5047607E1,6.095117E1,7.2922363E0,5.097368E1,7.820947E1,2.0901611E1,3.7748657E1,2.696492E1,8.042389E0,4.173597E1,4.334104E1,6.2769638E1,4.6600513E0,3.4338455E1,3.13447E1,4.7342377E1,1.8103363E1,3.0605E1,2.8904366E1,5.320465E1,4.708737E1,3.0030273E1,1.9571941E1,3.701703E1,6.3391805E0,6.614111E1,9.445825E1,0E0,0E0,0E0,0E0,0E0,0E0,0E0,0E0,0E0,0E0,0E0,0E0,0E0,0E0,0E0,0E0,0E0,0E0,0E0,0E0,0E0,0E0,0E0,0E0,0E0,0E0,0E0,0E0,0E0,0E0,0E0,0E0,0E0,0E0,0E0,0E0,0E0,0E0,0E0,0E0,0E0,0E0,0E0,0E0,0E0,0E0,0E0,0E0,0E0,0E0,0E0,0E0,0E0,0E0,0E0,0E0,0E0,0E0,0E0,0E0,0E0,0E0,0E0,0E0],"parents":[2147483647,0,0,1,1,2,2,3,3,4,4,5,5,6,6,7,7,8,8,9,9,10,10,11,11,12,12,13,13,14,14,15,15,16,16,17,17,18,18,19,19,20,20,21,21,22,22,23,23,24,24,25,25,26,26,27,27,28,28,29,29,30,30,31,31,32,32,33,33,34,34,35,35,36,36,37,37,38,38,39,39,40,40,41,41,42,42,43,43,44,44,45,45,46,46,47,47,48,48,49,49,50,50,51,51,52,52,53,53,54,54,55,55,56,56,57,57,58,58,59,59,60,60,61,61,62,62],"right_children":[2,4,6,8,10,12,14,16,18,20,22,24,26,28,30,32,34,36,38,40,42,44,46,48,50,52,54,56,58,60,62,64,66,68,70,72,74,76,78,80,82,84,86,88,90,92,94,96,98,100,102,104,106,108,110,112,114,116,118,120,122,124,126,-1,-1,-1,-1,-1,-1,-1,-1,-1,-1,-1,-1,-1,-1,-1,-1,-1,-1,-1,-1,-1,-1,-1,-1,-1,-1,-1,-1,-1,-1,-1,-1,-1,-1,-1,-1,-1,-1,-1,-1,-1,-1,-1,-1,-1,-1,-1,-1,-1,-1,-1,-1,-1,-1,-1,-1,-1,-1,-1,-1,-1,-1,-1,-1],"split_conditions":[9.7517084E2,7.1354285E2,1.1628597E3,6.018788E2,8.598249E2,6.208051E3,1.3072616E3,5.6678184E3,9.174026E3,5.7035522E3,4.6925596E3,8.941436E3,9.817779E3,8.625013E3,4.418362E3,7.4305703E3,5.264469E2,4.7815024E3,1.39715205E4,4.0557244E3,1.0073318E4,9.573172E3,1.2103096E4,1.1473422E3,4.0800952E3,1.1473422E3,1.0303404E4,1.3167603E4,1.4735997E4,1.3839773E4,1.4600118E3,4.500461E3,1.3276254E4,1.4403895E4,8.669902E3,4.511309E3,4.3651406E3,1.2434785E4,1.4928744E4,5.7294976E3,4.208527E3,8.1378217E2,8.012313E2,2.3250535E3,1.1731267E4,9.091826E2,9.5341626E2,1.0366075E3,1.1540231E3,1.4379918E4,5.3829956E3,6.417504E3,4.171543E3,9.957031E3,1.1606243E4,3.2019998E3,1.1673512E3,1.3321577E4,1.2295214E3,3.349165E3,1.4771815E4,1.3538657E4,1.4955165E3,-6.136254E-1,-2.60653E-1,-6.8809974E-1,-4.0567324E-1,-5.4577047E-1,-9.734751E-2,-3.3066127E-1,-4.4563165E-1,-7.532653E-2,-2.8449845E-1,-3.033683E-1,-4.4889116E-1,-2.810543E-1,-1.0469543E-1,-4.7735143E-1,-8.012783E-2,-1.718011E-2,-2.1921344E-1,2.9755047E-1,-7.7665634E-2,-3.2019988E-1,-2.3422103E-1,-2.2809517E-1,-1.1615566E-1,2.2065337E-1,-1.7232376E-1,-4.7038552E-1,-2.6431173E-1,-9.32089E-2,-9.430679E-3,-1.596892E-1,2.7266506E-2,-3.392876E-2,1.4824286E-1,-2.651771E-1,-8.602114E-3,-2.374393E-1,4.727908E-2,6.0859114E-2,-1.0387281E-1,4.3636042E-1,1.1965542E-1,1.3572046E-1,4.3513137E-1,8.100369E-2,-1.6050054E-1,3.6300253E-2,1.20325975E-1,-1.3664263E-2,2.3388277E-1,4.050828E-1,-1.0142787E-1,2.903183E-1,4.0736166E-1,1.3333687E-1,-1.6350007E-1,5.4554397E-1,2.7330872E-1,9.304474E-3,-1.9359553E-1,4.277266E-1,2.8134695E-1,5.856598E-1,2.4111538E-1],"split_indices":[1,1,1,1,1,3,1,3,3,2,3,2,2,3,3,2,1,2,2,2,3,2,2,1,3,1,2,2,3,2,1,2,2,3,2,3,3,2,3,3,2,1,1,2,2,1,1,1,1,2,3,3,2,2,3,3,1,2,1,2,2,2,1,0,0,0,0,0,0,0,0,0,0,0,0,0,0,0,0,0,0,0,0,0,0,0,0,0,0,0,0,0,0,0,0,0,0,0,0,0,0,0,0,0,0,0,0,0,0,0,0,0,0,0,0,0,0,0,0,0,0,0,0,0,0,0,0],"split_type":[0,0,0,0,0,0,0,0,0,0,0,0,0,0,0,0,0,0,0,0,0,0,0,0,0,0,0,0,0,0,0,0,0,0,0,0,0,0,0,0,0,0,0,0,0,0,0,0,0,0,0,0,0,0,0,0,0,0,0,0,0,0,0,0,0,0,0,0,0,0,0,0,0,0,0,0,0,0,0,0,0,0,0,0,0,0,0,0,0,0,0,0,0,0,0,0,0,0,0,0,0,0,0,0,0,0,0,0,0,0,0,0,0,0,0,0,0,0,0,0,0,0,0,0,0,0,0],"sum_hessian":[3.205E3,1.568E3,1.637E3,7.02E2,8.66E2,6.22E2,1.015E3,3.36E2,3.66E2,4.97E2,3.69E2,1.56E2,4.66E2,4.4E2,5.75E2,7.2E1,2.64E2,1.89E2,1.77E2,1.58E2,3.39E2,4.8E1,3.21E2,8.2E1,7.4E1,2.72E2,1.94E2,1.88E2,2.52E2,7.6E1,4.99E2,2.9E1,4.3E1,6.3E1,2.01E2,3.9E1,1.5E2,1.6E2,1.7E1,7.7E1,8.1E1,2.01E2,1.38E2,2.9E1,1.9E1,2.44E2,7.7E1,7.7E1,5E0,2.3E1,5.1E1,2.57E2,1.5E1,2.2E1,1.72E2,1.64E2,2.4E1,2.42E2,1E1,6.9E1,7E0,4E2,9.9E1,1.4E1,1.5E1,3.2E1,1.1E1,6E1,3E0,9.2E1,1.09E2,8E0,3.1E1,3.1E1,1.19E2,1.35E2,2.5E1,1.6E1,1E0,1.6E1,6.1E1,5E0,7.6E1,1.45E2,5.6E1,8.5E1,5.3E1,1E0,2.8E1,8E0,1.1E1,1.02E2,1.42E2,6.2E1,1.5E1,3.1E1,4.6E1,4E0,1E0,1.8E1,5E0,3.5E1,1.6E1,4E0,2.53E2,4E0,1.1E1,7E0,1.5E1,1.03E2,6.9E1,9E0,1.55E2,1E0,2.3E1,2.09E2,3.3E1,8E0,2E0,6E0,6.3E1,6E0,1E0,3.57E2,4.3E1,8.8E1,1.1E1],"tree_param":{"num_deleted":"0","num_feature":"4","num_nodes":"127","size_leaf_vector":"1"}},{"base_weights":[-1.6703682E-2,-3.016515E0,2.7663343E0,-4.611273E0,-1.8601745E0,1.5910555E0,4.896898E0,-5.0897946E0,-3.992954E0,-2.5009222E0,-9.5234656E-1,5.205105E-1,2.3705165E0,4.031782E0,5.538587E0,-5.5624504E0,-4.7189517E0,-3.6147983E0,-4.662957E0,-2.7692964E0,-2.1399221E0,-1.3582491E0,-5.112826E-1,-1.3603357E0,6.199048E-1,1.7093657E0,2.8153393E0,4.3928013E0,3.2700956E0,5.097145E0,6.20666E0,-4.740176E0,-6.215393E-1,-5.15893E0,-4.0415235E0,-3.7052648E0,-1.9708507E0,-5.768123E-1,-4.3312745E0,-8.7484336E-1,-2.8525817E0,-1.9050043E0,-3.3780403E0,-1.2599884E0,-3.7748888E0,-1.3815601E0,-1.364301E-1,2.1437087E0,-1.8008975E0,8.9488065E-1,7.6322556E-2,5.222288E-1,1.85498E0,3.1831312E0,1.9951111E0,1.3652703E0,4.456927E0,2.175785E0,3.7323089E0,3.522555E0,5.23627E0,3.6259785E0,6.280672E-1,-2.426443E-1,-5.0306076E-1,-5.440159E-1,-4.102448E-1,-3.2960755E-1,-4.632117E-1,-3.7492868E-1,-1.8090896E-1,-2.3666377E-1,-5.6261744E-2,-6.1467882E-2,-4.4163188E-1,-1.3409017E-1,1.24767065E-1,-2.8952223E-1,-1.5220304E-1,-2.2642998E-1,-1.2770715E-1,-4.1700754E-1,-9.709445E-2,-2.3657642E-1,-1.1127951E-1,-4.2399606E-1,-4.422285E-2,-2.2351226E-2,-1.778789E-1,2.9233357E-1,-2.0957304E-2,6.100771E-2,2.555486E-1,-1.02981225E-1,-2.9126844E-1,5.743734E-2,1.5853812E-1,-1.0155626E-1,4.1774806E-2,3.8575512E-1,1.2859191E-2,3.666286E-1,1.787851E-1,6.3422136E-2,3.221129E-1,-5.819241E-2,2.0689097E-1,-2.491539E-2,2.5579378E-1,2.8111648E-3,4.4829917E-1,-3.9674263E-2,2.3927772E-1,4.0143725E-1,2.284696E-1,4.975461E-1,2.349801E-1,5.250446E-1,1.2355864E-1,5.643679E-1,1.1812087E-1],"categories":[],"categories_nodes":[],"categories_segments":[],"categories_sizes":[],"default_left":[0,0,0,0,0,0,0,0,0,0,0,0,0,0,0,0,0,0,0,0,0,0,0,0,0,0,0,0,0,0,0,0,0,0,0,0,0,0,0,0,0,0,0,0,0,0,0,0,0,0,0,0,0,0,0,0,0,0,0,0,0,0,0,0,0,0,0,0,0,0,0,0,0,0,0,0,0,0,0,0,0,0,0,0,0,0,0,0,0,0,0,0,0,0,0,0,0,0,0,0,0,0,0,0,0,0,0,0,0,0,0,0,0,0,0,0,0,0,0,0,0],"id":14,"left_children":[1,3,5,7,9,11,13,15,17,19,21,23,25,27,29,31,33,35,37,39,41,43,45,47,49,51,53,55,57,59,61,63,-1,65,67,69,71,-1,73,75,77,79,81,83,85,87,89,91,93,95,97,99,101,103,105,107,109,111,113,115,117,119,-1,-1,-1,-1,-1,-1,-1,-1,-1,-1,-1,-1,-1,-1,-1,-1,-1,-1,-1,-1,-1,-1,-1,-1,-1,-1,-1,-1,-1,-1,-1,-1,-1,-1,-1,-1,-1,-1,-1,-1,-1,-1,-1,-1,-1,-1,-1,-1,-1,-1,-1,-1,-1,-1,-1,-1,-1,-1,-1],"loss_changes":[2.6732205E4,2.8325059E3,4.150714E3,1.7020312E2,5.178845E2,8.930054E2,3.042422E2,3.5999023E1,5.5032227E1,4.434961E1,6.571735E1,8.5455505E1,1.7707422E2,5.4989746E1,6.6325195E1,5.158789E1,4.052295E1,2.0089844E1,1.0663086E1,4.399243E1,5.9351685E1,4.057007E1,5.838035E1,3.9332523E1,6.4257E1,4.2355225E1,1.04448975E2,2.6337158E1,3.478772E1,2.6244629E1,8.745117E-1,3.5430298E1,0E0,1.3272705E1,2.2241577E1,7.435791E0,5.0638924E0,0E0,2.23844E1,1.5531337E1,1.1264648E1,4.0523132E1,6.2164642E1,2.7456146E1,8.506241E0,2.4242737E1,2.8763906E1,1.8943787E-2,1.4609169E1,6.2168198E1,5.4792892E1,3.7179604E1,2.0136292E1,2.207544E1,2.3603851E1,1.0495556E1,1.858496E1,1.6779053E1,1.4289368E1,2.165416E1,3.5830078E0,2.2248032E1,0E0,0E0,0E0,0E0,0E0,0E0,0E0,0E0,0E0,0E0,0E0,0E0,0E0,0E0,0E0,0E0,0E0,0E0,0E0,0E0,0E0,0E0,0E0,0E0,0E0,0E0,0E0,0E0,0E0,0E0,0E0,0E0,0E0,0E0,0E0,0E0,0E0,0E0,0E0,0E0,0E0,0E0,0E0,0E0,0E0,0E0,0E0,0E0,0E0,0E0,0E0,0E0,0E0,0E0,0E0,0E0,0E0,0E0,0E0],"parents":[2147483647,0,0,1,1,2,2,3,3,4,4,5,5,6,6,7,7,8,8,9,9,10,10,11,11,12,12,13,13,14,14,15,15,16,16,17,17,18,18,19,19,20,20,21,21,22,22,23,23,24,24,25,25,26,26,27,27,28,28,29,29,30,30,31,31,33,33,34,34,35,35,36,36,38,38,39,39,40,40,41,41,42,42,43,43,44,44,45,45,46,46,47,47,48,48,49,49,50,50,51,51,52,52,53,53,54,54,55,55,56,56,57,57,58,58,59,59,60,60,61,61],"right_children":[2,4,6,8,10,12,14,16,18,20,22,24,26,28,30,32,34,36,38,40,42,44,46,48,50,52,54,56,58,60,62,64,-1,66,68,70,72,-1,74,76,78,80,82,84,86,88,90,92,94,96,98,100,102,104,106,108,110,112,114,116,118,120,-1,-1,-1,-1,-1,-1,-1,-1,-1,-1,-1,-1,-1,-1,-1,-1,-1,-1,-1,-1,-1,-1,-1,-1,-1,-1,-1,-1,-1,-1,-1,-1,-1,-1,-1,-1,-1,-1,-1,-1,-1,-1,-1,-1,-1,-1,-1,-1,-1,-1,-1,-1,-1,-1,-1,-1,-1,-1,-1],"split_conditions":[2.42269E1,9.530492E0,4.0741257E1,5.1561933E0,1.7890705E1,3.1192966E1,4.4507057E1,8.26057E3,1.0661969E4,1.4462238E1,9.266919E3,3.673579E3,3.4908085E1,1.0661969E4,4.807083E1,7.737681E3,3.1687486E0,1.00901E4,1.1731267E4,2.434239E3,1.2921003E4,1.4771815E4,1.962291E1,3.602323E3,1.037125E4,4.6441323E3,1.0303404E4,3.3674902E3,6.898639E3,4.1196143E3,3.4718337E3,3.531987E3,-6.215393E-1,1.2103096E4,1.1637137E4,1.4343555E4,6.9185796E0,-5.768123E-1,1.1774392E4,2.392496E3,1.4655845E4,9.962339E3,1.4610746E4,3.5705713E3,8.744427E3,1.1250539E4,9.305871E3,2.5969294E1,9.253334E3,2.916959E1,2.672796E1,3.08183E3,2.2740486E3,3.050366E3,1.037125E4,4.170723E1,2.0623977E3,1.0838348E4,1.2947508E4,8.166844E3,1.4949909E4,2.7283787E3,6.280672E-1,-2.426443E-1,-5.0306076E-1,-5.440159E-1,-4.102448E-1,-3.2960755E-1,-4.632117E-1,-3.7492868E-1,-1.8090896E-1,-2.3666377E-1,-5.6261744E-2,-6.1467882E-2,-4.4163188E-1,-1.3409017E-1,1.24767065E-1,-2.8952223E-1,-1.5220304E-1,-2.2642998E-1,-1.2770715E-1,-4.1700754E-1,-9.709445E-2,-2.3657642E-1,-1.1127951E-1,-4.2399606E-1,-4.422285E-2,-2.2351226E-2,-1.778789E-1,2.9233357E-1,-2.0957304E-2,6.100771E-2,2.555486E-1,-1.02981225E-1,-2.9126844E-1,5.743734E-2,1.5853812E-1,-1.0155626E-1,4.1774806E-2,3.8575512E-1,1.2859191E-2,3.666286E-1,1.787851E-1,6.3422136E-2,3.221129E-1,-5.819241E-2,2.0689097E-1,-2.491539E-2,2.5579378E-1,2.8111648E-3,4.4829917E-1,-3.9674263E-2,2.3927772E-1,4.0143725E-1,2.284696E-1,4.975461E-1,2.349801E-1,5.250446E-1,1.2355864E-1,5.643679E-1,1.1812087E-1],"split_indices":[0,0,0,0,0,