{"learner":{"attributes":{"scikit_learn":"{\"_estimator_type\": \"regressor\"}"},"feature_names":["tariff","global_price","production_gap","import_volume"],"feature_types":["float","float","float","float"],"gradient_booster":{"model":{"cats":{"enc":[],"feature_segments":[],"sorted_idx":[]},"gbtree_model_param":{"num_parallel_tree":"1","num_trees":"200"},"iteration_indptr":[0,1,2,3,4,5,6,7,8,9,10,11,12,13,14,15,16,17,18,19,20,21,22,23,24,25,26,27,28,29,30,31,32,33,34,35,36,37,38,39,40,41,42,43,44,45,46,47,48,49,50,51,52,53,54,55,56,57,58,59,60,61,62,63,64,65,66,67,68,69,70,71,72,73,74,75,76,77,78,79,80,81,82,83,84,85,86,87,88,89,90,91,92,93,94,95,96,97,98,99,100,101,102,103,104,105,106,107,108,109,110,111,112,113,114,115,116,117,118,119,120,121,122,123,124,125,126,127,128,129,130,131,132,133,134,135,136,137,138,139,140,141,142,143,144,145,146,147,148,149,150,151,152,153,154,155,156,157,158,159,160,161,162,163,164,165,166,167,168,169,170,171,172,173,174,175,176,177,178,179,180,181,182,183,184,185,186,187,188,189,190,191,192,193,194,195,196,197,198,199,200],"tree_info":[0,0,0,0,0,0,0,0,0,0,0,0,0,0,0,0,0,0,0,0,0,0,0,0,0,0,0,0,0,0,0,0,0,0,0,0,0,0,0,0,0,0,0,0,0,0,0,0,0,0,0,0,0,0,0,0,0,0,0,0,0,0,0,0,0,0,0,0,0,0,0,0,0,0,0,0,0,0,0,0,0,0,0,0,0,0,0,0,0,0,0,0,0,0,0,0,0,0,0,0,0,0,0,0,0,0,0,0,0,0,0,0,0,0,0,0,0,0,0,0,0,0,0,0,0,0,0,0,0,0,0,0,0,0,0,0,0,0,0,0,0,0,0,0,0,0,0,0,0,0,0,0,0,0,0,0,0,0,0,0,0,0,0,0,0,0,0,0,0,0,0,0,0,0,0,0,0,0,0,0,0,0,0,0,0,0,0,0,0,0,0,0,0,0,0,0,0,0,0,0],"trees":[{"base_weights":[-2.3831286E-1,-4.006647E0,3.769759E0,-5.9403815E0,-2.0441477E0,2.2252443E0,6.168481E0,-9.568102E0,-5.3212314E0,-1.1510202E0,-3.1256068E0,5.638864E0,1.5482554E0,4.224657E0,7.4685493E0,-2.7375028E-3,-9.899917E0,-1.882707E0,-5.7567964E0,-1.5091453E0,5.2345695E0,-7.6679945E0,-2.6698794E0,6.322965E0,1.2112082E0,7.778069E-1,2.9270036E0,2.824461E0,6.5466957E0,7.972087E0,-5.5383167E0,-1.4781748E0,2.8995058E-1,-1.1425387E1,-8.256667E0,-2.7350862E0,4.432694E0,-6.330494E0,-4.6115313E0,-2.3990462E0,-4.1619742E-1,9.633859E0,7.633354E-1,-8.244116E0,5.3339386E-1,-5.255585E0,-2.0059469E0,5.0320683E0,1.1026644E1,-2.8356931E0,8.660248E0,4.470822E0,5.840373E-1,1.0241983E0,5.258834E0,3.3775523E0,-5.4678097E0,8.80252E0,2.3521845E-1,9.970012E0,5.9044056E0,4.250554E-1,-1.0076477E1,-4.3730927E-3,-1.9084124E-1,-1.1986002E0,-3.1778154E-1,-2.8593767E-1,-1.0029395E0,3.603762E-2,-3.700236E-1,7.912034E-1,-2.7393237E-1,-6.5251833E-1,-6.971029E-2,-3.745985E-1,-1.0431738E0,-1.5574442E-1,-4.924297E-1,4.485804E-1,-9.810751E-2,3.684017E-1,1.2135779E0,-3.9370576E-1,4.2057133E-1,4.956194E-1,-8.833036E-1,-4.5522672E-1,-1.3186936E0,-1.7013693E-1,-9.714368E-1,-2.3239218E-1,5.493057E-1,9.3911994E-1,1.6651449E0,-4.9166995E-1,1.08859934E-1,1.5241177E0,1.6434544E-1,5.3737587E-1,-8.549827E-1,2.882204E-2,3.4415475E-1,1.4514486E-1,-9.882302E-1,-1.1776163E-1,6.010617E-1,-2.7174935E-1,4.050439E-1,-1.0158433E0,-1.9920518E-1,-2.0819293E-1,9.346821E-1,1.1071833E0,-1.7412215E-1,1.409031E0,9.188693E-1,1.1650232E0,4.8544332E-1,6.8240756E-1,-6.055229E-1,-4.3502846E-1,-1.2622136E0],"categories":[],"categories_nodes":[],"categories_segments":[],"categories_sizes":[],"default_left":[0,0,0,0,0,0,0,0,0,0,0,0,0,0,0,0,0,0,0,0,0,0,0,0,0,0,0,0,0,0,0,0,0,0,0,0,0,0,0,0,0,0,0,0,0,0,0,0,0,0,0,0,0,0,0,0,0,0,0,0,0,0,0,0,0,0,0,0,0,0,0,0,0,0,0,0,0,0,0,0,0,0,0,0,0,0,0,0,0,0,0,0,0,0,0,0,0,0,0,0,0,0,0,0,0,0,0,0,0,0,0,0,0,0,0,0,0,0,0,0,0,0,0],"id":0,"left_children":[1,3,5,7,9,11,13,15,17,19,21,23,25,27,29,31,33,35,37,39,41,43,45,47,49,51,53,55,57,59,61,63,-1,65,67,69,71,73,75,77,79,81,83,85,-1,87,89,91,93,95,97,99,101,103,105,107,109,111,113,115,117,119,121,-1,-1,-1,-1,-1,-1,-1,-1,-1,-1,-1,-1,-1,-1,-1,-1,-1,-1,-1,-1,-1,-1,-1,-1,-1,-1,-1,-1,-1,-1,-1,-1,-1,-1,-1,-1,-1,-1,-1,-1,-1,-1,-1,-1,-1,-1,-1,-1,-1,-1,-1,-1,-1,-1,-1,-1,-1,-1,-1,-1],"loss_changes":[4.802996E4,6.2069863E3,5.694627E3,1.8006328E3,7.831675E2,2.160563E3,1.491123E3,3.7668066E2,1.0472734E3,1.0320312E3,7.4028687E2,4.6107812E2,8.312224E2,7.738911E2,2.4021973E3,2.5554234E1,1.919707E2,4.4798645E2,3.8167383E2,4.1208142E2,4.6369244E2,2.9145752E2,5.6555396E2,7.565503E2,6.883419E2,3.5825833E2,1.2407881E3,7.245619E2,1.2926462E3,1.3730273E3,3.841266E2,2.1899366E0,0E0,2.2394482E2,5.345405E2,2.1677362E2,2.717297E2,4.4988477E2,1.0325259E3,4.8899243E2,5.357044E2,1.3234192E2,2.2693185E2,2.9293115E2,0E0,3.1751746E2,6.138921E2,3.7592212E2,9.859253E1,1.2823228E2,3.426795E2,3.3954758E2,4.0522424E2,7.4043036E2,6.1725146E2,6.0582495E2,1.4158353E2,4.1712207E2,5.556596E2,4.3157227E2,9.854961E2,3.3167053E2,6.00083E1,0E0,0E0,0E0,0E0,0E0,0E0,0E0,0E0,0E0,0E0,0E0,0E0,0E0,0E0,0E0,0E0,0E0,0E0,0E0,0E0,0E0,0E0,0E0,0E0,0E0,0E0,0E0,0E0,0E0,0E0,0E0,0E0,0E0,0E0,0E0,0E0,0E0,0E0,0E0,0E0,0E0,0E0,0E0,0E0,0E0,0E0,0E0,0E0,0E0,0E0,0E0,0E0,0E0,0E0,0E0,0E0,0E0,0E0,0E0,0E0],"parents":[2147483647,0,0,1,1,2,2,3,3,4,4,5,5,6,6,7,7,8,8,9,9,10,10,11,11,12,12,13,13,14,14,15,15,16,16,17,17,18,18,19,19,20,20,21,21,22,22,23,23,24,24,25,25,26,26,27,27,28,28,29,29,30,30,31,31,33,33,34,34,35,35,36,36,37,37,38,38,39,39,40,40,41,41,42,42,43,43,45,45,46,46,47,47,48,48,49,49,50,50,51,51,52,52,53,53,54,54,55,55,56,56,57,57,58,58,59,59,60,60,61,61,62,62],"right_children":[2,4,6,8,10,12,14,16,18,20,22,24,26,28,30,32,34,36,38,40,42,44,46,48,50,52,54,56,58,60,62,64,-1,66,68,70,72,74,76,78,80,82,84,86,-1,88,90,92,94,96,98,100,102,104,106,108,110,112,114,116,118,120,122,-1,-1,-1,-1,-1,-1,-1,-1,-1,-1,-1,-1,-1,-1,-1,-1,-1,-1,-1,-1,-1,-1,-1,-1,-1,-1,-1,-1,-1,-1,-1,-1,-1,-1,-1,-1,-1,-1,-1,-1,-1,-1,-1,-1,-1,-1,-1,-1,-1,-1,-1,-1,-1,-1,-1,-1,-1,-1,-1,-1],"split_conditions":[1.0041328E3,7.573655E2,1.3035417E3,4.0557244E3,9.708037E3,5.183297E3,6.6054546E3,2.0623977E3,4.418362E3,1.4313951E4,3.2248909E3,1.320306E4,1.037125E4,1.0937722E4,1.4543662E4,1.0289741E4,6.263701E2,1.3276254E4,6.7015265E2,8.3302295E3,1.4655845E4,1.4847786E4,1.0801962E4,1.0303404E4,1.4379918E4,1.01727216E3,1.1628597E3,1.0583195E4,5.3424907E3,8.893838E3,1.3798378E3,6.056503E2,2.8995058E-1,3.7881775E3,6.7282007E2,6.0241914E3,7.1354285E2,1.4570806E4,1.36206455E4,6.6961562E3,8.941436E3,8.422255E2,6.898639E3,7.6084924E2,5.3339386E-1,1.4234824E4,9.977566E2,3.0974258E3,1.2660771E4,4.0800952E3,1.0321179E3,1.3151513E4,1.40610625E4,1.1540231E3,6.249986E3,2.5257048E3,1.3977958E3,2.1775784E3,1.1250539E4,3.7788804E3,7.5362915E3,1.2067181E4,9.253334E3,-4.3730927E-3,-1.9084124E-1,-1.1986002E0,-3.1778154E-1,-2.8593767E-1,-1.0029395E0,3.603762E-2,-3.700236E-1,7.912034E-1,-2.7393237E-1,-6.5251833E-1,-6.971029E-2,-3.745985E-1,-1.0431738E0,-1.5574442E-1,-4.924297E-1,4.485804E-1,-9.810751E-2,3.684017E-1,1.2135779E0,-3.9370576E-1,4.2057133E-1,4.956194E-1,-8.833036E-1,-4.5522672E-1,-1.3186936E0,-1.7013693E-1,-9.714368E-1,-2.3239218E-1,5.493057E-1,9.3911994E-1,1.6651449E0,-4.9166995E-1,1.08859934E-1,1.5241177E0,1.6434544E-1,5.3737587E-1,-8.549827E-1,2.882204E-2,3.4415475E-1,1.4514486E-1,-9.882302E-1,-1.1776163E-1,6.010617E-1,-2.7174935E-1,4.050439E-1,-1.0158433E0,-1.9920518E-1,-2.0819293E-1,9.346821E-1,1.1071833E0,-1.7412215E-1,1.409031E0,9.188693E-1,1.1650232E0,4.8544332E-1,6.8240756E-1,-6.055229E-1,-4.3502846E-1,-1.2622136E0],"split_indices":[1,1,1,2,3,3,2,2,3,2,2,2,2,3,3,3,1,2,1,2,2,3,3,2,2,1,1,3,2,3,1,1,0,2,1,2,1,2,3,2,2,1,3,1,0,2,1,3,2,3,1,3,3,1,3,2,1,2,3,3,2,2,2,0,0,0,0,0,0,0,0,0,0,0,0,0,0,0,0,0,0,0,0,0,0,0,0,0,0,0,0,0,0,0,0,0,0,0,0,0,0,0,0,0,0,0,0,0,0,0,0,0,0,0,0,0,0,0,0,0,0,0,0],"split_type":[0,0,0,0,0,0,0,0,0,0,0,0,0,0,0,0,0,0,0,0,0,0,0,0,0,0,0,0,0,0,0,0,0,0,0,0,0,0,0,0,0,0,0,0,0,0,0,0,0,0,0,0,0,0,0,0,0,0,0,0,0,0,0,0,0,0,0,0,0,0,0,0,0,0,0,0,0,0,0,0,0,0,0,0,0,0,0,0,0,0,0,0,0,0,0,0,0,0,0,0,0,0,0,0,0,0,0,0,0,0,0,0,0,0,0,0,0,0,0,0,0,0,0],"sum_hessian":[3.178E3,1.638E3,1.54E3,8.24E2,8.14E2,9.38E2,6.02E2,1.18E2,7.06E2,4.47E2,3.67E2,1.54E2,7.84E2,2.43E2,3.59E2,4E0,1.14E2,8E1,6.26E2,4.24E2,2.3E1,3.2E1,3.35E2,1.33E2,2.1E1,5.04E2,2.8E2,1.53E2,9E1,3.46E2,1.3E1,3E0,1E0,5.6E1,5.8E1,7.1E1,9E0,4.14E2,2.12E2,2.33E2,1.91E2,1.1E1,1.2E1,3.1E1,1E0,6.7E1,2.68E2,1.06E2,2.7E1,1.4E1,7E0,2.4E1,4.8E2,1.55E2,1.25E2,1.44E2,9E0,6.6E1,2.4E1,1.74E2,1.72E2,6E0,7E0,1E0,2E0,5.2E1,4E0,1.5E1,4.3E1,1.7E1,5.4E1,6E0,3E0,4E2,1.4E1,1.86E2,2.6E1,1.76E2,5.7E1,1.9E1,1.72E2,4E0,7E0,5E0,7E0,1E0,3E1,6.3E1,4E0,2.59E2,9E0,6E0,1E2,2.3E1,4E0,9E0,5E0,3E0,4E0,2.3E1,1E0,4.36E2,4.4E1,1.5E2,5E0,1.3E1,1.12E2,1.4E1,1.3E2,3E0,6E0,3E0,6.3E1,3E0,2.1E1,2.5E1,1.49E2,2.5E1,1.47E2,3E0,3E0,3E0,4E0],"tree_param":{"num_deleted":"0","num_feature":"4","num_nodes":"123","size_leaf_vector":"1"}},{"base_weights":[5.096693E-2,-1.0901809E1,9.030638E0,-1.663282E1,-6.016588E0,4.158349E0,1.3589616E1,-1.9691698E1,-1.4054267E1,-8.834757E0,-2.4945273E0,2.312936E-2,7.370503E0,9.307228E0,1.757549E1,-2.1353167E1,-1.6781744E0,-1.651192E1,-1.1178386E1,-1.1910604E1,-6.9971395E0,-4.749491E0,7.6186115E-1,-3.1523893E0,1.6370183E0,4.6953535E0,9.799791E0,7.431414E0,1.1983793E1,1.4862632E1,1.9675436E1,-1.7283591E0,-2.1877117E0,-1.7814468E0,-1.4932711E1,-1.2480863E1,-9.203404E0,-1.4432534E0,-1.0689116E1,-8.822118E0,-5.373547E0,-6.268196E0,-3.1063564E0,4.0705285E0,-1.9795151E-1,-4.965926E0,-1.9946692E0,-7.0260726E-2,2.9966073E0,3.2374017E0,7.3000636E0,8.052586E0,1.1917627E0,4.9253225E0,8.975967E0,8.547599E-1,1.3150615E0,1.2721612E0,1.6530191E1,1.7549008E0,2.1746614E0,-1.6326355E0,-1.3219222E0,-1.0498592E0,-1.3311414E0,-9.899277E-1,-6.772637E-1,-7.58413E-1,-1.1022593E0,-1.0235167E0,-6.930267E-1,-6.572876E-1,-3.776339E-1,-7.7301687E-1,-5.169259E-1,-3.979948E-1,-8.268757E-2,3.3755365E-3,4.813125E-1,-1.8634479E-1,1.2471111E-1,-5.354968E-1,-2.942072E-1,4.2982116E-2,-2.4877183E-1,-1.4469531E-1,7.998574E-2,1.0515364E-1,4.2101455E-1,1.3818552E-1,4.485708E-1,5.800954E-1,9.101724E-1,9.6965355E-1,7.2141856E-1,3.771363E-1,6.118833E-1,8.167898E-1,1.0672379E0,1.8364344E0,1.5139723E0],"categories":[],"categories_nodes":[],"categories_segments":[],"categories_sizes":[],"default_left":[0,0,0,0,0,0,0,0,0,0,0,0,0,0,0,0,0,0,0,0,0,0,0,0,0,0,0,0,0,0,0,0,0,0,0,0,0,0,0,0,0,0,0,0,0,0,0,0,0,0,0,0,0,0,0,0,0,0,0,0,0,0,0,0,0,0,0,0,0,0,0,0,0,0,0,0,0,0,0,0,0,0,0,0,0,0,0,0,0,0,0,0,0,0,0,0,0,0,0,0,0],"id":1,"left_children":[1,3,5,7,9,11,13,15,17,19,21,23,25,27,29,31,-1,33,35,37,39,41,43,45,47,49,51,53,55,57,59,-1,-1,-1,61,63,65,-1,67,69,71,73,75,77,79,81,83,85,87,89,91,93,-1,95,97,-1,-1,-1,99,-1,-1,-1,-1,-1,-1,-1,-1,-1,-1,-1,-1,-1,-1,-1,-1,-1,-1,-1,-1,-1,-1,-1,-1,-1,-1,-1,-1,-1,-1,-1,-1,-1,-1,-1,-1,-1,-1,-1,-1,-1,-1],"loss_changes":[3.1197344E5,3.990575E4,3.865839E4,4.9019375E3,7.6494414E3,1.1209909E4,1.5195875E4,1.0786172E3,2.3571094E3,2.3395742E3,2.5373657E3,1.9012346E3,3.0394219E3,2.0980469E3,2.3531562E3,1.45625E1,0E0,1.2564844E2,3.176953E2,3.3301758E2,7.541543E2,4.8866016E2,4.521425E2,2.518446E2,5.7151776E2,8.4115234E2,8.19709E2,9.569346E2,5.990996E2,5.2583203E2,7.551328E2,0E0,0E0,0E0,3.3085938E0,2.0859375E1,5.1384766E1,0E0,2.9476562E1,2.641836E2,2.5381787E2,1.2744531E2,1.9536188E2,9.527905E1,2.695344E2,2.1208984E1,9.451572E1,1.3298941E2,3.1842395E2,3.360255E2,1.6448291E2,1.199375E2,0E0,1.1503833E2,1.2890527E2,0E0,0E0,0E0,6.8066406E0,0E0,0E0,0E0,0E0,0E0,0E0,0E0,0E0,0E0,0E0,0E0,0E0,0E0,0E0,0E0,0E0,0E0,0E0,0E0,0E0,0E0,0E0,0E0,0E0,0E0,0E0,0E0,0E0,0E0,0E0,0E0,0E0,0E0,0E0,0E0,0E0,0E0,0E0,0E0,0E0,0E0,0E0],"parents":[2147483647,0,0,1,1,2,2,3,3,4,4,5,5,6,6,7,7,8,8,9,9,10,10,11,11,12,12,13,13,14,14,15,15,17,17,18,18,19,19,20,20,21,21,22,22,23,23,24,24,25,25,26,26,27,27,28,28,29,29,30,30,34,34,35,35,36,36,38,38,39,39,40,40,41,41,42,42,43,43,44,44,45,45,46,46,47,47,48,48,49,49,50,50,51,51,53,53,54,54,58,58],"right_children":[2,4,6,8,10,12,14,16,18,20,22,24,26,28,30,32,-1,34,36,38,40,42,44,46,48,50,52,54,56,58,60,-1,-1,-1,62,64,66,-1,68,70,72,74,76,78,80,82,84,86,88,90,92,94,-1,96,98,-1,-1,-1,100,-1,-1,-1,-1,-1,-1,-1,-1,-1,-1,-1,-1,-1,-1,-1,-1,-1,-1,-1,-1,-1,-1,-1,-1,-1,-1,-1,-1,-1,-1,-1,-1,-1,-1,-1,-1,-1,-1,-1,-1,-1,-1],"split_conditions":[2.2689478E1,1.0201781E1,3.56007E1,9.479717E2,1.0581711E3,9.332509E2,9.8071405E2,5.940896E0,5.29529E0,1.486436E1,1.737594E1,2.7088049E1,2.9620728E1,4.3868652E1,4.1916435E1,4.9024985E3,-1.6781744E0,2.882379E0,1.2687642E3,6.9371704E2,7.434426E2,1.3850626E1,6.0475967E3,6.668297E2,7.102762E2,1.2687642E3,1.2333279E3,6.7282007E2,6.290712E2,1.1872344E3,1.2333279E3,-1.7283591E0,-2.1877117E0,-1.7814468E0,1.1872344E3,6.7690854E3,8.756157E0,-1.4432534E0,4.0800952E3,1.9216331E1,1.9216331E1,1.2483752E3,1.3798378E3,1.1370476E3,1.2549402E3,2.649703E1,4.8561035E3,3.039526E1,3.039526E1,2.5632738E1,2.6169546E1,7.261137E3,1.1917627E0,4.0109848E1,8.9825024E2,8.547599E-1,1.3150615E0,1.2721612E0,7.569405E3,1.7549008E0,2.1746614E0,-1.6326355E0,-1.3219222E0,-1.0498592E0,-1.3311414E0,-9.899277E-1,-6.772637E-1,-7.58413E-1,-1.1022593E0,-1.0235167E0,-6.930267E-1,-6.572876E-1,-3.776339E-1,-7.7301687E-1,-5.169259E-1,-3.979948E-1,-8.268757E-2,3.3755365E-3,4.813125E-1,-1.8634479E-1,1.2471111E-1,-5.354968E-1,-2.942072E-1,4.2982116E-2,-2.4877183E-1,-1.4469531E-1,7.998574E-2,1.0515364E-1,4.2101455E-1,1.3818552E-1,4.485708E-1,5.800954E-1,9.101724E-1,9.6965355E-1,7.2141856E-1,3.771363E-1,6.118833E-1,8.167898E-1,1.0672379E0,1.8364344E0,1.5139723E0],"split_indices":[0,0,0,1,1,1,1,0,0,0,0,0,0,0,0,3,0,0,1,1,1,0,3,1,1,1,1,1,1,1,1,0,0,0,1,3,0,0,3,0,0,1,1,1,1,0,3,0,0,0,0,3,0,0,1,0,0,0,3,0,0,0,0,0,0,0,0,0,0,0,0,0,0,0,0,0,0,0,0,0,0,0,0,0,0,0,0,0,0,0,0,0,0,0,0,0,0,0,0,0,0],"split_type":[0,0,0,0,0,0,0,0,0,0,0,0,0,0,0,0,0,0,0,0,0,0,0,0,0,0,0,0,0,0,0,0,0,0,0,0,0,0,0,0,0,0,0,0,0,0,0,0,0,0,0,0,0,0,0,0,0,0,0,0,0,0,0,0,0,0,0,0,0,0,0,0,0,0,0,0,0,0,0,0,0,0,0,0,0,0,0,0,0,0,0,0,0,0,0,0,0,0,0,0,0],"sum_hessian":[3.17E3,1.428E3,1.742E3,6.56E2,7.72E2,8.43E2,8.99E2,2.97E2,3.59E2,4.28E2,3.44E2,3.69E2,4.74E2,4.35E2,4.64E2,1.85E2,1.12E2,1.91E2,1.68E2,1.58E2,2.7E2,2.03E2,1.41E2,1.24E2,2.45E2,2.27E2,2.47E2,2.58E2,1.77E2,2.06E2,2.58E2,2.5E1,1.6E2,9.9E1,9.2E1,9.8E1,7E1,4.8E1,1.1E2,1.25E2,1.45E2,1.04E2,9.9E1,3.1E1,1.1E2,4.7E1,7.7E1,1.09E2,1.36E2,1.47E2,8E1,1.38E2,1.09E2,1E2,1.58E2,4.7E1,1.3E2,9.4E1,1.12E2,1.32E2,1.26E2,4.6E1,4.6E1,3.3E1,6.5E1,5.2E1,1.8E1,1.3E1,9.7E1,6.9E1,5.6E1,8.1E1,6.4E1,4.2E1,6.2E1,7.1E1,2.8E1,5E0,2.6E1,5.1E1,5.9E1,3.8E1,9E0,1.3E1,6.4E1,4.2E1,6.7E1,5.3E1,8.3E1,6E1,8.7E1,4.6E1,3.4E1,4.3E1,9.5E1,5.3E1,4.7E1,1.11E2,4.7E1,4.3E1,6.9E1],"tree_param":{"num_deleted":"0","num_feature":"4","num_nodes":"101","size_leaf_vector":"1"}},{"base_weights":[7.3548555E-2,-9.69495E0,8.235438E0,-1.4600791E1,-5.3525124E0,3.9468718E0,1.214808E1,-1.791667E1,-1.2434468E1,-7.8457065E0,-2.1560547E0,3.666453E-1,6.870877E0,8.424515E0,1.605372E1,-1.9769223E0,-1.5501839E0,-1.4742333E1,-1.0044151E1,-1.0338589E1,-5.993976E0,-4.169385E0,6.6009086E-1,-1.7085803E0,2.565154E0,4.5047946E0,8.973501E0,5.885493E0,9.971065E0,1.3698712E1,1.796245E1,-1.5932113E1,-1.3042049E1,-1.1265047E1,-7.9895988E0,-1.2712611E0,-9.144097E0,-7.688063E0,-4.750915E0,-5.776837E0,-3.170759E0,-9.184164E-1,1.8134505E0,-3.0991628E0,1.09921716E-1,6.2450254E-1,3.817428E0,2.4841104E0,6.07366E0,7.543763E0,1.070594E1,4.333385E0,7.999332E0,7.509013E0,1.1226834E1,1.2404537E1,1.5612396E0,1.6269438E0,2.0163891E0,-1.6009496E0,-3.3503765E-1,-1.3105568E0,-3.5809252E-1,-1.1853685E0,-9.5563334E-1,-9.184638E-1,-6.827242E-1,-9.813571E-1,-6.772692E-1,-8.737866E-1,-5.968861E-1,-5.962609E-1,-3.422975E-1,-7.370261E-1,-4.880514E-1,-4.108778E-1,-1.6299786E-1,-1.5345626E-1,6.331866E-2,3.1890184E-2,2.608321E-1,-4.163625E-1,-1.736536E-1,-9.577526E-2,1.3374992E-1,-6.393942E-2,1.7453201E-1,2.577382E-1,5.0767845E-1,1.0621911E-1,3.7438375E-1,4.6282607E-1,7.5870615E-1,6.392772E-1,8.393332E-1,8.8494444E-1,1.1412898E0,3.128057E-1,4.986814E-1,6.855666E-1,9.107645E-1,5.782226E-1,8.335609E-1,9.913317E-1,1.2239093E0,1.1156019E0,1.3511783E0],"categories":[],"categories_nodes":[],"categories_segments":[],"categories_sizes":[],"default_left":[0,0,0,0,0,0,0,0,0,0,0,0,0,0,0,0,0,0,0,0,0,0,0,0,0,0,0,0,0,0,0,0,0,0,0,0,0,0,0,0,0,0,0,0,0,0,0,0,0,0,0,0,0,0,0,0,0,0,0,0,0,0,0,0,0,0,0,0,0,0,0,0,0,0,0,0,0,0,0,0,0,0,0,0,0,0,0,0,0,0,0,0,0,0,0,0,0,0,0,0,0,0,0,0,0,0,0],"id":2,"left_children":[1,3,5,7,9,11,13,15,17,19,21,23,25,27,29,-1,-1,31,33,35,37,39,41,43,45,47,49,51,53,55,57,59,61,63,65,-1,67,69,71,73,75,77,79,81,83,85,87,89,91,93,95,97,99,101,103,105,-1,-1,-1,-1,-1,-1,-1,-1,-1,-1,-1,-1,-1,-1,-1,-1,-1,-1,-1,-1,-1,-1,-1,-1,-1,-1,-1,-1,-1,-1,-1,-1,-1,-1,-1,-1,-1,-1,-1,-1,-1,-1,-1,-1,-1,-1,-1,-1,-1,-1,-1],"loss_changes":[2.5537327E5,3.0980094E4,2.923089E4,4.6875312E3,6.1583594E3,8.727569E3,1.31254375E4,8.889297E2,2.149832E3,1.9444219E3,1.9365155E3,1.7199315E3,2.241746E3,1.7813672E3,1.7465938E3,0E0,0E0,2.1413672E2,4.2981836E2,4.033496E2,4.9290527E2,3.0023145E2,2.6209885E2,4.912223E2,4.4190344E2,6.7515576E2,5.168301E2,5.5466504E2,8.104336E2,3.0629297E2,5.7025E2,6.0289062E1,6.6904297E0,1.3326172E1,4.820752E1,0E0,1.3191406E2,1.3588135E2,2.1679199E2,6.99209E1,1.7338916E2,5.9378685E1,9.7477234E1,1.5173071E2,1.12724464E2,1.04638176E2,1.5949414E2,1.6929205E2,2.3053516E2,7.785205E1,3.7410156E1,6.707471E1,3.1030762E1,9.4552734E1,1.2908398E2,2.0978516E1,0E0,0E0,0E0,0E0,0E0,0E0,0E0,0E0,0E0,0E0,0E0,0E0,0E0,0E0,0E0,0E0,0E0,0E0,0E0,0E0,0E0,0E0,0E0,0E0,0E0,0E0,0E0,0E0,0E0,0E0,0E0,0E0,0E0,0E0,0E0,0E0,0E0,0E0,0E0,0E0,0E0,0E0,0E0,0E0,0E0,0E0,0E0,0E0,0E0,0E0,0E0],"parents":[2147483647,0,0,1,1,2,2,3,3,4,4,5,5,6,6,7,7,8,8,9,9,10,10,11,11,12,12,13,13,14,14,17,17,18,18,19,19,20,20,21,21,22,22,23,23,24,24,25,25,26,26,27,27,28,28,29,29,30,30,31,31,32,32,33,33,34,34,36,36,37,37,38,38,39,39,40,40,41,41,42,42,43,43,44,44,45,45,46,46,47,47,48,48,49,49,50,50,51,51,52,52,53,53,54,54,55,55],"right_children":[2,4,6,8,10,12,14,16,18,20,22,24,26,28,30,-1,-1,32,34,36,38,40,42,44,46,48,50,52,54,56,58,60,62,64,66,-1,68,70,72,74,76,78,80,82,84,86,88,90,92,94,96,98,100,102,104,106,-1,-1,-1,-1,-1,-1,-1,-1,-1,-1,-1,-1,-1,-1,-1,-1,-1,-1,-1,-1,-1,-1,-1,-1,-1,-1,-1,-1,-1,-1,-1,-1,-1,-1,-1,-1,-1,-1,-1,-1,-1,-1,-1,-1,-1,-1,-1,-1,-1,-1,-1],"split_conditions":[2.2689478E1,1.0340895E1,3.56007E1,8.8198004E2,1.0615945E3,9.5341626E2,1.0011197E3,5.559874E0,5.29529E0,1.5603202E1,1.7053318E1,2.9761486E1,2.9620728E1,4.0741257E1,4.2101665E1,-1.9769223E0,-1.5501839E0,1.2180681E3,1.2687642E3,6.9371704E2,7.3600793E2,1.2766819E1,1.2407799E3,7.645971E2,6.880411E2,1.1588553E3,1.2368168E3,7.9087683E2,6.774818E2,1.2951102E3,1.2919065E3,1.4861333E4,1.4849291E3,9.222953E0,7.66757E0,-1.2712611E0,1.42813E1,9.406202E3,1.9216331E1,1.2295214E3,1.3276102E3,1.2067181E4,1.8998955E1,2.6169546E1,2.7088049E1,8.375974E3,8.088216E3,2.6169546E1,2.6169546E1,8.375974E3,5.7035522E3,5.832231E2,8.915633E3,4.3868652E1,4.503509E1,8.1262593E3,1.5612396E0,1.6269438E0,2.0163891E0,-1.6009496E0,-3.3503765E-1,-1.3105568E0,-3.5809252E-1,-1.1853685E0,-9.5563334E-1,-9.184638E-1,-6.827242E-1,-9.813571E-1,-6.772692E-1,-8.737866E-1,-5.968861E-1,-5.962609E-1,-3.422975E-1,-7.370261E-1,-4.880514E-1,-4.108778E-1,-1.6299786E-1,-1.5345626E-1,6.331866E-2,3.1890184E-2,2.608321E-1,-4.163625E-1,-1.736536E-1,-9.577526E-2,1.3374992E-1,-6.393942E-2,1.7453201E-1,2.577382E-1,5.0767845E-1,1.0621911E-1,3.7438375E-1,4.6282607E-1,7.5870615E-1,6.392772E-1,8.393332E-1,8.8494444E-1,1.1412898E0,3.128057E-1,4.986814E-1,6.855666E-1,9.107645E-1,5.782226E-1,8.335609E-1,9.913317E-1,1.2239093E0,1.1156019E0,1.3511783E0],"split_indices":[0,0,0,1,1,1,1,0,0,0,0,0,0,0,0,0,0,1,1,1,1,0,1,1,1,1,1,1,1,1,1,2,1,0,0,0,0,2,0,1,1,2,0,0,0,2,2,0,0,2,2,1,2,0,0,2,0,0,0,0,0,0,0,0,0,0,0,0,0,0,0,0,0,0,0,0,0,0,0,0,0,0,0,0,0,0,0,0,0,0,0,0,0,0,0,0,0,0,0,0,0,0,0,0,0,0,0],"split_type":[0,0,0,0,0,0,0,0,0,0,0,0,0,0,0,0,0,0,0,0,0,0,0,0,0,0,0,0,0,0,0,0,0,0,0,0,0,0,0,0,0,0,0,0,0,0,0,0,0,0,0,0,0,0,0,0,0,0,0,0,0,0,0,0,0,0,0,0,0,0,0,0,0,0,0,0,0,0,0,0,0,0,0,0,0,0,0,0,0,0,0,0,0,0,0,0,0,0,0,0,0,0,0,0,0,0,0],"sum_hessian":[3.201E3,1.457E3,1.744E3,6.83E2,7.74E2,8.33E2,9.11E2,2.67E2,4.16E2,4.34E2,3.4E2,3.75E2,4.58E2,4.68E2,4.43E2,1.47E2,1.2E2,2.09E2,2.07E2,1.83E2,2.51E2,1.98E2,1.42E2,1.93E2,1.82E2,2.17E2,2.41E2,1.79E2,2.89E2,2.02E2,2.41E2,1.18E2,9.1E1,1.27E2,8E1,5.8E1,1.25E2,1.04E2,1.47E2,7.4E1,1.24E2,6E1,8.2E1,1.09E2,8.4E1,7.2E1,1.1E2,9.6E1,1.21E2,1.35E2,1.06E2,1.05E2,7.4E1,1E2,1.89E2,1.25E2,7.7E1,1.41E2,1E2,1.17E2,1E0,9E1,1E0,9E1,3.7E1,3.6E1,4.4E1,9.5E1,3E1,6.2E1,4.2E1,7.5E1,7.2E1,2.4E1,5E1,7.6E1,4.8E1,4.3E1,1.7E1,2.9E1,5.3E1,6E1,4.9E1,4.5E1,3.9E1,3.4E1,3.8E1,5.7E1,5.3E1,4.6E1,5E1,6.4E1,5.7E1,6.1E1,7.4E1,3.3E1,7.3E1,3.9E1,6.6E1,4E1,3.4E1,3.5E1,6.5E1,8.7E1,1.02E2,6.4E1,6.1E1],"tree_param":{"num_deleted":"0","num_feature":"4","num_nodes":"107","size_leaf_vector":"1"}},{"base_weights":[-5.227118E-2,-2.9073672E0,2.8117228E0,-4.3063364E0,-1.2431853E0,9.7439355E-1,3.862117E0,-7.3896565E0,-3.803689E0,-4.6363208E-1,-2.2224889E0,2.4767148E0,-8.753082E-1,-7.0744675E-1,4.164727E0,-9.5606365E0,-5.9293137E0,-3.2680708E-1,-4.2233915E0,-1.3013965E0,1.5472382E0,-5.39286E0,-1.8933212E0,4.1076903E0,1.4998983E0,-1.1831529E0,6.247616E0,2.8502796E0,-3.0636888E0,5.2739296E0,3.0628004E0,-1.2553657E1,-7.077742E0,2.3619583E0,-6.819032E0,-1.7480648E0,3.6242623E0,-4.0072327E0,-6.0175066E0,-2.7983253E0,-2.7226928E-1,2.1269288E0,-2.6843696E0,2.9942245E0,-6.8021894E0,1.1857618E0,-2.5395212E0,-5.961305E-1,5.0554156E0,-5.703683E0,1.7487571E0,2.3226216E0,-1.5123472E0,-1.7895292E-1,7.2402835E-1,-3.2725003E0,6.2901335E0,-4.8902297E0,7.780659E0,3.390968E0,6.600473E0,1.9484553E0,3.963367E0,-5.0639695E-1,-1.3571603E0,3.275618E-1,-7.586223E-1,-6.675861E-1,4.6210557E-1,1.7080973E-1,-7.5244886E-1,-4.9425918E-1,-6.6768774E-3,7.712043E-1,1.19582854E-1,-6.222022E-1,-3.7770304E-1,-9.6509475E-1,-4.1490355E-1,6.6326104E-2,-4.20853E-1,4.240768E-1,-7.5984485E-2,4.6599054E-1,1.0782377E-1,-4.6406013E-1,6.65409E-1,4.2070708E-1,7.499703E-2,-8.335622E-1,-2.848098E-2,1.7425295E-2,4.1991922E-1,2.3141332E-1,-2.7348477E-1,8.5230654E-1,-2.595056E-1,3.3927354E-1,7.362865E-1,-8.7235403E-1,1.19730644E-1,-3.177485E-1,2.0860134E-1,2.8082762E-2,5.2295655E-1,-3.55528E-1,-4.0579166E-2,2.5781474E-1,-7.61929E-1,1.2351545E0,3.4672728E-1,-2.236249E-1,-8.0961895E-1,1.1410199E0,3.1438716E-2,-3.9421475E-1,4.425663E-1,4.8092946E-1,8.0411834E-1,2.2428747E-1,-4.3603086E-1,7.9102343E-1,3.386929E-1],"categories":[],"categories_nodes":[],"categories_segments":[],"categories_sizes":[],"default_left":[0,0,0,0,0,0,0,0,0,0,0,0,0,0,0,0,0,0,0,0,0,0,0,0,0,0,0,0,0,0,0,0,0,0,0,0,0,0,0,0,0,0,0,0,0,0,0,0,0,0,0,0,0,0,0,0,0,0,0,0,0,0,0,0,0,0,0,0,0,0,0,0,0,0,0,0,0,0,0,0,0,0,0,0,0,0,0,0,0,0,0,0,0,0,0,0,0,0,0,0,0,0,0,0,0,0,0,0,0,0,0,0,0,0,0,0,0,0,0,0,0,0,0],"id":3,"left_children":[1,3,5,7,9,11,13,15,17,19,21,23,25,27,29,31,33,35,37,39,41,43,45,47,49,51,53,55,57,59,61,63,65,67,69,71,73,75,77,79,81,83,85,87,89,91,93,95,97,99,101,103,105,-1,-1,107,109,111,113,115,117,119,121,-1,-1,-1,-1,-1,-1,-1,-1,-1,-1,-1,-1,-1,-1,-1,-1,-1,-1,-1,-1,-1,-1,-1,-1,-1,-1,-1,-1,-1,-1,-1,-1,-1,-1,-1,-1,-1,-1,-1,-1,-1,-1,-1,-1,-1,-1,-1,-1,-1,-1,-1,-1,-1,-1,-1,-1,-1,-1,-1,-1],"loss_changes":[2.6190867E4,3.7284258E3,3.0816963E3,1.320667E3,5.5905054E2,1.6223955E3,1.4095947E3,3.2537842E2,1.0940664E3,6.926896E2,3.282256E2,5.0627686E2,5.813871E2,5.45257E2,1.1490508E3,2.584585E2,5.6981934E2,4.666178E2,2.3471973E2,4.456848E2,3.0246948E2,3.7535297E2,5.920989E2,5.384115E2,3.734917E2,2.9426007E2,1.01262115E2,5.6848444E2,8.102585E2,1.1605898E3,4.7439014E2,8.1892334E1,1.7268628E2,1.9398254E2,4.2248926E2,3.2679675E2,2.0827878E2,2.8191797E2,4.338064E2,5.7916815E2,3.835515E2,2.7862686E2,3.047004E2,9.958794E0,2.5660693E2,1.5733273E2,2.3864233E2,4.0432544E2,3.5759912E2,1.570774E2,3.3381598E2,1.2855872E2,5.203641E2,0E0,0E0,2.7446313E2,2.4647083E2,2.7015253E2,1.5783511E2,1.5198276E3,6.7486035E2,4.1262823E2,5.749868E2,0E0,0E0,0E0,0E0,0E0,0E0,0E0,0E0,0E0,0E0,0E0,0E0,0E0,0E0,0E0,0E0,0E0,0E0,0E0,0E0,0E0,0E0,0E0,0E0,0E0,0E0,0E0,0E0,0E0,0E0,0E0,0E0,0E0,0E0,0E0,0E0,0E0,0E0,0E0,0E0,0E0,0E0,0E0,0E0,0E0,0E0,0E0,0E0,0E0,0E0,0E0,0E0,0E0,0E0,0E0,0E0,0E0,0E0,0E0,0E0],"parents":[2147483647,0,0,1,1,2,2,3,3,4,4,5,5,6,6,7,7,8,8,9,9,10,10,11,11,12,12,13,13,14,14,15,15,16,16,17,17,18,18,19,19,20,20,21,21,22,22,23,23,24,24,25,25,26,26,27,27,28,28,29,29,30,30,31,31,32,32,33,33,34,34,35,35,36,36,37,37,38,38,39,39,40,40,41,41,42,42,43,43,44,44,45,45,46,46,47,47,48,48,49,49,50,50,51,51,52,52,55,55,56,56,57,57,58,58,59,59,60,60,61,61,62,62],"right_children":[2,4,6,8,10,12,14,16,18,20,22,24,26,28,30,32,34,36,38,40,42,44,46,48,50,52,54,56,58,60,62,64,66,68,70,72,74,76,78,80,82,84,86,88,90,92,94,96,98,100,102,104,106,-1,-1,108,110,112,114,116,118,120,122,-1,-1,-1,-1,-1,-1,-1,-1,-1,-1,-1,-1,-1,-1,-1,-1,-1,-1,-1,-1,-1,-1,-1,-1,-1,-1,-1,-1,-1,-1,-1,-1,-1,-1,-1,-1,-1,-1,-1,-1,-1,-1,-1,-1,-1,-1,-1,-1,-1,-1,-1,-1,-1,-1,-1,-1,-1,-1,-1,-1],"split_conditions":[9.915142E2,7.6766846E2,1.1628597E3,4.0557244E3,9.909001E3,9.784841E3,2.8118416E3,6.018788E2,4.1196143E3,1.0876134E4,3.2837886E3,5.5018345E3,1.4888687E4,6.9634443E3,9.396946E3,6.898639E3,4.778133E3,1.2725506E4,1.384898E4,8.598249E2,9.678024E2,1.0748326E4,4.811028E3,4.6921025E3,5.6678184E3,2.920591E3,9.939872E2,1.2771859E3,1.3773973E4,7.737681E3,1.3035417E3,5.1187134E2,2.2740486E3,2.2740486E3,2.1775784E3,5.8624915E2,3.4058596E3,5.219818E2,1.4212508E4,4.9963525E3,8.7335315E2,1.2067181E4,8.941109E3,1.0633639E4,1.3773973E4,4.451786E3,7.736664E2,2.6428167E3,1.0817216E3,1.1091954E3,1.0078974E3,1.2989841E4,7.2077397E3,-1.7895292E-1,7.2402835E-1,2.3250535E3,4.418362E3,2.434239E3,1.3902207E3,3.673579E3,1.3107305E3,1.4735997E4,3.9457551E3,-5.0639695E-1,-1.3571603E0,3.275618E-1,-7.586223E-1,-6.675861E-1,4.6210557E-1,1.7080973E-1,-7.5244886E-1,-4.9425918E-1,-6.6768774E-3,7.712043E-1,1.19582854E-1,-6.222022E-1,-3.7770304E-1,-9.6509475E-1,-4.1490355E-1,6.6326104E-2,-4.20853E-1,4.240768E-1,-7.5984485E-2,4.6599054E-1,1.0782377E-1,-4.6406013E-1,6.65409E-1,4.2070708E-1,7.499703E-2,-8.335622E-1,-2.848098E-2,1.7425295E-2,4.1991922E-1,2.3141332E-1,-2.7348477E-1,8.5230654E-1,-2.595056E-1,3.3927354E-1,7.362865E-1,-8.7235403E-1,1.19730644E-1,-3.177485E-1,2.0860134E-1,2.8082762E-2,5.2295655E-1,-3.55528E-1,-4.0579166E-2,2.5781474E-1,-7.61929E-1,1.2351545E0,3.4672728E-1,-2.236249E-1,-8.0961895E-1,1.1410199E0,3.1438716E-2,-3.9421475E-1,4.425663E-1,4.8092946E-1,8.0411834E-1,2.2428747E-1,-4.3603086E-1,7.9102343E-1,3.386929E-1],"split_indices":[1,1,1,2,3,3,2,1,3,2,2,3,3,3,3,3,3,2,3,1,1,3,2,2,3,2,1,1,3,2,1,1,2,2,2,1,3,1,3,3,1,2,3,3,3,2,1,2,1,1,1,3,2,0,0,2,3,2,1,3,1,3,2,0,0,0,0,0,0,0,0,0,0,0,0,0,0,0,0,0,0,0,0,0,0,0,0,0,0,0,0,0,0,0,0,0,0,0,0,0,0,0,0,0,0,0,0,0,0,0,0,0,0,0,0,0,0,0,0,0,0,0,0],"split_type":[0,0,0,0,0,0,0,0,0,0,0,0,0,0,0,0,0,0,0,0,0,0,0,0,0,0,0,0,0,0,0,0,0,0,0,0,0,0,0,0,0,0,0,0,0,0,0,0,0,0,0,0,0,0,0,0,0,0,0,0,0,0,0,0,0,0,0,0,0,0,0,0,0,0,0,0,0,0,0,0,0,0,0,0,0,0,0,0,0,0,0,0,0,0,0,0,0,0,0,0,0,0,0,0,0,0,0,0,0,0,0,0,0,0,0,0,0,0,0,0,0,0,0],"sum_hessian":[3.201E3,1.603E3,1.598E3,8.7E2,7.33E2,5.82E2,1.016E3,1.2E2,7.5E2,4.09E2,3.24E2,3.21E2,2.61E2,6.3E1,9.53E2,4.6E1,7.4E1,8.1E1,6.69E2,2.89E2,1.2E2,2.9E1,2.95E2,1.19E2,2.02E2,2.51E2,1E1,2.5E1,3.8E1,4.73E2,4.8E2,1.9E1,2.7E1,7E0,6.7E1,6E1,2.1E1,6E2,6.9E1,1.17E2,1.72E2,1.06E2,1.4E1,4E0,2.5E1,5.1E1,2.44E2,2E1,9.9E1,6E0,1.96E2,2.1E1,2.3E2,1E0,9E0,9E0,1.6E1,3.3E1,5E0,1.97E2,2.76E2,2.16E2,2.64E2,3E0,1.6E1,1E0,2.6E1,1E0,6E0,5E0,6.2E1,2E1,4E1,7E0,1.4E1,5.4E1,5.46E2,2.2E1,4.7E1,3.4E1,8.3E1,1.6E1,1.56E2,3E1,7.6E1,1.2E1,2E0,2E0,2E0,2E1,5E0,3.9E1,1.2E1,9E0,2.35E2,3E0,1.7E1,5.9E1,4E1,4E0,2E0,1.2E1,1.84E2,1.3E1,8E0,8E1,1.5E2,4E0,5E0,4E0,1.2E1,1.9E1,1.4E1,3E0,2E0,2.4E1,1.73E2,1.25E2,1.51E2,2.07E2,9E0,3.2E1,2.32E2],"tree_param":{"num_deleted":"0","num_feature":"4","num_nodes":"123","size_leaf_vector":"1"}},{"base_weights":[-1.070372E-2,-9.000761E0,7.2533746E0,-1.3349914E1,-4.9214177E0,2.8864336E0,1.0571191E1,-1.5727987E1,-1.1500366E1,-7.526163E0,-3.5361886E0,7.376291E-1,4.830034E0,8.321948E0,1.2575376E1,-1.1793758E1,-1.6186146E0,-1.2722005E1,-1.0407798E1,-8.284504E0,-5.983143E0,-4.5878706E0,-1.8498193E0,-3.9642566E-1,1.7397931E0,3.5619755E0,5.586365E0,1.0099501E1,7.276829E0,1.4775465E1,1.2066927E1,-1.2528354E0,-7.051326E-1,-8.083927E0,-1.2889177E0,-8.416785E0,-1.0966288E0,-4.7948017E0,-8.592626E0,-4.376476E0,-6.9596875E-1,-1.586318E0,-5.020073E0,1.2927011E0,-2.170378E0,-9.1396093E-1,1.4499872E0,4.221133E0,9.831257E-1,2.0610905E0,4.3358335E0,8.872935E-1,5.16483E0,7.9163103E0,1.112199E1,6.777231E0,8.6126795E0,1.295502E0,1.6152767E0,7.98032E0,1.2243975E1,-9.05889E-1,-3.0810398E-1,-8.850526E-1,-2.6362678E-1,-5.73092E-1,-3.1298184E-1,-8.969318E-1,-6.9365907E-1,-6.410393E-1,-2.94381E-1,-4.363544E-1,5.3103674E-2,-5.569143E-1,-4.1139728E-1,-2.902028E-1,2.004669E-1,-2.7996102E-1,-8.610433E-2,-1.609602E-1,-3.8368985E-2,-1.6751888E-3,2.3104496E-1,2.4323355E-1,5.550878E-1,6.1682206E-2,2.876352E-1,2.8793186E-2,2.4071017E-1,3.7930718E-1,5.592469E-1,4.2283365E-1,5.685403E-1,8.026949E-1,6.996243E-2,1.2946923E0,1.0137684E0,6.888887E-1,4.7406706E-1,9.153765E-1,5.4395145E-1,8.208734E-1,1.656028E-1,1.0609483E0,1.2643645E0],"categories":[],"categories_nodes":[],"categories_segments":[],"categories_sizes":[],"default_left":[0,0,0,0,0,0,0,0,0,0,0,0,0,0,0,0,0,0,0,0,0,0,0,0,0,0,0,0,0,0,0,0,0,0,0,0,0,0,0,0,0,0,0,0,0,0,0,0,0,0,0,0,0,0,0,0,0,0,0,0,0,0,0,0,0,0,0,0,0,0,0,0,0,0,0,0,0,0,0,0,0,0,0,0,0,0,0,0,0,0,0,0,0,0,0,0,0,0,0,0,0,0,0,0,0],"id":4,"left_children":[1,3,5,7,9,11,13,15,17,19,21,23,25,27,29,31,-1,33,35,37,39,41,43,45,47,49,51,53,55,57,59,-1,-1,61,-1,63,-1,65,67,69,-1,71,73,75,77,79,81,83,85,87,89,-1,91,93,95,97,99,-1,-1,101,103,-1,-1,-1,-1,-1,-1,-1,-1,-1,-1,-1,-1,-1,-1,-1,-1,-1,-1,-1,-1,-1,-1,-1,-1,-1,-1,-1,-1,-1,-1,-1,-1,-1,-1,-1,-1,-1,-1,-1,-1,-1,-1,-1,-1],"loss_changes":[2.0910511E5,2.532082E4,2.562764E4,2.8600703E3,2.6423242E3,3.195016E3,4.428211E3,3.470625E2,3.8982422E2,2.4856055E2,8.510288E2,4.1564975E2,3.647334E2,8.109219E2,4.1189844E2,3.1631836E1,0E0,3.404883E1,1.4260742E2,1.3917871E2,1.0647778E2,3.7796533E2,1.9227747E2,1.6563202E2,3.5957428E2,1.681289E2,2.9911963E2,2.9846875E2,1.4297656E2,2.6023438E1,2.1572266E2,0E0,0E0,1.4773804E1,0E0,1.0338818E2,0E0,6.1151123E0,3.2260742E1,8.509491E1,0E0,2.3203496E2,1.05473145E2,5.9485092E1,1.3810608E2,4.898166E1,4.822689E1,9.273901E1,1.0190083E2,3.216815E1,4.60542E1,0E0,8.417236E1,4.0620117E1,7.480957E1,1.7570312E1,8.438721E1,0E0,0E0,1.5755249E1,1.3528906E2,0E0,0E0,0E0,0E0,0E0,0E0,0E0,0E0,0E0,0E0,0E0,0E0,0E0,0E0,0E0,0E0,0E0,0E0,0E0,0E0,0E0,0E0,0E0,0E0,0E0,0E0,0E0,0E0,0E0,0E0,0E0,0E0,0E0,0E0,0E0,0E0,0E0,0E0,0E0,0E0,0E0,0E0,0E0,0E0],"parents":[2147483647,0,0,1,1,2,2,3,3,4,4,5,5,6,6,7,7,8,8,9,9,10,10,11,11,12,12,13,13,14,14,15,15,17,17,18,18,19,19,20,20,21,21,22,22,23,23,24,24,25,25,26,26,27,27,28,28,29,29,30,30,33,33,35,35,37,37,38,38,39,39,41,41,42,42,43,43,44,44,45,45,46,46,47,47,48,48,49,49,50,50,52,52,53,53,54,54,55,55,56,56,59,59,60,60],"right_children":[2,4,6,8,10,12,14,16,18,20,22,24,26,28,30,32,-1,34,36,38,40,42,44,46,48,50,52,54,56,58,60,-1,-1,62,-1,64,-1,66,68,70,-1,72,74,76,78,80,82,84,86,88,90,-1,92,94,96,98,100,-1,-1,102,104,-1,-1,-1,-1,-1,-1,-1,-1,-1,-1,-1,-1,-1,-1,-1,-1,-1,-1,-1,-1,-1,-1,-1,-1,-1,-1,-1,-1,-1,-1,-1,-1,-1,-1,-1,-1,-1,-1,-1,-1,-1,-1,-1,-1],"split_conditions":[2.2360126E1,1.0201781E1,3.4444263E1,4.1777167E0,1.4462238E1,2.850306E1,4.148709E1,4.1196143E3,6.9185796E0,1.0530964E4,1.9216331E1,7.618952E3,6.558441E3,7.569405E3,5.6678184E3,1.3648369E4,-1.6186146E0,3.8315117E3,6.208051E3,3.8315117E3,8.0264478E3,4.2289575E3,4.0294932E3,2.7088049E1,6.354852E3,3.039526E1,4.511309E3,6.355639E3,3.993279E1,7.392799E3,2.8118416E3,-1.2528354E0,-7.051326E-1,1.1821431E4,-1.2889177E0,1.3276254E4,-1.0966288E0,3.4058596E3,1.3699405E1,1.1846666E1,-6.9596875E-1,8.040152E3,9.975406E3,3.7881775E3,1.1017253E4,2.4444891E1,3.9457551E3,2.5284838E1,2.7442934E1,2.3250535E3,3.332315E1,8.872935E-1,3.0771038E1,6.2706177E3,4.511309E3,1.4650169E4,1.3891571E4,1.295502E0,1.6152767E0,1.3891571E4,4.3395916E1,-9.05889E-1,-3.0810398E-1,-8.850526E-1,-2.6362678E-1,-5.73092E-1,-3.1298184E-1,-8.969318E-1,-6.9365907E-1,-6.410393E-1,-2.94381E-1,-4.363544E-1,5.3103674E-2,-5.569143E-1,-4.1139728E-1,-2.902028E-1,2.004669E-1,-2.7996102E-1,-8.610433E-2,-1.609602E-1,-3.8368985E-2,-1.6751888E-3,2.3104496E-1,2.4323355E-1,5.550878E-1,6.1682206E-2,2.876352E-1,2.8793186E-2,2.4071017E-1,3.7930718E-1,5.592469E-1,4.2283365E-1,5.685403E-1,8.026949E-1,6.996243E-2,1.2946923E0,1.0137684E0,6.888887E-1,4.7406706E-1,9.153765E-1,5.4395145E-1,8.208734E-1,1.656028E-1,1.0609483E0,1.2643645E0],"split_indices":[0,0,0,0,0,0,0,3,0,2,0,2,2,3,3,2,0,3,3,3,3,3,3,0,3,0,3,2,0,2,2,0,0,2,0,2,0,3,0,0,0,2,2,2,2,0,2,0,0,2,0,0,0,2,3,3,3,0,0,3,0,0,0,0,0,0,0,0,0,0,0,0,0,0,0,0,0,0,0,0,0,0,0,0,0,0,0,0,0,0,0,0,0,0,0,0,0,0,0,0,0,0,0,0,0],"split_type":[0,0,0,0,0,0,0,0,0,0,0,0,0,0,0,0,0,0,0,0,0,0,0,0,0,0,0,0,0,0,0,0,0,0,0,0,0,0,0,0,0,0,0,0,0,0,0,0,0,0,0,0,0,0,0,0,0,0,0,0,0,0,0,0,0,0,0,0,0,0,0,0,0,0,0,0,0,0,0,0,0,0,0,0,0,0,0,0,0,0,0,0,0,0,0,0,0,0,0,0,0,0,0,0,0],"sum_hessian":[3.2E3,1.43E3,1.77E3,6.91E2,7.39E2,7.65E2,1.005E3,2.99E2,3.92E2,2.55E2,4.84E2,3.64E2,4.01E2,4.76E2,5.29E2,3.4E1,2.65E2,1.8E2,2.12E2,1.68E2,8.7E1,2.97E2,1.87E2,1.71E2,1.93E2,1.52E2,2.49E2,1.73E2,3.03E2,9.4E1,4.35E2,2.8E1,6E0,8E0,1.72E2,5E1,1.62E2,1.5E1,1.53E2,3.5E1,5.2E1,3.8E1,2.59E2,1.7E1,1.7E2,1.34E2,3.7E1,4.4E1,1.49E2,5.3E1,9.9E1,2.6E1,2.23E2,5.8E1,1.15E2,2.25E2,7.8E1,4.5E1,4.9E1,2E1,4.15E2,6E0,2E0,4.6E1,4E0,8E0,7E0,1.21E2,3.2E1,1.3E1,2.2E1,1.6E1,2.2E1,1.58E2,1.01E2,2E0,1.5E1,1.14E2,5.6E1,5.7E1,7.7E1,1.4E1,2.3E1,2E1,2.4E1,1.26E2,2.3E1,9E0,4.4E1,7.2E1,2.7E1,8.3E1,1.4E2,5.7E1,1E0,3.6E1,7.9E1,2.11E2,1.4E1,6.5E1,1.3E1,1.9E1,1E0,8.7E1,3.28E2],"tree_param":{"num_deleted":"0","num_feature":"4","num_nodes":"105","size_leaf_vector":"1"}},{"base_weights":[2.8395947E-2,-7.9593897E0,6.6228986E0,-1.2182901E1,-4.553813E0,3.1906745E0,9.898923E0,-1.438672E1,-1.0229484E1,-7.323062E0,-2.6672661E0,1.05199374E-1,5.5486193E0,7.054153E0,1.3206295E1,-1.5812042E1,-1.2351892E0,-1.1804251E1,-8.154916E0,-9.40092E0,-5.6678615E0,-4.7516055E0,-7.8538984E-1,-1.8788604E0,1.2737548E0,3.5714908E0,7.2261186E0,5.110247E0,8.441907E0,1.1785341E1,1.5204337E1,-1.2485962E0,-1.6186303E0,-1.3017437E0,-1.0469592E1,-9.100421E0,-6.6963162E0,-7.1618587E-1,-1.0006622E0,-6.706334E0,-4.136396E0,-5.992822E0,-3.2910445E0,-1.9687337E0,9.963455E-1,-3.055114E0,-8.0302775E-1,2.263864E-1,2.1701074E0,1.9529396E0,4.9101725E0,5.207671E0,8.193717E0,3.6326993E0,6.8495226E0,6.3713684E0,9.509522E0,1.0742711E1,1.3865331E0,1.2977673E0,1.6055882E0,-5.737973E-1,-1.071472E0,-7.3748595E-1,-9.759144E-1,-9.282857E-2,-6.8657964E-1,-6.892483E-1,-3.881751E-1,-1.3830528E-1,-4.572816E-1,-7.4971974E-1,-5.10806E-1,-8.532701E-2,-3.8404953E-1,-5.2954134E-2,-2.6206547E-1,-5.5349052E-2,2.0067799E-1,-4.2627725E-1,-2.4352022E-1,7.754189E-2,-1.2191653E-1,1.5224095E-1,-3.4752488E-2,1.4686419E-1,3.5523915E-1,1.126671E-1,2.9680902E-1,3.6171183E-1,6.249805E-1,3.838174E-1,6.3185483E-1,7.4010175E-1,9.8012733E-1,5.3164005E-1,2.9006642E-1,5.758568E-1,7.709593E-1,8.3768207E-1,5.9696513E-1,8.4353924E-1,1.0405233E0,8.513611E-1,1.124031E0],"categories":[],"categories_nodes":[],"categories_segments":[],"categories_sizes":[],"default_left":[0,0,0,0,0,0,0,0,0,0,0,0,0,0,0,0,0,0,0,0,0,0,0,0,0,0,0,0,0,0,0,0,0,0,0,0,0,0,0,0,0,0,0,0,0,0,0,0,0,0,0,0,0,0,0,0,0,0,0,0,0,0,0,0,0,0,0,0,0,0,0,0,0,0,0,0,0,0,0,0,0,0,0,0,0,0,0,0,0,0,0,0,0,0,0,0,0,0,0,0,0,0,0,0,0],"id":5,"left_children":[1,3,5,7,9,11,13,15,17,19,21,23,25,27,29,31,-1,33,35,37,39,41,43,45,47,49,51,53,55,57,59,-1,-1,-1,61,63,65,-1,-1,67,69,71,73,75,77,79,81,83,85,87,89,91,93,95,97,99,101,103,-1,-1,-1,-1,-1,-1,-1,-1,-1,-1,-1,-1,-1,-1,-1,-1,-1,-1,-1,-1,-1,-1,-1,-1,-1,-1,-1,-1,-1,-1,-1,-1,-1,-1,-1,-1,-1,-1,-1,-1,-1,-1,-1,-1,-1,-1,-1],"loss_changes":[1.6924619E5,2.084207E4,1.9756633E4,2.6399922E3,4.1902676E3,6.262953E3,8.372664E3,6.777617E2,1.035375E3,1.0664121E3,1.8824219E3,8.694457E2,1.5916279E3,1.2665684E3,9.9634375E2,1.1628906E1,0E0,1.7710742E2,1.4848535E2,1.2055371E2,2.6380615E2,3.9268408E2,5.375938E2,1.7305872E2,2.2082852E2,4.7940405E2,4.6963965E2,5.008916E2,5.6119727E2,3.842461E2,1.09171875E2,0E0,0E0,0E0,5.0539062E1,2.8614258E1,5.5411377E1,0E0,0E0,2.8953125E1,8.560425E1,1.2282715E2,1.3957336E2,1.4184796E2,1.6098883E2,3.8359802E1,4.959671E1,8.2464806E1,1.17423035E2,8.3480286E1,1.8946973E2,1.0861084E2,1.5001953E2,1.2303284E2,4.1518555E1,2.831543E1,8.737109E1,8.97832E1,0E0,0E0,0E0,0E0,0E0,0E0,0E0,0E0,0E0,0E0,0E0,0E0,0E0,0E0,0E0,0E0,0E0,0E0,0E0,0E0,0E0,0E0,0E0,0E0,0E0,0E0,0E0,0E0,0E0,0E0,0E0,0E0,0E0,0E0,0E0,0E0,0E0,0E0,0E0,0E0,0E0,0E0,0E0,0E0,0E0,0E0,0E0],"parents":[2147483647,0,0,1,1,2,2,3,3,4,4,5,5,6,6,7,7,8,8,9,9,10,10,11,11,12,12,13,13,14,14,15,15,17,17,18,18,19,19,20,20,21,21,22,22,23,23,24,24,25,25,26,26,27,27,28,28,29,29,30,30,34,34,35,35,36,36,39,39,40,40,41,41,42,42,43,43,44,44,45,45,46,46,47,47,48,48,49,49,50,50,51,51,52,52,53,53,54,54,55,55,56,56,57,57],"right_children":[2,4,6,8,10,12,14,16,18,20,22,24,26,28,30,32,-1,34,36,38,40,42,44,46,48,50,52,54,56,58,60,-1,-1,-1,62,64,66,-1,-1,68,70,72,74,76,78,80,82,84,86,88,90,92,94,96,98,100,102,104,-1,-1,-1,-1,-1,-1,-1,-1,-1,-1,-1,-1,-1,-1,-1,-1,-1,-1,-1,-1,-1,-1,-1,-1,-1,-1,-1,-1,-1,-1,-1,-1,-1,-1,-1,-1,-1,-1,-1,-1,-1,-1,-1,-1,-1,-1,-1],"split_conditions":[2.2689478E1,9.530492E0,3.579125E1,9.479717E2,9.1112726E2,9.2983124E2,1.0285842E3,5.559874E0,5.29529E0,1.5603202E1,1.5603202E1,2.7852026E1,2.9620728E1,4.133537E1,4.4507057E1,4.9024985E3,-1.2351892E0,2.882379E0,1.2951102E3,5.4481035E3,1.9756887E1,1.2368168E3,1.2407799E3,7.035355E2,7.1354285E2,1.1588553E3,1.1016866E3,7.9087683E2,6.97183E2,1.341622E3,1.1588553E3,-1.2485962E0,-1.6186303E0,-1.3017437E0,3.531987E3,6.685448E3,3.2019998E3,-7.1618587E-1,-1.0006622E0,8.7335315E2,4.267405E3,1.1846666E1,4.418362E3,7.6579375E3,1.8600904E1,5.6194653E2,4.8561035E3,6.304138E3,3.2944275E1,2.672796E1,2.6169546E1,3.332315E1,3.332315E1,7.056509E3,9.1112726E2,4.3651406E3,8.3560925E2,1.0817216E3,1.3865331E0,1.2977673E0,1.6055882E0,-5.737973E-1,-1.071472E0,-7.3748595E-1,-9.759144E-1,-9.282857E-2,-6.8657964E-1,-6.892483E-1,-3.881751E-1,-1.3830528E-1,-4.572816E-1,-7.4971974E-1,-5.10806E-1,-8.532701E-2,-3.8404953E-1,-5.2954134E-2,-2.6206547E-1,-5.5349052E-2,2.0067799E-1,-4.2627725E-1,-2.4352022E-1,7.754189E-2,-1.2191653E-1,1.5224095E-1,-3.4752488E-2,1.4686419E-1,3.5523915E-1,1.126671E-1,2.9680902E-1,3.6171183E-1,6.249805E-1,3.838174E-1,6.3185483E-1,7.4010175E-1,9.8012733E-1,5.3164005E-1,2.9006642E-1,5.758568E-1,7.709593E-1,8.3768207E-1,5.9696513E-1,8.4353924E-1,1.0405233E0,8.513611E-1,1.124031E0],"split_indices":[0,0,0,1,1,1,1,0,0,0,0,0,0,0,0,3,0,0,1,3,0,1,1,1,1,1,1,1,1,1,1,0,0,0,3,3,3,0,0,1,3,0,3,3,0,1,3,3,0,0,0,0,0,3,1,3,1,1,0,0,0,0,0,0,0,0,0,0,0,0,0,0,0,0,0,0,0,0,0,0,0,0,0,0,0,0,0,0,0,0,0,0,0,0,0,0,0,0,0,0,0,0,0,0,0],"split_type":[0,0,0,0,0,0,0,0,0,0,0,0,0,0,0,0,0,0,0,0,0,0,0,0,0,0,0,0,0,0,0,0,0,0,0,0,0,0,0,0,0,0,0,0,0,0,0,0,0,0,0,0,0,0,0,0,0,0,0,0,0,0,0,0,0,0,0,0,0,0,0,0,0,0,0,0,0,0,0,0,0,0,0,0,0,0,0,0,0,0,0,0,0,0,0,0,0,0,0,0,0,0,0,0,0],"sum_hessian":[3.211E3,1.452E3,1.759E3,6.47E2,8.05E2,8.6E2,8.99E2,3.01E2,3.46E2,3.25E2,4.8E2,3.73E2,4.87E2,4.85E2,4.14E2,1.73E2,1.28E2,1.94E2,1.52E2,1.42E2,1.83E2,2.27E2,2.53E2,1.38E2,2.35E2,2.25E2,2.62E2,2.04E2,2.81E2,2.46E2,1.68E2,2.1E1,1.52E2,9.7E1,9.7E1,8.9E1,6.3E1,3.3E1,1.09E2,1.07E2,7.6E1,1.21E2,1.06E2,1.52E2,1.01E2,6.5E1,7.3E1,1.09E2,1.26E2,1.03E2,1.22E2,8.7E1,1.75E2,1.12E2,9.2E1,9.8E1,1.83E2,1.68E2,7.8E1,5.1E1,1.17E2,6E0,9.1E1,2.8E1,6.1E1,2E0,6.1E1,9.9E1,8E0,1.1E1,6.5E1,4.2E1,7.9E1,2E1,8.6E1,4.8E1,1.04E2,4E1,6.1E1,2E1,4.5E1,1.5E1,5.8E1,3.3E1,7.6E1,8.5E1,4.1E1,5.8E1,4.5E1,6.4E1,5.8E1,4.1E1,4.6E1,1.21E2,5.4E1,3.2E1,8E1,4.4E1,4.8E1,1.3E1,8.5E1,8.8E1,9.5E1,3.4E1,1.34E2],"tree_param":{"num_deleted":"0","num_feature":"4","num_nodes":"105","size_leaf_vector":"1"}},{"base_weights":[7.7476874E-2,-7.2489233E0,5.9419227E0,-1.0321646E1,-3.4962986E0,2.2033617E0,8.58484E0,-1.2042659E1,-8.320644E0,-4.6895504E0,-1.608115E0,3.16209E-1,3.39344E0,6.4438314E0,1.0211363E1,-1.311502E1,-1.0818435E1,-6.50233E0,-8.8613405E0,-3.1267424E0,-5.321079E0,7.774399E-1,-2.1530063E0,-5.5080295E-1,1.2315654E0,2.3009918E0,4.1470323E0,8.648378E0,5.829239E0,1.1307152E1,9.2804165E0,-1.0455304E1,-1.3730466E0,-8.222557E0,-1.1125131E0,-8.013683E0,-5.1646748E0,-9.545892E-1,-7.8853374E0,-4.3684573E0,-1.2351452E0,-6.344451E0,-4.715695E0,-6.1808205E-1,3.0656743E0,-2.5100985E0,-1.037554E0,3.9842233E-1,-9.352399E-1,3.2857041E0,5.6012875E-1,1.3343415E0,3.1543684E0,7.270686E-1,3.5916598E0,7.5014467E0,1.0516269E0,5.57933E0,7.2075315E0,1.0197159E0,1.2623237E1,8.100753E0,9.946449E0,-1.1133273E0,-6.4952916E-1,-8.702311E-1,-3.5032764E-1,-1.8255733E-1,-8.1258553E-1,-5.2820957E-1,1.857645E-2,-7.922125E-1,-1.7038243E-1,-5.0573385E-1,-2.949733E-1,6.1312236E-2,-2.0408686E-1,-4.2943105E-1,-6.7408925E-1,-5.480897E-1,-4.034093E-1,-2.4229717E-1,3.2230974E-3,4.5030037E-1,1.1169002E-1,-3.1337842E-1,-2.1665516E-1,6.272423E-2,-1.5684463E-1,-3.0084131E-2,1.150072E-1,-1.4604191E-1,-3.2633454E-2,8.367809E-2,3.6756295E-1,1.1997979E-1,1.2003661E-2,-8.004438E-2,1.7448407E-1,3.223736E-1,-8.3510205E-3,2.7842444E-1,4.2159835E-1,2.646722E-1,7.698404E-1,5.1965964E-1,6.662876E-1,7.719514E-1,4.6349126E-1,1.0611584E0,1.40154E0,4.5761535E-1,8.307074E-1,4.5948768E-1,1.0058445E0],"categories":[],"categories_nodes":[],"categories_segments":[],"categories_sizes":[],"default_left":[0,0,0,0,0,0,0,0,0,0,0,0,0,0,0,0,0,0,0,0,0,0,0,0,0,0,0,0,0,0,0,0,0,0,0,0,0,0,0,0,0,0,0,0,0,0,0,0,0,0,0,0,0,0,0,0,0,0,0,0,0,0,0,0,0,0,0,0,0,0,0,0,0,0,0,0,0,0,0,0,0,0,0,0,0,0,0,0,0,0,0,0,0,0,0,0,0,0,0,0,0,0,0,0,0,0,0,0,0,0,0,0,0,0,0],"id":6,"left_children":[1,3,5,7,9,11,13,15,17,19,21,23,25,27,29,31,33,35,37,39,41,43,45,47,49,51,53,55,57,59,61,63,-1,65,-1,67,69,-1,71,73,75,77,79,81,83,85,87,89,91,93,95,97,99,-1,101,103,-1,105,107,-1,109,111,113,-1,-1,-1,-1,-1,-1,-1,-1,-1,-1,-1,-1,-1,-1,-1,-1,-1,-1,-1,-1,-1,-1,-1,-1,-1,-1,-1,-1,-1,-1,-1,-1,-1,-1,-1,-1,-1,-1,-1,-1,-1,-1,-1,-1,-1,-1,-1,-1,-1,-1,-1,-1],"loss_changes":[1.3684439E5,1.6290109E4,1.7458977E4,2.577E3,1.4315454E3,1.6470171E3,3.5402969E3,4.0184766E2,2.9773047E2,3.6841797E2,3.2547864E2,2.2692953E2,3.6028027E2,5.5783984E2,4.918203E2,2.0923438E2,6.581836E1,1.331792E2,1.0805664E2,2.641587E2,1.4058545E2,1.5222383E2,7.78996E1,5.406915E1,1.8948714E2,1.4877661E2,4.3251953E2,1.24976074E2,8.078711E1,2.561211E2,1.7140039E2,4.6737305E1,0E0,2.4895142E1,0E0,1.1241699E1,3.2275146E1,0E0,1.2827637E1,5.171753E1,7.138611E1,5.1225098E1,6.977637E1,3.552947E1,4.482715E1,2.5463074E1,4.615312E1,2.3031765E1,3.2922096E1,2.8939545E1,2.9564415E1,7.948427E1,2.259436E1,0E0,1.01989746E2,3.8828857E1,0E0,9.067676E1,3.0159424E1,0E0,1.7647461E2,4.9416016E1,7.3384766E1,0E0,0E0,0E0,0E0,0E0,0E0,0E0,0E0,0E0,0E0,0E0,0E0,0E0,0E0,0E0,0E0,0E0,0E0,0E0,0E0,0E0,0E0,0E0,0E0,0E0,0E0,0E0,0E0,0E0,0E0,0E0,0E0,0E0,0E0,0E0,0E0,0E0,0E0,0E0,0E0,0E0,0E0,0E0,0E0,0E0,0E0,0E0,0E0,0E0,0E0,0E0,0E0],"parents":[2147483647,0,0,1,1,2,2,3,3,4,4,5,5,6,6,7,7,8,8,9,9,10,10,11,11,12,12,13,13,14,14,15,15,16,16,17,17,18,18,19,19,20,20,21,21,22,22,23,23,24,24,25,25,26,26,27,27,28,28,29,29,30,30,31,31,33,33,35,35,36,36,38,38,39,39,40,40,41,41,42,42,43,43,44,44,45,45,46,46,47,47,48,48,49,49,50,50,51,51,52,52,54,54,55,55,57,57,58,58,60,60,61,61,62,62],"right_children":[2,4,6,8,10,12,14,16,18,20,22,24,26,28,30,32,34,36,38,40,42,44,46,48,50,52,54,56,58,60,62,64,-1,66,-1,68,70,-1,72,74,76,78,80,82,84,86,88,90,92,94,96,98,100,-1,102,104,-1,106,108,-1,110,112,114,-1,-1,-1,-1,-1,-1,-1,-1,-1,-1,-1,-1,-1,-1,-1,-1,-1,-1,-1,-1,-1,-1,-1,-1,-1,-1,-1,-1,-1,-1,-1,-1,-1,-1,-1,-1,-1,-1,-1,-1,-1,-1,-1,-1,-1,-1,-1,-1,-1,-1,-1,-1],"split_conditions":[2.2101671E1,1.1846666E1,3.3818054E1,6.1019115E0,1.8070189E1,2.7088049E1,4.0741257E1,3.1687486E0,5.7294976E3,6.249986E3,5.4481035E3,7.788832E3,7.392799E3,5.6678184E3,8.779068E3,5.3829956E3,4.186454E3,8.739298E3,9.222953E0,9.350766E3,7.2560615E3,1.1187027E4,1.1413768E4,6.208051E3,6.208051E3,3.059155E1,5.0715273E3,9.350766E3,3.993279E1,9.652957E3,4.4003956E1,1.3538657E4,-1.3730466E0,1.3648369E4,-1.1125131E0,3.050366E3,5.6678184E3,-9.545892E-1,1.4781696E4,1.5838084E1,3.702086E3,2.690568E3,1.4462238E1,3.7881775E3,3.7788804E3,1.9433865E1,7.8369067E3,4.418362E3,2.4906498E1,2.2689478E1,1.0580034E4,2.4843005E3,1.4928744E4,7.270686E-1,2.9894999E1,2.4843005E3,1.0516269E0,1.185319E4,1.4343555E4,1.0197159E0,4.4507057E1,2.8118416E3,2.2740486E3,-1.1133273E0,-6.4952916E-1,-8.702311E-1,-3.5032764E-1,-1.8255733E-1,-8.1258553E-1,-5.2820957E-1,1.857645E-2,-7.922125E-1,-1.7038243E-1,-5.0573385E-1,-2.949733E-1,6.1312236E-2,-2.0408686E-1,-4.2943105E-1,-6.7408925E-1,-5.480897E-1,-4.034093E-1,-2.4229717E-1,3.2230974E-3,4.5030037E-1,1.1169002E-1,-3.1337842E-1,-2.1665516E-1,6.272423E-2,-1.5684463E-1,-3.0084131E-2,1.150072E-1,-1.4604191E-1,-3.2633454E-2,8.367809E-2,3.6756295E-1,1.1997979E-1,1.2003661E-2,-8.004438E-2,1.7448407E-1,3.223736E-1,-8.3510205E-3,2.7842444E-1,4.2159835E-1,2.646722E-1,7.698404E-1,5.1965964E-1,6.662876E-1,7.719514E-1,4.6349126E-1,1.0611584E0,1.40154E0,4.5761535E-1,8.307074E-1,4.5948768E-1,1.0058445E0],"split_indices":[0,0,0,0,0,0,0,0,3,3,3,2,2,3,3,3,3,2,0,2,2,2,2,3,3,0,3,2,0,2,0,2,0,2,0,3,3,0,3,0,3,2,0,2,3,0,3,3,0,0,2,2,3,0,0,2,0,2,3,0,0,2,2,0,0,0,0,0,0,0,0,0,0,0,0,0,0,0,0,0,0,0,0,0,0,0,0,0,0,0,0,0,0,0,0,0,0,0,0,0,0,0,0,0,0,0,0,0,0,0,0,0,0,0,0],"split_type":[0,0,0,0,0,0,0,0,0,0,0,0,0,0,0,0,0,0,0,0,0,0,0,0,0,0,0,0,0,0,0,0,0,0,0,0,0,0,0,0,0,0,0,0,0,0,0,0,0,0,0,0,0,0,0,0,0,0,0,0,0,0,0,0,0,0,0,0,0,0,0,0,0,0,0,0,0,0,0,0,0,0,0,0,0,0,0,0,0,0,0,0,0,0,0,0,0,0,0,0,0,0,0,0,0,0,0,0,0,0,0,0,0,0,0],"sum_hessian":[3.183E3,1.415E3,1.768E3,7.77E2,6.38E2,7.33E2,1.035E3,4.15E2,3.62E2,3.9E2,2.48E2,2.84E2,4.49E2,4.49E2,5.86E2,2.16E2,1.99E2,8.6E1,2.76E2,1.14E2,2.76E2,4.6E1,2.02E2,1.46E2,1.38E2,1.85E2,2.64E2,9.5E1,3.54E2,2.64E2,3.22E2,4.4E1,1.72E2,2.4E1,1.75E2,3.8E1,4.8E1,1.57E2,1.19E2,6.8E1,4.6E1,9.9E1,1.77E2,2.9E1,1.7E1,1.52E2,5E1,4.2E1,1.04E2,3.3E1,1.05E2,8.8E1,9.7E1,3.8E1,2.26E2,6.2E1,3.3E1,3.04E2,5E1,1.48E2,1.16E2,1.21E2,2.01E2,3.6E1,8E0,2.1E1,3E0,1E0,3.7E1,4.7E1,1E0,1.18E2,1E0,4.4E1,2.4E1,1.4E1,3.2E1,1.8E1,8.1E1,8E1,9.7E1,7E0,2.2E1,9E0,8E0,5.1E1,1.01E2,1.2E1,3.8E1,2.2E1,2E1,5.5E1,4.9E1,5E0,2.8E1,4.2E1,6.3E1,1.4E1,7.4E1,9.5E1,2E0,1.01E2,1.25E2,3E0,5.9E1,2.29E2,7.5E1,4E1,1E1,5.1E1,6.5E1,8E0,1.13E2,5E0,1.96E2],"tree_param":{"num_deleted":"0","num_feature":"4","num_nodes":"115","size_leaf_vector":"1"}},{"base_weights":[6.272687E-2,-6.412145E0,5.3256288E0,-9.600399E0,-3.5691774E0,2.5924723E0,8.210499E0,-1.0966259E1,-8.006458E0,-4.763343E0,-1.862415E0,6.7159677E-1,3.931021E0,6.1787057E0,9.162048E0,-9.373908E0,-1.1517299E1,-6.6341653E0,-8.670445E0,-5.7677574E0,-3.9140966E0,1.1521285E0,-2.1588142E0,-2.986524E-1,1.478933E0,3.29732E0,5.0404515E0,8.504779E0,5.460431E0,1.0155906E1,8.356965E0,-1.0791862E0,-7.4303217E0,-1.2391046E0,-1.0383604E0,-7.376896E0,-4.004134E0,-9.878709E-1,-8.233229E0,-6.8039055E0,-5.233559E0,-2.7787154E0,-4.6798143E0,-4.3569297E-1,3.1475775E0,-3.361423E0,-1.5796189E0,-8.082046E-1,3.3921334E-1,2.9054658E0,6.733512E-1,2.2948503E0,3.8969882E0,7.664185E-1,4.728E0,7.058144E0,9.8138374E-1,5.8270364E0,4.221116E0,9.185093E0,1.1397796E1,6.784486E0,8.832621E0,-8.752738E-1,-6.01828E-1,-8.1546944E-1,-6.186803E-1,7.400782E-2,-4.2275056E-1,-8.532859E-1,-6.907904E-1,-2.5414523E-1,-6.964952E-1,-4.2876777E-1,-5.9170353E-1,-4.2608252E-1,-1.9042186E-1,-4.7967014E-1,-2.6004788E-1,-1.7025618E-1,2.2571584E-2,1.8042712E-1,4.3973896E-1,-4.2120305E-1,-3.0997837E-1,-1.9807467E-1,-5.3248074E-2,-2.5350177E-3,-1.1127223E-1,1.5801892E-1,-3.7066273E-3,1.3341387E-1,3.9442313E-1,2.18191E-2,2.1607111E-1,1.4918463E-1,2.7650744E-1,5.083016E-1,3.300968E-1,3.4233567E-1,5.1760226E-1,3.0873734E-1,7.339594E-1,5.422644E-1,7.065823E-1,2.0009725E-1,4.7525588E-1,2.0089924E-1,9.219101E-1,9.959027E-1,1.272821E0,6.919908E-1,9.235453E-2,5.133435E-1,8.9809793E-1],"categories":[],"categories_nodes":[],"categories_segments":[],"categories_sizes":[],"default_left":[0,0,0,0,0,0,0,0,0,0,0,0,0,0,0,0,0,0,0,0,0,0,0,0,0,0,0,0,0,0,0,0,0,0,0,0,0,0,0,0,0,0,0,0,0,0,0,0,0,0,0,0,0,0,0,0,0,0,0,0,0,0,0,0,0,0,0,0,0,0,0,0,0,0,0,0,0,0,0,0,0,0,0,0,0,0,0,0,0,0,0,0,0,0,0,0,0,0,0,0,0,0,0,0,0,0,0,0,0,0,0,0,0,0,0],"id":7,"left_children":[1,3,5,7,9,11,13,15,17,19,21,23,25,27,29,31,33,35,37,39,41,43,45,47,49,51,53,55,57,59,61,-1,63,-1,-1,65,67,-1,69,71,73,75,77,79,81,83,85,87,89,91,93,95,97,-1,99,101,-1,103,105,107,109,111,113,-1,-1,-1,-1,-1,-1,-1,-1,-1,-1,-1,-1,-1,-1,-1,-1,-1,-1,-1,-1,-1,-1,-1,-1,-1,-1,-1,-1,-1,-1,-1,-1,-1,-1,-1,-1,-1,-1,-1,-1,-1,-1,-1,-1,-1,-1,-1,-1,-1,-1,-1,-1],"loss_changes":[1.0989705E5,1.3071113E4,1.4004695E4,1.3929102E3,1.5516943E3,2.3495332E3,1.6142031E3,2.0933594E2,2.3070508E2,3.603037E2,2.8583008E2,2.9587036E2,3.6148926E2,4.1830664E2,3.8295703E2,1.9082617E2,1.3255078E2,1.8029199E2,2.8320312E1,7.610303E1,2.009878E2,9.352666E1,1.9549768E2,5.6225502E1,2.3441858E2,1.9843555E2,1.2156348E2,5.024414E1,7.2535645E1,2.043086E2,1.8533984E2,0E0,2.9875244E1,0E0,0E0,2.4943848E1,3.1030182E1,0E0,3.446289E0,2.6654053E1,6.3470947E1,1.2347211E2,2.2271484E1,1.4776589E1,1.3271194E1,6.90979E0,8.144107E1,2.274371E1,3.6168335E1,1.1499579E2,8.932995E1,4.529132E1,1.3436548E2,0E0,8.429443E1,1.4294556E1,0E0,4.2592285E1,5.234845E1,1.696289E1,7.961328E1,5.7114502E1,8.968555E1,0E0,0E0,0E0,0E0,0E0,0E0,0E0,0E0,0E0,0E0,0E0,0E0,0E0,0E0,0E0,0E0,0E0,0E0,0E0,0E0,0E0,0E0,0E0,0E0,0E0,0E0,0E0,0E0,0E0,0E0,0E0,0E0,0E0,0E0,0E0,0E0,0E0,0E0,0E0,0E0,0E0,0E0,0E0,0E0,0E0,0E0,0E0,0E0,0E0,0E0,0E0,0E0],"parents":[2147483647,0,0,1,1,2,2,3,3,4,4,5,5,6,6,7,7,8,8,9,9,10,10,11,11,12,12,13,13,14,14,15,15,16,16,17,17,18,18,19,19,20,20,21,21,22,22,23,23,24,24,25,25,26,26,27,27,28,28,29,29,30,30,32,32,35,35,36,36,38,38,39,39,40,40,41,41,42,42,43,43,44,44,45,45,46,46,47,47,48,48,49,49,50,50,51,51,52,52,54,54,55,55,57,57,58,58,59,59,60,60,61,61,62,62],"right_children":[2,4,6,8,10,12,14,16,18,20,22,24,26,28,30,32,34,36,38,40,42,44,46,48,50,52,54,56,58,60,62,-1,64,-1,-1,66,68,-1,70,72,74,76,78,80,82,84,86,88,90,92,94,96,98,-1,100,102,-1,104,106,108,110,112,114,-1,-1,-1,-1,-1,-1,-1,-1,-1,-1,-1,-1,-1,-1,-1,-1,-1,-1,-1,-1,-1,-1,-1,-1,-1,-1,-1,-1,-1,-1,-1,-1,-1,-1,-1,-1,-1,-1,-1,-1,-1,-1,-1,-1,-1,-1,-1,-1,-1,-1,-1,-1],"split_conditions":[2.2360126E1,1.0340895E1,3.6449055E1,5.559874E0,1.737594E1,2.8678164E1,4.0741257E1,5.994262E3,6.7690854E3,1.3699405E1,4.0294932E3,7.618952E3,3.3460953E1,5.9060654E3,8.555248E3,9.350766E3,3.1687486E0,1.2434785E4,6.7137427E0,5.9159346E3,8.0264478E3,8.212578E3,1.8998955E1,2.5632738E1,8.17165E3,6.457597E3,4.3651406E3,8.271869E3,1.2947508E4,9.471824E3,4.3006985E1,-1.0791862E0,2.5286553E0,-1.2391046E0,-1.0383604E0,7.9808613E3,3.2019998E3,-9.878709E-1,1.254889E4,3.673579E3,8.17165E3,6.75028E3,1.7169334E1,5.139035E3,1.1774392E4,4.544081E3,1.1413768E4,6.5556245E3,5.7861426E3,2.4906498E1,2.7442934E1,3.039526E1,7.3416885E3,7.664185E-1,5.0870957E3,3.050366E3,9.8138374E-1,3.993279E1,1.37067705E4,2.2283508E3,4.4507057E1,1.4441124E4,2.8118416E3,-8.752738E-1,-6.01828E-1,-8.1546944E-1,-6.186803E-1,7.400782E-2,-4.2275056E-1,-8.532859E-1,-6.907904E-1,-2.5414523E-1,-6.964952E-1,-4.2876777E-1,-5.9170353E-1,-4.2608252E-1,-1.9042186E-1,-4.7967014E-1,-2.6004788E-1,-1.7025618E-1,2.2571584E-2,1.8042712E-1,4.3973896E-1,-4.2120305E-1,-3.0997837E-1,-1.9807467E-1,-5.3248074E-2,-2.5350177E-3,-1.1127223E-1,1.5801892E-1,-3.7066273E-3,1.3341387E-1,3.9442313E-1,2.18191E-2,2.1607111E-1,1.4918463E-1,2.7650744E-1,5.083016E-1,3.300968E-1,3.4233567E-1,5.1760226E-1,3.0873734E-1,7.339594E-1,5.422644E-1,7.065823E-1,2.0009725E-1,4.7525588E-1,2.0089924E-1,9.219101E-1,9.959027E-1,1.272821E0,6.919908E-1,9.235453E-2,5.133435E-1,8.9809793E-1],"split_indices":[0,0,0,0,0,0,0,3,3,0,3,2,0,3,3,2,0,2,0,2,3,2,0,0,3,2,3,2,3,2,0,0,0,0,0,2,3,0,2,3,3,2,0,2,2,2,2,3,3,0,0,0,3,0,2,3,0,0,3,2,0,3,2,0,0,0,0,0,0,0,0,0,0,0,0,0,0,0,0,0,0,0,0,0,0,0,0,0,0,0,0,0,0,0,0,0,0,0,0,0,0,0,0,0,0,0,0,0,0,0,0,0,0,0,0],"split_type":[0,0,0,0,0,0,0,0,0,0,0,0,0,0,0,0,0,0,0,0,0,0,0,0,0,0,0,0,0,0,0,0,0,0,0,0,0,0,0,0,0,0,0,0,0,0,0,0,0,0,0,0,0,0,0,0,0,0,0,0,0,0,0,0,0,0,0,0,0,0,0,0,0,0,0,0,0,0,0,0,0,0,0,0,0,0,0,0,0,0,0,0,0,0,0,0,0,0,0,0,0,0,0,0,0,0,0,0,0,0,0,0,0,0,0],"sum_hessian":[3.223E3,1.445E3,1.778E3,6.8E2,7.65E2,9.14E2,8.64E2,3.63E2,3.17E2,4.49E2,3.16E2,3.76E2,5.38E2,2.78E2,5.86E2,9.8E1,2.65E2,1.07E2,2.1E2,2.03E2,2.46E2,2.8E1,2.88E2,1.71E2,2.05E2,3.45E2,1.93E2,6.3E1,2.15E2,2.57E2,3.29E2,5.4E1,4.4E1,1.44E2,1.21E2,8.2E1,2.5E1,5E1,1.6E2,6.5E1,1.38E2,1.01E2,1.45E2,1.6E1,1.2E1,9.2E1,1.96E2,9.5E1,7.6E1,7.3E1,1.32E2,1.31E2,2.14E2,1.8E1,1.75E2,3.3E1,3E1,1.63E2,5.2E1,1.49E2,1.08E2,8E1,2.49E2,2E1,2.4E1,4.6E1,3.6E1,1E0,2.4E1,1.26E2,3.4E1,3E0,6.2E1,6.1E1,7.7E1,3.6E1,6.5E1,1.36E2,9E0,5E0,1.1E1,7E0,5E0,1.8E1,7.4E1,1.41E2,5.5E1,2.7E1,6.8E1,1.7E1,5.9E1,3E1,4.3E1,1.02E2,3E1,5E1,8.1E1,6.9E1,1.45E2,4.7E1,1.28E2,3E0,3E1,1.27E2,3.6E1,1.1E1,4.1E1,1E0,1.48E2,5.6E1,5.2E1,7.8E1,2E0,1.1E1,2.38E2],"tree_param":{"num_deleted":"0","num_feature":"4","num_nodes":"115","size_leaf_vector":"1"}},{"base_weights":[-5.1282782E-2,-5.9090447E0,4.7666907E0,-8.956859E0,-3.477665E0,1.6018544E0,6.876966E0,-1.0314045E1,-7.7686453E0,-5.1663423E0,-2.416775E0,1.04065344E-1,2.5504441E0,5.196528E0,8.179159E0,-1.0879587E0,-8.716802E0,-8.652962E0,-7.1386304E0,-5.6378417E0,-3.7030869E0,-3.230428E0,-1.6092541E0,1.3916186E0,-3.313588E-1,2.1329057E0,3.5999453E0,7.4376407E0,4.6983275E0,7.4708056E0,9.163083E0,-5.9856877E0,-9.602028E-1,-9.620074E0,-7.5469923E0,-5.282865E0,-7.7035747E0,-3.5138454E0,-5.7981105E0,2.0677541E-1,-3.9714124E0,-2.3580828E0,-4.2179394E0,7.605556E-1,-1.872876E0,7.7723816E-2,2.6275826E0,-7.899333E-1,3.0908805E-1,1.0213996E0,2.5976722E0,2.9156778E0,4.7037883E0,6.3438997E0,9.355921E-1,4.3406067E0,5.5828896E0,7.0433254E0,8.9543897E-1,9.8691225E0,7.39684E0,-2.4686192E-1,-6.198332E-1,-3.5445657E-1,-9.743356E-1,-4.1617677E-1,-7.7977675E-1,7.030746E-2,-5.4159826E-1,-7.8784066E-1,-4.6418753E-1,-3.729879E-1,1.3737984E-2,-6.3296354E-1,-5.0797486E-1,-2.3004782E-1,1.1883217E-1,-4.674109E-1,-3.1800655E-1,-3.272812E-1,-1.3351731E-1,-2.8391588E-1,-4.4110844E-1,-3.392363E-2,2.8867444E-1,-2.2967803E-1,-1.1583098E-1,-7.423132E-2,1.1041623E-1,1.9001788E-1,3.7606677E-1,-1.9492412E-1,-5.6744028E-2,1.1279119E-2,2.2209208E-1,-1.411414E-1,1.3290134E-1,3.375748E-1,2.2489582E-1,5.0393015E-1,2.4118869E-1,5.112707E-1,2.751303E-1,1.6143115E-1,6.3987225E-1,3.34987E-1,4.6032104E-1,5.752745E-1,3.0830425E-1,7.87316E-1,6.610371E-1,8.7209606E-1,1.0706886E0,5.8507454E-1,8.496119E-1],"categories":[],"categories_nodes":[],"categories_segments":[],"categories_sizes":[],"default_left":[0,0,0,0,0,0,0,0,0,0,0,0,0,0,0,0,0,0,0,0,0,0,0,0,0,0,0,0,0,0,0,0,0,0,0,0,0,0,0,0,0,0,0,0,0,0,0,0,0,0,0,0,0,0,0,0,0,0,0,0,0,0,0,0,0,0,0,0,0,0,0,0,0,0,0,0,0,0,0,0,0,0,0,0,0,0,0,0,0,0,0,0,0,0,0,0,0,0,0,0,0,0,0,0,0,0,0,0,0,0,0,0,0,0,0],"id":8,"left_children":[1,3,5,7,9,11,13,15,17,19,21,23,25,27,29,-1,31,33,35,37,39,41,43,45,47,49,51,53,55,57,59,61,-1,63,65,67,69,71,73,75,77,79,81,83,85,87,89,91,93,95,97,99,101,103,-1,105,107,109,-1,111,113,-1,-1,-1,-1,-1,-1,-1,-1,-1,-1,-1,-1,-1,-1,-1,-1,-1,-1,-1,-1,-1,-1,-1,-1,-1,-1,-1,-1,-1,-1,-1,-1,-1,-1,-1,-1,-1,-1,-1,-1,-1,-1,-1,-1,-1,-1,-1,-1,-1,-1,-1,-1,-1,-1],"loss_changes":[9.098952E4,1.0749734E4,1.1802715E4,9.5820703E2,1.4396631E3,1.0068075E3,2.2778984E3,1.7239453E2,1.305332E2,1.9344434E2,3.2283838E2,1.5530151E2,1.8193042E2,4.841416E2,3.4527344E2,0E0,1.4163184E2,7.542383E1,1.7712012E2,5.8351562E1,8.407788E1,2.0303589E2,1.5959332E2,1.1320012E2,6.1086617E1,1.5867773E2,7.767273E1,1.1321924E2,9.628223E1,1.5857031E2,2.3079688E2,1.0332642E0,0E0,1.7314453E1,2.5776611E1,4.57146E1,4.6751953E1,1.5858612E1,4.9180664E1,1.7388407E1,2.5500244E1,1.2055127E2,1.737622E1,6.203154E1,6.605713E1,3.0315935E1,2.1959534E1,2.9852745E1,3.2166084E1,7.221402E1,5.1537354E1,7.0549866E1,2.1075317E1,3.3894043E0,0E0,5.6112793E1,2.6814209E1,4.6387695E1,0E0,7.012695E1,7.462573E1,0E0,0E0,0E0,0E0,0E0,0E0,0E0,0E0,0E0,0E0,0E0,0E0,0E0,0E0,0E0,0E0,0E0,0E0,0E0,0E0,0E0,0E0,0E0,0E0,0E0,0E0,0E0,0E0,0E0,0E0,0E0,0E0,0E0,0E0,0E0,0E0,0E0,0E0,0E0,0E0,0E0,0E0,0E0,0E0,0E0,0E0,0E0,0E0,0E0,0E0,0E0,0E0,0E0,0E0],"parents":[2147483647,0,0,1,1,2,2,3,3,4,4,5,5,6,6,7,7,8,8,9,9,10,10,11,11,12,12,13,13,14,14,16,16,17,17,18,18,19,19,20,20,21,21,22,22,23,23,24,24,25,25,26,26,27,27,28,28,29,29,30,30,31,31,33,33,34,34,35,35,36,36,37,37,38,38,39,39,40,40,41,41,42,42,43,43,44,44,45,45,46,46,47,47,48,48,49,49,50,50,51,51,52,52,53,53,55,55,56,56,57,57,59,59,60,60],"right_children":[2,4,6,8,10,12,14,16,18,20,22,24,26,28,30,-1,32,34,36,38,40,42,44,46,48,50,52,54,56,58,60,62,-1,64,66,68,70,72,74,76,78,80,82,84,86,88,90,92,94,96,98,100,102,104,-1,106,108,110,-1,112,114,-1,-1,-1,-1,-1,-1,-1,-1,-1,-1,-1,-1,-1,-1,-1,-1,-1,-1,-1,-1,-1,-1,-1,-1,-1,-1,-1,-1,-1,-1,-1,-1,-1,-1,-1,-1,-1,-1,-1,-1,-1,-1,-1,-1,-1,-1,-1,-1,-1,-1,-1,-1,-1,-1],"split_conditions":[2.2101671E1,9.530492E0,3.3460953E1,4.1777167E0,1.4462238E1,2.7088049E1,4.0741257E1,1.18944375E4,7.691394E3,1.185319E4,1.8070189E1,6.249986E3,1.1303311E4,5.183297E3,9.471824E3,-1.0879587E0,5.9060654E3,6.9185796E0,5.569395E3,3.747007E3,3.953901E3,9.489745E3,4.3651406E3,7.2077397E3,8.739298E3,2.916959E1,3.102369E1,9.406202E3,3.852037E1,4.807083E1,1.1399513E4,1.2257063E4,-9.602028E-1,3.0974258E3,3.5705713E3,3.2019998E3,9.222953E0,1.1235039E4,1.2169834E1,9.799143E0,1.2007281E1,9.537825E3,1.5043916E1,1.0952181E4,9.86593E3,2.4444891E1,2.5284838E1,2.3266848E1,2.6974566E1,2.4843005E3,7.056509E3,4.6441323E3,3.31217E1,2.1140718E3,9.355921E-1,5.0870957E3,1.4650169E4,7.261137E3,8.9543897E-1,4.4507057E1,4.5323605E1,-2.4686192E-1,-6.198332E-1,-3.5445657E-1,-9.743356E-1,-4.1617677E-1,-7.7977675E-1,7.030746E-2,-5.4159826E-1,-7.8784066E-1,-4.6418753E-1,-3.729879E-1,1.3737984E-2,-6.3296354E-1,-5.0797486E-1,-2.3004782E-1,1.1883217E-1,-4.674109E-1,-3.1800655E-1,-3.272812E-1,-1.3351731E-1,-2.8391588E-1,-4.4110844E-1,-3.392363E-2,2.8867444E-1,-2.2967803E-1,-1.1583098E-1,-7.423132E-2,1.1041623E-1,1.9001788E-1,3.7606677E-1,-1.9492412E-1,-5.6744028E-2,1.1279119E-2,2.2209208E-1,-1.411414E-1,1.3290134E-1,3.375748E-1,2.2489582E-1,5.0393015E-1,2.4118869E-1,5.112707E-1,2.751303E-1,1.6143115E-1,6.3987225E-1,3.34987E-1,4.6032104E-1,5.752745E-1,3.0830425E-1,7.87316E-1,6.610371E-1,8.7209606E-1,1.0706886E0,5.8507454E-1,8.496119E-1],"split_indices":[0,0,0,0,0,0,0,2,2,2,0,3,2,3,2,0,3,0,3,3,3,3,3,2,2,0,0,2,0,0,3,2,0,3,3,3,0,2,0,0,0,2,0,2,2,0,0,0,0,2,3,3,0,2,0,2,3,3,0,0,0,0,0,0,0,0,0,0,0,0,0,0,0,0,0,0,0,0,0,0,0,0,0,0,0,0,0,0,0,0,0,0,0,0,0,0,0,0,0,0,0,0,0,0,0,0,0,0,0,0,0,0,0,0,0],"split_type":[0,0,0,0,0,0,0,0,0,0,0,0,0,0,0,0,0,0,0,0,0,0,0,0,0,0,0,0,0,0,0,0,0,0,0,0,0,0,0,0,0,0,0,0,0,0,0,0,0,0,0,0,0,0,0,0,0,0,0,0,0,0,0,0,0,0,0,0,0,0,0,0,0,0,0,0,0,0,0,0,0,0,0,0,0,0,0,0,0,0,0,0,0,0,0,0,0,0,0,0,0,0,0,0,0,0,0,0,0,0,0,0,0,0,0],"sum_hessian":[3.222E3,1.454E3,1.768E3,6.44E2,8.1E2,7.08E2,1.06E3,2.97E2,3.47E2,3.11E2,4.99E2,2.75E2,4.33E2,4.65E2,5.95E2,2.15E2,8.2E1,1.39E2,2.08E2,2.33E2,7.8E1,2.47E2,2.52E2,6.9E1,2.06E2,3.12E2,1.21E2,8.2E1,3.83E2,3.51E2,2.44E2,2.2E1,6E1,7E1,6.9E1,5.1E1,1.57E2,1.8E1,2.15E2,5E0,7.3E1,1.33E2,1.14E2,2.5E1,2.27E2,3.4E1,3.5E1,1.2E2,8.6E1,9.3E1,2.19E2,7.7E1,4.4E1,5.5E1,2.7E1,2.77E2,1.06E2,2.77E2,7.4E1,1.71E2,7.3E1,2E0,2E1,2E0,6.8E1,6E0,6.3E1,1E0,5E1,1.47E2,1E1,1.7E1,1E0,1.19E2,9.6E1,1E0,4E0,3.6E1,3.7E1,6.9E1,6.4E1,1.6E1,9.8E1,1.7E1,8E0,1.41E2,8.6E1,1.9E1,1.5E1,2.3E1,1.2E1,1.8E1,1.02E2,7.9E1,7E0,1E1,8.3E1,6.5E1,1.54E2,1.3E1,6.4E1,3.5E1,9E0,1E0,5.4E1,6.1E1,2.16E2,9.8E1,8E0,8.9E1,1.88E2,7.7E1,9.4E1,3.3E1,4E1],"tree_param":{"num_deleted":"0","num_feature":"4","num_nodes":"115","size_leaf_vector":"1"}},{"base_weights":[1.9735299E-2,-4.9799776E0,4.5758767E0,-7.4521294E0,-2.294289E0,2.7265317E0,6.9950643E0,-8.876805E0,-6.0227966E0,-3.3386228E0,-1.1506165E0,1.3965534E0,3.985016E0,5.71623E0,7.533066E0,-9.88808E0,-8.164746E0,-4.6864824E0,-6.542351E0,-2.3576305E0,-4.022655E0,1.2789406E-1,-1.459718E0,3.924401E-1,1.952736E0,6.1102304E0,3.7105436E0,4.768878E0,6.6360435E0,9.277615E0,7.089962E0,-6.2596804E-1,-1.0039197E1,-5.818154E0,-8.425851E0,-5.6260715E0,-4.04581E0,-7.04712E-1,-5.8620687E0,-2.850941E0,-3.0758798E-1,-4.394644E0,-2.98419E0,-8.3374566E-1,2.0917711E0,-1.8372201E0,-4.2952144E-1,1.8403666E0,-2.1911595E-2,7.647006E-1,2.4986012E0,4.813382E0,7.3178595E-1,2.835376E0,4.1782765E0,5.7245283E0,4.2712593E0,1.0186958E0,6.2491007E0,6.961879E0,1.0005659E1,6.9356585E0,9.591171E-1,-1.0635475E0,-8.8465977E-1,-6.4069694E-1,-2.6728046E-1,-9.3745536E-1,-8.021968E-1,-1.1184714E-1,-5.702563E-1,-4.9323317E-1,-3.0195013E-1,-6.2376624E-1,-4.5489737E-1,-4.1905212E-1,-2.516647E-1,1.9043605E-1,-1.4041264E-1,-5.424753E-1,-3.7007287E-1,9.816896E-2,-3.066937E-1,-1.8604107E-1,6.3191946E-3,3.684487E-1,7.975619E-2,-2.12809E-1,-1.3209824E-1,-1.3962813E-1,6.506589E-2,8.808382E-2,3.0384454E-1,-6.1368752E-2,4.6193134E-2,-8.627333E-2,1.0578711E-1,4.8005E-1,2.1917379E-1,6.466655E-1,3.9888567E-1,2.2404186E-1,4.2695785E-1,4.434093E-1,3.2440516E-1,2.772044E-1,6.120874E-1,1.3910347E-1,4.408655E-1,6.3092965E-1,9.484406E-3,7.1728295E-1,2.849996E-1,8.2500666E-1,1.097298E0,6.626117E-1,7.8551E-1],"categories":[],"categories_nodes":[],"categories_segments":[],"categories_sizes":[],"default_left":[0,0,0,0,0,0,0,0,0,0,0,0,0,0,0,0,0,0,0,0,0,0,0,0,0,0,0,0,0,0,0,0,0,0,0,0,0,0,0,0,0,0,0,0,0,0,0,0,0,0,0,0,0,0,0,0,0,0,0,0,0,0,0,0,0,0,0,0,0,0,0,0,0,0,0,0,0,0,0,0,0,0,0,0,0,0,0,0,0,0,0,0,0,0,0,0,0,0,0,0,0,0,0,0,0,0,0,0,0,0,0,0,0,0,0,0,0],"id":9,"left_children":[1,3,5,7,9,11,13,15,17,19,21,23,25,27,29,31,33,35,37,39,41,43,45,47,49,51,53,55,57,59,61,-1,63,65,67,69,71,-1,73,75,77,79,81,83,85,87,89,91,93,95,97,99,-1,101,103,105,107,-1,109,111,113,115,-1,-1,-1,-1,-1,-1,-1,-1,-1,-1,-1,-1,-1,-1,-1,-1,-1,-1,-1,-1,-1,-1,-1,-1,-1,-1,-1,-1,-1,-1,-1,-1,-1,-1,-1,-1,-1,-1,-1,-1,-1,-1,-1,-1,-1,-1,-1,-1,-1,-1,-1,-1,-1,-1,-1],"loss_changes":[7.262068E4,1.0073863E4,7.4424414E3,1.5557852E3,8.67604E2,1.5789448E3,4.5236328E2,2.0117578E2,2.4454297E2,2.4554053E2,1.3863617E2,2.570125E2,2.5983545E2,1.571748E2,3.2295898E2,2.216211E1,9.476465E1,4.5496826E1,5.4918945E1,1.5960516E2,7.229248E1,1.321792E2,1.0865436E2,9.981401E1,1.9036963E2,4.8133423E1,1.6469775E2,2.733545E1,8.3089355E1,9.555469E1,8.890625E1,0E0,1.0631836E1,3.1972229E1,3.9052734E0,8.110718E0,4.9820557E1,0E0,3.318164E1,4.6103394E1,8.0239494E1,9.481055E1,2.356549E1,4.357744E1,4.4023254E1,2.777649E1,8.1392235E1,3.9466545E1,3.752111E1,4.6258144E1,1.3217212E2,1.2691711E1,0E0,1.2118994E2,5.1765625E1,2.3100586E1,2.3758667E1,0E0,3.5807373E1,1.9750977E0,3.1519531E1,5.6646484E1,0E0,0E0,0E0,0E0,0E0,0E0,0E0,0E0,0E0,0E0,0E0,0E0,0E0,0E0,0E0,0E0,0E0,0E0,0E0,0E0,0E0,0E0,0E0,0E0,0E0,0E0,0E0,0E0,0E0,0E0,0E0,0E0,0E0,0E0,0E0,0E0,0E0,0E0,0E0,0E0,0E0,0E0,0E0,0E0,0E0,0E0,0E0,0E0,0E0,0E0,0E0,0E0,0E0,0E0,0E0],"parents":[2147483647,0,0,1,1,2,2,3,3,4,4,5,5,6,6,7,7,8,8,9,9,10,10,11,11,12,12,13,13,14,14,15,15,16,16,17,17,18,18,19,19,20,20,21,21,22,22,23,23,24,24,25,25,26,26,27,27,28,28,29,29,30,30,32,32,33,33,34,34,35,35,36,36,38,38,39,39,40,40,41,41,42,42,43,43,44,44,45,45,46,46,47,47,48,48,49,49,50,50,51,51,53,53,54,54,55,55,56,56,58,58,59,59,60,60,61,61],"right_children":[2,4,6,8,10,12,14,16,18,20,22,24,26,28,30,32,34,36,38,40,42,44,46,48,50,52,54,56,58,60,62,-1,64,66,68,70,72,-1,74,76,78,80,82,84,86,88,90,92,94,96,98,100,-1,102,104,106,108,-1,110,112,114,116,-1,-1,-1,-1,-1,-1,-1,-1,-1,-1,-1,-1,-1,-1,-1,-1,-1,-1,-1,-1,-1,-1,-1,-1,-1,-1,-1,-1,-1,-1,-1,-1,-1,-1,-1,-1,-1,-1,-1,-1,-1,-1,-1,-1,-1,-1,-1,-1,-1,-1,-1,-1,-1,-1,-1],"split_conditions":[2.4063898E1,1.2169834E1,3.8275646E1,5.940896E0,1.8070189E1,3.1192966E1,4.170723E1,2.5286553E0,6.208051E3,8.0264478E3,5.5018345E3,2.672796E1,4.567488E3,8.375974E3,5.7861426E3,3.673579E3,4.186454E3,7.788832E3,9.222953E0,1.2308917E4,1.6702497E1,1.1543619E4,2.2101671E1,5.7861426E3,5.5889766E3,9.216074E3,6.649327E3,6.473636E3,3.9192434E3,4.7815024E3,1.4278343E4,-6.2596804E-1,1.01736875E4,1.3718199E4,5.7564517E3,3.050366E3,9.222953E0,-7.04712E-1,1.185319E4,1.3850626E1,4.0294932E3,7.4774175E3,2.6428167E3,6.558441E3,4.2289575E3,9.86593E3,7.343553E3,7.737681E3,7.575107E3,2.4843005E3,4.3651406E3,3.6564702E3,7.3178595E-1,3.6449055E1,1.2024532E4,3.3674902E3,3.852037E1,1.0186958E0,1.4949909E4,4.655442E3,4.469463E1,4.807083E1,9.591171E-1,-1.0635475E0,-8.8465977E-1,-6.4069694E-1,-2.6728046E-1,-9.3745536E-1,-8.021968E-1,-1.1184714E-1,-5.702563E-1,-4.9323317E-1,-3.0195013E-1,-6.2376624E-1,-4.5489737E-1,-4.1905212E-1,-2.516647E-1,1.9043605E-1,-1.4041264E-1,-5.424753E-1,-3.7007287E-1,9.816896E-2,-3.066937E-1,-1.8604107E-1,6.3191946E-3,3.684487E-1,7.975619E-2,-2.12809E-1,-1.3209824E-1,-1.3962813E-1,6.506589E-2,8.808382E-2,3.0384454E-1,-6.1368752E-2,4.6193134E-2,-8.627333E-2,1.0578711E-1,4.8005E-1,2.1917379E-1,6.466655E-1,3.9888567E-1,2.2404186E-1,4.2695785E-1,4.434093E-1,3.2440516E-1,2.772044E-1,6.120874E-1,1.3910347E-1,4.408655E-1,6.3092965E-1,9.484406E-3,7.1728295E-1,2.849996E-1,8.2500666E-1,1.097298E0,6.626117E-1,7.8551E-1],"split_indices":[0,0,0,0,0,0,0,0,3,3,3,0,3,2,3,3,3,2,0,2,0,2,0,3,2,2,2,3,3,2,2,0,2,2,2,3,0,0,2,0,3,2,2,2,3,2,2,2,2,2,3,2,0,0,3,3,0,0,2,2,0,0,0,0,0,0,0,0,0,0,0,0,0,0,0,0,0,0,0,0,0,0,0,0,0,0,0,0,0,0,0,0,0,0,0,0,0,0,0,0,0,0,0,0,0,0,0,0,0,0,0,0,0,0,0,0,0],"split_type":[0,0,0,0,0,0,0,0,0,0,0,0,0,0,0,0,0,0,0,0,0,0,0,0,0,0,0,0,0,0,0,0,0,0,0,0,0,0,0,0,0,0,0,0,0,0,0,0,0,0,0,0,0,0,0,0,0,0,0,0,0,0,0,0,0,0,0,0,0,0,0,0,0,0,0,0,0,0,0,0,0,0,0,0,0,0,0,0,0,0,0,0,0,0,0,0,0,0,0,0,0,0,0,0,0,0,0,0,0,0,0,0,0,0,0,0,0],"sum_hessian":[3.186E3,1.519E3,1.667E3,7.9E2,7.29E2,9.46E2,7.21E2,3.93E2,3.97E2,3.8E2,3.49E2,4.61E2,4.85E2,2.17E2,5.04E2,1.57E2,2.36E2,1.14E2,2.83E2,1.58E2,2.22E2,6.8E1,2.81E2,1.65E2,2.96E2,5.3E1,4.32E2,1.1E2,1.07E2,9.8E1,4.06E2,8E0,1.49E2,2.6E1,2.1E2,4.3E1,7.1E1,1.57E2,1.26E2,1.27E2,3.1E1,1.61E2,6.1E1,4.6E1,2.2E1,2.05E2,7.6E1,3.6E1,1.29E2,9.4E1,2.02E2,2.8E1,2.5E1,1.53E2,2.79E2,3.4E1,7.6E1,8E0,9.9E1,2.6E1,7.2E1,3.86E2,2E1,9.4E1,5.5E1,2.1E1,5E0,5.6E1,1.54E2,1E0,4.2E1,3.6E1,3.5E1,9.5E1,3.1E1,2.3E1,1.04E2,1E1,2.1E1,6.2E1,9.9E1,1E0,6E1,2.1E1,2.5E1,9E0,1.3E1,1.29E2,7.6E1,4E1,3.6E1,2.1E1,1.5E1,5.8E1,7.1E1,1.4E1,8E1,2.2E1,1.8E2,7E0,2.1E1,1.1E2,4.3E1,2.16E2,6.3E1,5E0,2.9E1,4E0,7.2E1,9.8E1,1E0,2.4E1,2E0,2.9E1,4.3E1,2.95E2,9.1E1],"tree_param":{"num_deleted":"0","num_feature":"4","num_nodes":"117","size_leaf_vector":"1"}},{"base_weights":[1.6278202E-2,-4.3116975E0,4.2739763E0,-7.005477E0,-2.0612226E0,1.9429772E0,7.021391E0,-9.287597E0,-5.5269895E0,-4.108828E0,-1.8104289E-2,1.3275498E-1,3.5441244E0,5.1048E0,8.976549E0,-1.0049585E1,-7.7453938E0,-7.0155144E0,-4.588943E0,-4.972295E0,-2.6965392E0,-1.5277398E0,1.2589296E0,-7.489657E-1,1.7551385E0,1.7908804E0,4.6140428E0,3.8838973E0,6.118614E0,6.6178102E0,9.732316E0,-1.1064787E0,-9.312912E-1,-5.515734E-1,-8.182332E-1,-7.6019506E0,-5.2011147E0,-5.610388E0,-3.385806E0,-6.3509808E0,-4.097631E0,-3.5391183E0,-1.6112173E0,-2.2440007E0,-5.9702735E-2,3.8249034E-1,2.7895997E0,4.8910043E-1,-1.2317196E0,7.702044E-1,2.8431501E0,1.0981469E0,2.955423E0,3.877601E0,5.801978E0,2.9334302E0,5.0727224E0,5.400162E0,7.339428E0,5.9525704E-1,7.8984374E-1,8.91692E0,1.0868945E0,-5.866823E-1,-8.045875E-1,-5.433972E-1,-2.8040227E-1,-6.1713743E-1,-4.7350717E-1,-2.3148012E-1,-3.8504657E-1,-7.0928925E-1,-5.08982E-1,-4.9546462E-1,-3.5187426E-1,8.931181E-2,-3.5987374E-1,-6.984063E-2,-2.2876826E-1,-2.8136107E-1,-1.2080649E-1,5.0332334E-2,-7.988506E-2,-7.903421E-2,1.0138947E-1,3.1746826E-1,1.674403E-1,-2.2305174E-2,1.6298608E-1,-2.414289E-1,-7.829673E-2,1.6929924E-1,3.1850807E-2,1.6462882E-1,3.177833E-1,5.806945E-2,2.217094E-1,1.6410089E-1,3.543189E-1,3.2442468E-1,5.1745296E-1,4.963811E-1,6.9785756E-1,1.7086445E-1,3.2242903E-1,3.720984E-1,5.672173E-1,4.8795435E-1,6.460082E-1,6.537568E-1,8.430025E-1,8.1678087E-1,1.0251198E0],"categories":[],"categories_nodes":[],"categories_segments":[],"categories_sizes":[],"default_left":[0,0,0,0,0,0,0,0,0,0,0,0,0,0,0,0,0,0,0,0,0,0,0,0,0,0,0,0,0,0,0,0,0,0,0,0,0,0,0,0,0,0,0,0,0,0,0,0,0,0,0,0,0,0,0,0,0,0,0,0,0,0,0,0,0,0,0,0,0,0,0,0,0,0,0,0,0,0,0,0,0,0,0,0,0,0,0,0,0,0,0,0,0,0,0,0,0,0,0,0,0,0,0,0,0,0,0,0,0,0,0,0,0],"id":10,"left_children":[1,3,5,7,9,11,13,15,17,19,21,23,25,27,29,31,33,35,37,39,41,43,45,47,49,51,53,55,57,59,61,-1,-1,-1,-1,63,65,67,69,71,73,75,77,79,81,83,85,87,89,91,93,95,97,99,101,103,105,107,109,-1,-1,111,-1,-1,-1,-1,-1,-1,-1,-1,-1,-1,-1,-1,-1,-1,-1,-1,-1,-1,-1,-1,-1,-1,-1,-1,-1,-1,-1,-1,-1,-1,-1,-1,-1,-1,-1,-1,-1,-1,-1,-1,-1,-1,-1,-1,-1,-1,-1,-1,-1,-1,-1],"loss_changes":[5.8487973E4,9.526686E3,1.0232211E4,2.3630312E3,3.5931392E3,2.5121025E3,2.7032422E3,2.4942188E2,5.7683105E2,5.089756E2,8.3285596E2,5.8505475E2,8.5397705E2,4.3692285E2,5.792832E2,3.252539E1,4.7998047E1,1.36875E2,3.1314697E2,2.924912E2,1.4467029E2,2.0783221E2,3.12536E2,1.5906221E2,1.5176208E2,1.3833142E2,2.2586523E2,1.7866821E2,1.3626514E2,2.9124023E1,1.5319531E2,0E0,0E0,0E0,0E0,4.691797E1,8.499268E0,4.0888184E1,5.3672363E1,5.718286E1,6.357788E1,2.779541E1,4.3797546E1,7.467926E1,2.7898159E1,1.11903404E2,3.0701965E1,6.1433846E1,9.9150024E1,3.1354763E1,2.1524658E1,6.3280975E1,4.3884094E1,1.2940405E2,6.968701E1,2.890918E1,3.8727173E1,3.9631348E1,6.355713E0,0E0,0E0,7.834863E1,0E0,0E0,0E0,0E0,0E0,0E0,0E0,0E0,0E0,0E0,0E0,0E0,0E0,0E0,0E0,0E0,0E0,0E0,0E0,0E0,0E0,0E0,0E0,0E0,0E0,0E0,0E0,0E0,0E0,0E0,0E0,0E0,0E0,0E0,0E0,0E0,0E0,0E0,0E0,0E0,0E0,0E0,0E0,0E0,0E0,0E0,0E0,0E0,0E0,0E0,0E0],"parents":[2147483647,0,0,1,1,2,2,3,3,4,4,5,5,6,6,7,7,8,8,9,9,10,10,11,11,12,12,13,13,14,14,15,15,16,16,17,17,18,18,19,19,20,20,21,21,22,22,23,23,24,24,25,25,26,26,27,27,28,28,29,29,30,30,35,35,36,36,37,37,38,38,39,39,40,40,41,41,42,42,43,43,44,44,45,45,46,46,47,47,48,48,49,49,50,50,51,51,52,52,53,53,54,54,55,55,56,56,57,57,58,58,61,61],"right_children":[2,4,6,8,10,12,14,16,18,20,22,24,26,28,30,32,34,36,38,40,42,44,46,48,50,52,54,56,58,60,62,-1,-1,-1,-1,64,66,68,70,72,74,76,78,80,82,84,86,88,90,92,94,96,98,100,102,104,106,108,110,-1,-1,112,-1,-1,-1,-1,-1,-1,-1,-1,-1,-1,-1,-1,-1,-1,-1,-1,-1,-1,-1,-1,-1,-1,-1,-1,-1,-1,-1,-1,-1,-1,-1,-1,-1,-1,-1,-1,-1,-1,-1,-1,-1,-1,-1,-1,-1,-1,-1,-1,-1,-1,-1],"split_conditions":[2.5121365E1,1.1032553E1,1.0285842E3,8.8198004E2,9.915142E2,3.6579475E1,3.748259E1,6.7137427E0,4.1777167E0,1.9756887E1,1.7053318E1,8.422255E2,6.995716E2,1.2295214E3,1.1235054E3,2.6674E0,5.0715273E3,1.314625E3,1.1872344E3,7.069863E2,7.573655E2,1.3276102E3,1.341622E3,6.354852E3,3.1565378E1,4.503509E1,9.091826E2,3.1670187E1,3.332315E1,4.5530285E1,4.469463E1,-1.1064787E0,-9.312912E-1,-5.515734E-1,-8.182332E-1,5.9060654E3,3.36753E0,8.150956E0,6.685448E3,1.6702497E1,1.4679592E1,3.050366E3,8.850027E3,1.5043916E1,8.1365737E3,1.9756887E1,1.1399513E4,3.2048275E1,5.9761005E2,7.6064995E3,9.0252637E2,6.3574585E2,5.5709906E2,4.635619E1,4.4304672E1,1.0817216E3,1.0962585E3,1.4243544E3,1.3902207E3,5.9525704E-1,7.8984374E-1,1.3690991E3,1.0868945E0,-5.866823E-1,-8.045875E-1,-5.433972E-1,-2.8040227E-1,-6.1713743E-1,-4.7350717E-1,-2.3148012E-1,-3.8504657E-1,-7.0928925E-1,-5.08982E-1,-4.9546462E-1,-3.5187426E-1,8.931181E-2,-3.5987374E-1,-6.984063E-2,-2.2876826E-1,-2.8136107E-1,-1.2080649E-1,5.0332334E-2,-7.988506E-2,-7.903421E-2,1.0138947E-1,3.1746826E-1,1.674403E-1,-2.2305174E-2,1.6298608E-1,-2.414289E-1,-7.829673E-2,1.6929924E-1,3.1850807E-2,1.6462882E-1,3.177833E-1,5.806945E-2,2.217094E-1,1.6410089E-1,3.543189E-1,3.2442468E-1,5.1745296E-1,4.963811E-1,6.9785756E-1,1.7086445E-1,3.2242903E-1,3.720984E-1,5.672173E-1,4.8795435E-1,6.460082E-1,6.537568E-1,8.430025E-1,8.1678087E-1,1.0251198E0],"split_indices":[0,0,1,1,1,0,0,0,0,0,0,1,1,1,1,0,3,1,1,1,1,1,1,3,0,0,1,0,0,0,0,0,0,0,0,3,0,0,3,0,0,3,3,0,3,0,3,0,1,3,1,1,1,0,0,1,1,1,1,0,0,1,0,0,0,0,0,0,0,0,0,0,0,0,0,0,0,0,0,0,0,0,0,0,0,0,0,0,0,0,0,0,0,0,0,0,0,0,0,0,0,0,0,0,0,0,0,0,0,0,0,0,0],"split_type":[0,0,0,0,0,0,0,0,0,0,0,0,0,0,0,0,0,0,0,0,0,0,0,0,0,0,0,0,0,0,0,0,0,0,0,0,0,0,0,0,0,0,0,0,0,0,0,0,0,0,0,0,0,0,0,0,0,0,0,0,0,0,0,0,0,0,0,0,0,0,0,0,0,0,0,0,0,0,0,0,0,0,0,0,0,0,0,0,0,0,0,0,0,0,0,0,0,0,0,0,0,0,0,0,0,0,0,0,0,0,0,0,0],"sum_hessian":[3.172E3,1.573E3,1.599E3,7.15E2,8.58E2,8.66E2,7.33E2,2.79E2,4.36E2,4.28E2,4.3E2,4.07E2,4.59E2,3.72E2,3.61E2,1.83E2,9.6E1,1.66E2,2.7E2,2.64E2,1.64E2,1.97E2,2.33E2,2.64E2,1.43E2,1.75E2,2.84E2,1.71E2,2.01E2,9E1,2.71E2,7.1E1,1.12E2,1.8E1,7.8E1,1.23E2,4.3E1,1.44E2,1.26E2,1E2,1.64E2,9.1E1,7.3E1,1.32E2,6.5E1,1.49E2,8.4E1,7.4E1,1.9E2,7.6E1,6.7E1,1.11E2,6.4E1,1.78E2,1.06E2,9.7E1,7.4E1,1.3E2,7.1E1,6.3E1,2.7E1,1.63E2,1.08E2,2.8E1,9.5E1,3.8E1,5E0,8.4E1,6E1,4E1,8.6E1,6E1,4E1,6.3E1,1.01E2,1E0,9E1,3.2E1,4.1E1,8.4E1,4.8E1,3.7E1,2.8E1,5.2E1,9.7E1,6.1E1,2.3E1,4.6E1,2.8E1,5.1E1,1.39E2,2.4E1,5.2E1,1.6E1,5.1E1,7.7E1,3.4E1,2.1E1,4.3E1,1.22E2,5.6E1,6.5E1,4.1E1,2E1,7.7E1,2.5E1,4.9E1,9.1E1,3.9E1,4.5E1,2.6E1,1.09E2,5.4E1],"tree_param":{"num_deleted":"0","num_feature":"4","num_nodes":"113","size_leaf_vector":"1"}},{"base_weights":[4.7231326E-3,-4.2949824E0,3.4984415E0,-6.3149915E0,-2.2488682E0,1.2912723E0,5.8414373E0,-7.9995594E0,-4.713249E0,-4.467744E0,-6.328664E-1,-8.321718E-1,2.6320608E0,3.8045807E0,7.780352E0,-9.614927E0,-7.318289E0,-6.0249233E0,-3.8788779E0,-6.133839E0,-4.0409083E0,-1.5150963E0,5.5816406E-1,-1.9732046E0,-8.31778E-2,8.449625E-1,3.3727546E0,2.644297E0,4.8410735E0,6.8502154E0,9.320148E0,-1.027024E0,-8.2188475E-1,-8.154904E-1,-6.574085E0,-6.65279E0,-4.843169E0,-4.788458E0,-2.9970102E0,-6.497564E-1,-4.159456E0,-4.933581E0,-3.3027096E0,-2.8695993E0,-8.319464E-1,-1.7850415E-1,2.1417122E0,-3.226634E0,-1.5193905E0,-3.376711E-1,1.3637272E0,-1.6025567E-2,1.9198383E0,2.7682889E0,4.803787E0,1.6703229E0,3.9841845E0,3.9929852E0,5.8850513E0,6.1932592E0,8.294099E0,6.855997E-1,9.808819E0,-6.9374686E-1,-4.569927E-1,-7.1707433E-1,-5.246225E-1,-5.0041854E-1,-1.5946807E-1,-5.6209284E-1,-4.111311E-1,-3.6261865E-1,-2.3376918E-1,-4.871328E-1,-1.49288E-1,-5.061378E-1,-3.5247765E-2,-3.663492E-1,-2.2060171E-1,-3.7156573E-1,-2.273734E-1,-1.0841586E-1,6.277534E-2,-9.701989E-2,2.231994E-2,1.3798808E-1,2.5565287E-1,-3.491289E-1,-2.1794024E-1,-1.893982E-1,-5.289321E-2,-8.433873E-2,2.2309242E-2,3.844235E-2,1.7258711E-1,-9.101039E-2,5.2205663E-2,1.4808118E-1,2.8055128E-1,2.127317E-1,3.9228562E-1,3.8878897E-1,5.836743E-1,4.7370635E-2,2.1140645E-1,3.603213E-1,5.4643744E-1,3.2845283E-1,4.4259357E-1,5.031423E-1,6.4280933E-1,4.9733067E-1,6.6188604E-1,6.850522E-1,8.8659924E-1,8.9154214E-1,1.070088E0],"categories":[],"categories_nodes":[],"categories_segments":[],"categories_sizes":[],"default_left":[0,0,0,0,0,0,0,0,0,0,0,0,0,0,0,0,0,0,0,0,0,0,0,0,0,0,0,0,0,0,0,0,0,0,0,0,0,0,0,0,0,0,0,0,0,0,0,0,0,0,0,0,0,0,0,0,0,0,0,0,0,0,0,0,0,0,0,0,0,0,0,0,0,0,0,0,0,0,0,0,0,0,0,0,0,0,0,0,0,0,0,0,0,0,0,0,0,0,0,0,0,0,0,0,0,0,0,0,0,0,0,0,0,0,0,0,0],"id":11,"left_children":[1,3,5,7,9,11,13,15,17,19,21,23,25,27,29,31,33,35,37,39,41,43,45,47,49,51,53,55,57,59,61,-1,-1,-1,63,65,67,69,71,-1,73,75,77,79,81,83,85,87,89,91,93,95,97,99,101,103,105,107,109,111,113,-1,115,-1,-1,-1,-1,-1,-1,-1,-1,-1,-1,-1,-1,-1,-1,-1,-1,-1,-1,-1,-1,-1,-1,-1,-1,-1,-1,-1,-1,-1,-1,-1,-1,-1,-1,-1,-1,-1,-1,-1,-1,-1,-1,-1,-1,-1,-1,-1,-1,-1,-1,-1,-1,-1,-1],"loss_changes":[4.778478E4,5.878838E3,9.067529E3,1.895668E3,2.5425146E3,2.5789863E3,3.330088E3,3.1091602E2,3.8057617E2,1.8682959E2,4.3385556E2,2.996042E2,7.313782E2,4.879453E2,5.575547E2,5.2285156E0,9.994629E1,7.19917E1,1.6855835E2,1.4277832E1,1.4169385E2,2.1654541E2,2.0589131E2,7.368939E1,7.8790375E1,1.5199582E2,3.2502832E2,2.524779E2,1.694126E2,2.0804004E2,1.249541E2,0E0,0E0,0E0,6.691943E1,2.670752E1,1.9082031E1,3.8488525E1,4.0291138E1,0E0,1.4870392E1,6.0317627E1,4.4746338E1,3.0779419E1,5.926272E1,3.877247E1,1.3775787E1,1.8016052E0,3.734169E1,5.1863052E1,1.047427E1,4.4773994E1,2.380185E1,1.9678247E2,8.513428E1,6.0865417E1,2.6208496E1,2.2726074E1,1.1012939E1,6.613086E1,6.2143555E0,0E0,7.8339844E0,0E0,0E0,0E0,0E0,0E0,0E0,0E0,0E0,0E0,0E0,0E0,0E0,0E0,0E0,0E0,0E0,0E0,0E0,0E0,0E0,0E0,0E0,0E0,0E0,0E0,0E0,0E0,0E0,0E0,0E0,0E0,0E0,0E0,0E0,0E0,0E0,0E0,0E0,0E0,0E0,0E0,0E0,0E0,0E0,0E0,0E0,0E0,0E0,0E0,0E0,0E0,0E0,0E0,0E0],"parents":[2147483647,0,0,1,1,2,2,3,3,4,4,5,5,6,6,7,7,8,8,9,9,10,10,11,11,12,12,13,13,14,14,15,15,16,16,17,17,18,18,19,19,20,20,21,21,22,22,23,23,24,24,25,25,26,26,27,27,28,28,29,29,30,30,34,34,35,35,36,36,37,37,38,38,40,40,41,41,42,42,43,43,44,44,45,45,46,46,47,47,48,48,49,49,50,50,51,51,52,52,53,53,54,54,55,55,56,56,57,57,58,58,59,59,60,60,62,62],"right_children":[2,4,6,8,10,12,14,16,18,20,22,24,26,28,30,32,34,36,38,40,42,44,46,48,50,52,54,56,58,60,62,-1,-1,-1,64,66,68,70,72,-1,74,76,78,80,82,84,86,88,90,92,94,96,98,100,102,104,106,108,110,112,114,-1,116,-1,-1,-1,-1,-1,-1,-1,-1,-1,-1,-1,-1,-1,-1,-1,-1,-1,-1,-1,-1,-1,-1,-1,-1,-1,-1,-1,-1,-1,-1,-1,-1,-1,-1,-1,-1,-1,-1,-1,-1,-1,-1,-1,-1,-1,-1,-1,-1,-1,-1,-1,-1,-1,-1],"split_conditions":[2.2360126E1,1.1032553E1,1.0011197E3,9.639363E2,9.157861E2,3.31217E1,3.579125E1,3.0133696E0,4.1777167E0,5.8947314E2,1.2407799E3,7.102762E2,6.455155E2,2.9379293E1,1.3107305E3,1.0838348E4,6.995716E2,1.2771859E3,1.2096714E3,2.034024E1,1.626056E1,1.5209936E1,1.8600904E1,2.5828632E1,1.2831723E4,4.234436E1,4.503509E1,1.2687642E3,1.2549402E3,4.582446E1,3.8275646E1,-1.027024E0,-8.2188475E-1,-8.154904E-1,1.2257063E4,1.0952181E4,1.4313951E4,8.48975E3,7.66757E0,-6.497564E-1,9.303372E3,1.4655845E4,1.1235039E4,7.788832E3,1.3167603E4,1.32601185E1,1.3690991E3,1.037125E4,1.2257063E4,8.379988E2,2.5632738E1,3.68201E1,4.807083E1,8.893898E2,8.0490314E2,2.4444891E1,1.2067181E4,3.2048275E1,8.1262593E3,1.0817216E3,1.0817216E3,6.855997E-1,4.3868652E1,-6.9374686E-1,-4.569927E-1,-7.1707433E-1,-5.246225E-1,-5.0041854E-1,-1.5946807E-1,-5.6209284E-1,-4.111311E-1,-3.6261865E-1,-2.3376918E-1,-4.871328E-1,-1.49288E-1,-5.061378E-1,-3.5247765E-2,-3.663492E-1,-2.2060171E-1,-3.7156573E-1,-2.273734E-1,-1.0841586E-1,6.277534E-2,-9.701989E-2,2.231994E-2,1.3798808E-1,2.5565287E-1,-3.491289E-1,-2.1794024E-1,-1.893982E-1,-5.289321E-2,-8.433873E-2,2.2309242E-2,3.844235E-2,1.7258711E-1,-9.101039E-2,5.2205663E-2,1.4808118E-1,2.8055128E-1,2.127317E-1,3.9228562E-1,3.8878897E-1,5.836743E-1,4.7370635E-2,2.1140645E-1,3.603213E-1,5.4643744E-1,3.2845283E-1,4.4259357E-1,5.031423E-1,6.4280933E-1,4.9733067E-1,6.6188604E-1,6.850522E-1,8.8659924E-1,8.9154214E-1,1.070088E0],"split_indices":[0,0,1,1,1,0,0,0,0,1,1,1,1,0,1,2,1,1,1,0,0,0,0,0,2,0,0,1,1,0,0,0,0,0,2,2,2,2,0,0,2,2,2,2,2,0,1,2,2,1,0,0,0,1,1,0,2,0,2,1,1,0,0,0,0,0,0,0,0,0,0,0,0,0,0,0,0,0,0,0,0,0,0,0,0,0,0,0,0,0,0,0,0,0,0,0,0,0,0,0,0,0,0,0,0,0,0,0,0,0,0,0,0,0,0,0,0],"split_type":[0,0,0,0,0,0,0,0,0,0,0,0,0,0,0,0,0,0,0,0,0,0,0,0,0,0,0,0,0,0,0,0,0,0,0,0,0,0,0,0,0,0,0,0,0,0,0,0,0,0,0,0,0,0,0,0,0,0,0,0,0,0,0,0,0,0,0,0,0,0,0,0,0,0,0,0,0,0,0,0,0,0,0,0,0,0,0,0,0,0,0,0,0,0,0,0,0,0,0,0,0,0,0,0,0,0,0,0,0,0,0,0,0,0,0,0,0],"sum_hessian":[3.179E3,1.425E3,1.754E3,7.16E2,7.09E2,9.04E2,8.5E2,3.47E2,3.69E2,2.98E2,4.11E2,3.5E2,5.54E2,4.16E2,4.34E2,9.9E1,2.48E2,1.41E2,2.28E2,5.8E1,2.4E2,2.36E2,1.75E2,1.38E2,2.12E2,1.63E2,3.91E2,1.98E2,2.18E2,2.74E2,1.6E2,6.3E1,3.6E1,1.12E2,1.36E2,8.9E1,5.2E1,1.1E2,1.18E2,4.7E1,1.1E1,1.06E2,1.34E2,7.8E1,1.58E2,1.2E2,5.5E1,3.5E1,1.03E2,1.81E2,3.1E1,9.1E1,7.2E1,2.77E2,1.14E2,1.16E2,8.2E1,1.23E2,9.5E1,1.92E2,8.2E1,2.9E1,1.31E2,1.13E2,2.3E1,6.2E1,2.7E1,4.9E1,3E0,4.6E1,6.4E1,5.8E1,6E1,8E0,3E0,1.03E2,3E0,9.9E1,3.5E1,3E1,4.8E1,1.35E2,2.3E1,4E1,8E1,2.1E1,3.4E1,2.6E1,9E0,7.4E1,2.9E1,9.5E1,8.6E1,9E0,2.2E1,3.4E1,5.7E1,5E1,2.2E1,1.8E2,9.7E1,6.3E1,5.1E1,3.2E1,8.4E1,6.8E1,1.4E1,5E1,7.3E1,4.1E1,5.4E1,5.3E1,1.39E2,2.7E1,5.5E1,7.1E1,6E1],"tree_param":{"num_deleted":"0","num_feature":"4","num_nodes":"117","size_leaf_vector":"1"}},{"base_weights":[7.590585E-2,-3.8303251E0,3.3040626E0,-5.534112E0,-1.8607304E0,1.2323385E0,5.4051447E0,-6.7586384E0,-3.787925E0,-3.5190563E0,-2.6401561E-1,-4.4886675E-1,2.5553606E0,3.7858279E0,7.254198E0,-7.6332135E0,-5.4475183E0,-4.45092E0,-2.3276358E0,-4.639969E0,-2.770506E0,-1.0710335E0,7.5505936E-1,-1.1887959E0,7.472114E-1,1.0934807E0,3.3915725E0,2.5297651E0,4.63031E0,5.796872E0,8.310939E0,-8.26558E0,-6.6463275E0,-6.28183E0,-4.3584514E0,-5.130939E0,-3.7902913E0,-1.0217837E0,-2.8001966E0,-5.341007E0,-3.2262888E0,-3.2194622E0,-1.4541856E0,-1.6865479E0,1.6546464E-1,-1.3725764E-1,1.6160983E0,1.037205E0,-1.405462E0,7.727528E-2,1.7217531E0,-6.316752E-1,1.4524974E0,2.840127E0,4.4212866E0,1.7094654E0,3.6350589E0,3.1134596E0,5.216329E0,5.2598944E0,6.9216733E0,7.7901745E0,9.7804874E-1,-9.0900654E-1,-7.580149E-1,-5.272152E-1,-7.2343034E-1,-4.3280402E-1,-6.643479E-1,-2.265849E-1,-4.4890895E-1,-4.1794822E-1,-5.520801E-1,-4.0701452E-1,-2.3257084E-1,-1.9735649E-1,-6.83338E-2,-3.1284878E-1,-1.3878423E-1,-4.1775495E-1,-5.8879036E-1,1.0316365E-1,-3.346057E-1,-8.678966E-2,-3.3998922E-1,-3.1719618E-2,-1.8516384E-1,1.5695112E-2,-1.895362E-1,9.2380576E-2,-1.20277135E-2,-9.705956E-2,3.6699362E-2,3.099708E-1,1.2415632E-1,-2.6859477E-2,1.8097046E-1,-2.0015696E-1,-7.622981E-2,1.0432508E-1,-1.13078775E-2,9.1902845E-2,2.1807961E-1,-1.0002499E-1,2.692141E-2,2.529405E-1,1.0407343E-1,2.2049308E-1,3.8075957E-1,3.4881815E-1,5.193219E-1,3.5950523E-2,1.9658071E-1,4.360052E-1,2.8729212E-1,2.3647912E-1,4.005611E-1,4.7513556E-1,6.6574067E-1,4.485987E-1,5.6376624E-1,6.982208E-1,1.836942E-1,7.079386E-1,8.7741035E-1],"categories":[],"categories_nodes":[],"categories_segments":[],"categories_sizes":[],"default_left":[0,0,0,0,0,0,0,0,0,0,0,0,0,0,0,0,0,0,0,0,0,0,0,0,0,0,0,0,0,0,0,0,0,0,0,0,0,0,0,0,0,0,0,0,0,0,0,0,0,0,0,0,0,0,0,0,0,0,0,0,0,0,0,0,0,0,0,0,0,0,0,0,0,0,0,0,0,0,0,0,0,0,0,0,0,0,0,0,0,0,0,0,0,0,0,0,0,0,0,0,0,0,0,0,0,0,0,0,0,0,0,0,0,0,0,0,0,0,0,0,0,0,0,0,0],"id":12,"left_children":[1,3,5,7,9,11,13,15,17,19,21,23,25,27,29,31,33,35,37,39,41,43,45,47,49,51,53,55,57,59,61,63,65,67,69,71,73,75,77,79,81,83,85,87,89,91,93,95,97,99,101,103,105,107,109,111,113,115,117,119,121,123,-1,-1,-1,-1,-1,-1,-1,-1,-1,-1,-1,-1,-1,-1,-1,-1,-1,-1,-1,-1,-1,-1,-1,-1,-1,-1,-1,-1,-1,-1,-1,-1,-1,-1,-1,-1,-1,-1,-1,-1,-1,-1,-1,-1,-1,-1,-1,-1,-1,-1,-1,-1,-1,-1,-1,-1,-1,-1,-1,-1,-1,-1,-1],"loss_changes":[4.0465242E4,4.861541E3,7.6406543E3,1.6369043E3,1.7860071E3,1.9720624E3,2.582377E3,4.7999414E2,3.016792E2,2.641328E2,2.8457233E2,3.4697256E2,6.021738E2,4.8292822E2,5.756582E2,1.1269531E2,1.4056006E2,7.894238E1,6.031732E1,1.11738525E2,1.1363599E2,1.4732005E2,1.1792261E2,1.1821097E2,9.761914E1,1.1372307E2,1.6558398E2,1.6551929E2,2.3004102E2,6.746924E1,1.00362305E2,2.041504E1,5.029541E1,4.292798E1,1.2116333E1,1.52751465E1,3.7439087E1,7.72736E0,2.9981262E1,2.9117432E1,2.7141663E1,5.9842163E1,2.314647E1,5.01297E1,1.42762985E1,3.2352654E1,3.905916E1,2.2832243E1,8.29281E1,1.675995E1,2.0163422E1,1.0967824E1,6.3968567E1,1.1882605E2,5.8808594E1,3.747238E1,3.0954102E1,4.3324524E1,1.00569824E2,9.364746E0,2.605957E0,6.0086914E1,0E0,0E0,0E0,0E0,0E0,0E0,0E0,0E0,0E0,0E0,0E0,0E0,0E0,0E0,0E0,0E0,0E0,0E0,0E0,0E0,0E0,0E0,0E0,0E0,0E0,0E0,0E0,0E0,0E0,0E0,0E0,0E0,0E0,0E0,0E0,0E0,0E0,0E0,0E0,0E0,0E0,0E0,0E0,0E0,0E0,0E0,0E0,0E0,0E0,0E0,0E0,0E0,0E0,0E0,0E0,0E0,0E0,0E0,0E0,0E0,0E0,0E0,0E0],"parents":[2147483647,0,0,1,1,2,2,3,3,4,4,5,5,6,6,7,7,8,8,9,9,10,10,11,11,12,12,13,13,14,14,15,15,16,16,17,17,18,18,19,19,20,20,21,21,22,22,23,23,24,24,25,25,26,26,27,27,28,28,29,29,30,30,31,31,32,32,33,33,34,34,35,35,36,36,37,37,38,38,39,39,40,40,41,41,42,42,43,43,44,44,45,45,46,46,47,47,48,48,49,49,50,50,51,51,52,52,53,53,54,54,55,55,56,56,57,57,58,58,59,59,60,60,61,61],"right_children":[2,4,6,8,10,12,14,16,18,20,22,24,26,28,30,32,34,36,38,40,42,44,46,48,50,52,54,56,58,60,62,64,66,68,70,72,74,76,78,80,82,84,86,88,90,92,94,96,98,100,102,104,106,108,110,112,114,116,118,120,122,124,-1,-1,-1,-1,-1,-1,-1,-1,-1,-1,-1,-1,-1,-1,-1,-1,-1,-1,-1,-1,-1,-1,-1,-1,-1,-1,-1,-1,-1,-1,-1,-1,-1,-1,-1,-1,-1,-1,-1,-1,-1,-1,-1,-1,-1,-1,-1,-1,-1,-1,-1,-1,-1,-1,-1,-1,-1,-1,-1,-1,-1,-1,-1],"split_conditions":[2.3077873E1,1.1846666E1,1.0011197E3,1.0548068E3,9.915142E2,3.4751762E1,3.748259E1,6.9185796E0,7.66757E0,6.995716E2,1.7540955E1,8.166024E2,6.7282007E2,1.2015653E3,1.1933776E3,8.3295026E2,8.3295026E2,3.892826E0,6.5556245E3,1.962291E1,2.034024E1,1.3276102E3,1.2407799E3,4.267405E3,3.039526E1,3.7777557E1,4.4838272E1,3.102369E1,2.806114E1,4.582446E1,4.6587685E1,3.0133696E0,7.4751855E3,4.9963525E3,3.8813362E3,5.9060654E3,1.4243544E3,1.1628597E3,1.4030975E3,8.086295E3,3.050366E3,3.531987E3,5.7294976E3,4.2289575E3,5.034696E3,1.9756887E1,3.999631E3,2.8286598E1,2.916959E1,4.9963525E3,8.893898E2,6.128405E2,6.508169E3,8.8198004E2,7.963481E2,2.4444891E1,8.501611E3,1.4030975E3,1.4243544E3,1.0654159E3,1.4847786E4,1.375933E3,9.7804874E-1,-9.0900654E-1,-7.580149E-1,-5.272152E-1,-7.2343034E-1,-4.3280402E-1,-6.643479E-1,-2.265849E-1,-4.4890895E-1,-4.1794822E-1,-5.520801E-1,-4.0701452E-1,-2.3257084E-1,-1.9735649E-1,-6.83338E-2,-3.1284878E-1,-1.3878423E-1,-4.1775495E-1,-5.8879036E-1,1.0316365E-1,-3.346057E-1,-8.678966E-2,-3.3998922E-1,-3.1719618E-2,-1.8516384E-1,1.5695112E-2,-1.895362E-1,9.2380576E-2,-1.20277135E-2,-9.705956E-2,3.6699362E-2,3.099708E-1,1.2415632E-1,-2.6859477E-2,1.8097046E-1,-2.0015696E-1,-7.622981E-2,1.0432508E-1,-1.13078775E-2,9.1902845E-2,2.1807961E-1,-1.0002499E-1,2.692141E-2,2.529405E-1,1.0407343E-1,2.2049308E-1,3.8075957E-1,3.4881815E-1,5.193219E-1,3.5950523E-2,1.9658071E-1,4.360052E-1,2.8729212E-1,2.3647912E-1,4.005611E-1,4.7513556E-1,6.6574067E-1,4.485987E-1,5.6376624E-1,6.982208E-1,1.836942E-1,7.079386E-1,8.7741035E-1],"split_indices":[0,0,1,1,1,0,0,0,0,1,0,1,1,1,1,1,1,0,3,0,0,1,1,3,0,0,0,0,0,0,0,0,3,3,3,3,1,1,1,3,3,3,3,3,3,0,3,0,0,3,1,1,3,1,1,0,3,1,1,1,3,1,0,0,0,0,0,0,0,0,0,0,0,0,0,0,0,0,0,0,0,0,0,0,0,0,0,0,0,0,0,0,0,0,0,0,0,0,0,0,0,0,0,0,0,0,0,0,0,0,0,0,0,0,0,0,0,0,0,0,0,0,0,0,0],"split_type":[0,0,0,0,0,0,0,0,0,0,0,0,0,0,0,0,0,0,0,0,0,0,0,0,0,0,0,0,0,0,0,0,0,0,0,0,0,0,0,0,0,0,0,0,0,0,0,0,0,0,0,0,0,0,0,0,0,0,0,0,0,0,0,0,0,0,0,0,0,0,0,0,0,0,0,0,0,0,0,0,0,0,0,0,0,0,0,0,0,0,0,0,0,0,0,0,0,0,0,0,0,0,0,0,0,0,0,0,0,0,0,0,0,0,0,0,0,0,0,0,0,0,0,0,0],"sum_hessian":[3.207E3,1.451E3,1.756E3,7.77E2,6.74E2,8.85E2,8.71E2,4.55E2,3.22E2,3.3E2,3.44E2,3.9E2,4.95E2,4.66E2,4.05E2,2.7E2,1.85E2,2.2E2,1.02E2,1.3E2,2E2,1.92E2,1.52E2,2.41E2,1.49E2,1.81E2,3.14E2,1.89E2,2.77E2,1.73E2,2.32E2,1.6E2,1.1E2,1.02E2,8.3E1,1.05E2,1.15E2,2.8E1,7.4E1,8.5E1,4.5E1,1.48E2,5.2E1,1.28E2,6.4E1,7.5E1,7.7E1,2.1E1,2.2E2,8.9E1,6E1,3.1E1,1.5E2,2.07E2,1.07E2,1.1E2,7.9E1,7.9E1,1.98E2,1.21E2,5.2E1,1.76E2,5.6E1,6.7E1,9.3E1,3.6E1,7.4E1,1.8E1,8.4E1,6E0,7.7E1,3.4E1,7.1E1,9.5E1,2E1,6E0,2.2E1,5.9E1,1.5E1,3E1,5.5E1,1E0,4.4E1,1.1E1,1.37E2,1.4E1,3.8E1,1.3E1,1.15E2,1.7E1,4.7E1,2.8E1,4.7E1,1.4E1,6.3E1,8E0,1.3E1,1.13E2,1.07E2,1.4E1,7.5E1,2.3E1,3.7E1,2.2E1,9E0,4E1,1.1E2,1.27E2,8E1,5.1E1,5.6E1,1.8E1,9.2E1,3.8E1,4.1E1,4.5E1,3.4E1,1.53E2,4.5E1,4.4E1,7.7E1,5.1E1,1E0,1.07E2,6.9E1],"tree_param":{"num_deleted":"0","num_feature":"4","num_nodes":"125","size_leaf_vector":"1"}},{"base_weights":[-2.042496E-2,-1.7884569E0,1.5945973E0,-2.7198784E0,-1.1884464E0,4.949583E-1,2.3083441E0,-1.2152472E0,-2.9459372E0,-1.5431999E0,-1.6299962E-1,1.0634294E0,-1.7988022E-1,1.212474E0,2.6548758E0,-2.0479472E0,1.5606811E0,-4.196757E0,-2.741817E0,-2.000063E0,-6.8309563E-1,3.4537692E0,-4.187753E-1,-1.7451888E-1,1.6480137E0,-3.2762408E-1,1.1721766E0,-2.0993862E0,1.3044347E0,2.2252984E0,3.76933E0,-3.0641062E0,-4.1746733E-1,-1.5657699E-1,4.5412064E-1,-5.701849E0,-3.5352452E0,-2.0062912E0,-2.982197E0,1.4875822E-1,-2.153412E0,-1.407884E0,-5.7451446E-2,4.1308455E0,3.6482915E-1,-1.2036108E-1,-2.7057939E0,-3.783151E0,-4.4350322E-2,1.2902757E0,2.9109888E0,-1.9955248E-1,-1.939156E0,2.2920518E0,-9.614307E-1,1.9441597E-1,-3.1140038E-1,7.407405E-1,1.6743923E0,2.7920718E0,1.6420056E0,3.9584029E0,-4.546846E-1,-5.181953E-1,-2.1190913E-1,-0E0,-3.4971517E-1,-1.9336742E-1,5.599196E-2,-6.025018E-1,-2.8779203E-1,-5.0512798E-2,-3.844723E-1,-3.3575848E-1,-1.5261307E-1,-2.908098E-1,-6.045713E-1,-1.3981304E-1,7.5194255E-2,-2.4406826E-1,-1.6950871E-1,-2.0107572E-1,-6.969352E-2,3.9812308E-2,-1.9164301E-1,3.9589137E-2,4.4007674E-1,1.3714163E-1,-1.2774661E-1,-2.476172E-2,4.0400654E-1,-3.397955E-1,-3.2736238E-2,-5.3141165E-1,3.548729E-2,2.3353212E-1,-2.737E-2,2.7612758E-1,1.0110102E-1,4.184962E-1,1.6204788E-1,-1.0898544E-1,6.1745825E-3,7.1353264E-2,-2.1215887E-1,3.1697565E-1,-1.986206E-1,-4.164414E-3,-3.3669803E-1,1.6969468E-2,2.1383286E-1,1.9740775E-1,-6.746718E-2,1.8364757E-1,3.0808553E-1,4.1752177E-1,1.5315305E-1,3.3563432E-1,5.086254E-1,4.9507942E-2,-1.5234645E-1],"categories":[],"categories_nodes":[],"categories_segments":[],"categories_sizes":[],"default_left":[0,0,0,0,0,0,0,0,0,0,0,0,0,0,0,0,0,0,0,0,0,0,0,0,0,0,0,0,0,0,0,0,0,0,0,0,0,0,0,0,0,0,0,0,0,0,0,0,0,0,0,0,0,0,0,0,0,0,0,0,0,0,0,0,0,0,0,0,0,0,0,0,0,0,0,0,0,0,0,0,0,0,0,0,0,0,0,0,0,0,0,0,0,0,0,0,0,0,0,0,0,0,0,0,0,0,0,0,0,0,0,0,0,0,0,0,0,0,0,0,0],"id":13,"left_children":[1,3,5,7,9,11,13,15,17,19,21,23,25,27,29,31,33,35,37,39,41,43,45,47,49,51,53,55,57,59,61,63,65,67,-1,69,71,73,75,77,79,81,83,85,87,89,91,93,95,97,99,101,103,105,107,-1,-1,109,111,113,115,117,119,-1,-1,-1,-1,-1,-1,-1,-1,-1,-1,-1,-1,-1,-1,-1,-1,-1,-1,-1,-1,-1,-1,-1,-1,-1,-1,-1,-1,-1,-1,-1,-1,-1,-1,-1,-1,-1,-1,-1,-1,-1,-1,-1,-1,-1,-1,-1,-1,-1,-1,-1,-1,-1,-1,-1,-1,-1,-1],"loss_changes":[9.157318E3,8.519961E2,1.3140088E3,1.9974463E2,3.3898535E2,2.5385652E2,3.8222412E2,1.8816614E2,1.2056445E2,2.706798E2,2.2408751E2,2.6023798E2,6.0826286E1,7.758096E1,3.60125E2,1.0109592E2,9.83978E1,4.960901E1,7.308032E1,1.4946399E2,1.095098E2,3.150653E1,1.5363193E2,5.3938198E1,1.0606659E2,5.5950443E1,7.401793E1,3.4889675E1,4.856848E1,1.7977417E2,1.7226172E2,6.434192E1,3.233323E1,1.7772772E1,0E0,2.2277832E-2,4.638617E1,6.835498E1,5.8023438E1,2.9911522E1,5.1010986E1,4.6332413E1,1.1185913E2,1.0884018E1,8.373785E0,1.07038536E2,4.131781E1,2.772245E1,6.2105804E1,7.570462E1,7.977374E1,5.9491867E1,1.1333366E1,8.151508E1,2.385744E1,0E0,0E0,7.6820755E1,1.0283487E2,7.167139E1,7.083502E1,1.2060742E2,1.1007961E1,0E0,0E0,0E0,0E0,0E0,0E0,0E0,0E0,0E0,0E0,0E0,0E0,0E0,0E0,0E0,0E0,0E0,0E0,0E0,0E0,0E0,0E0,0E0,0E0,0E0,0E0,0E0,0E0,0E0,0E0,0E0,0E0,0E0,0E0,0E0,0E0,0E0,0E0,0E0,0E0,0E0,0E0,0E0,0E0,0E0,0E0,0E0,0E0,0E0,0E0,0E0,0E0,0E0,0E0,0E0,0E0,0E0,0E0],"parents":[2147483647,0,0,1,1,2,2,3,3,4,4,5,5,6,6,7,7,8,8,9,9,10,10,11,11,12,12,13,13,14,14,15,15,16,16,17,17,18,18,19,19,20,20,21,21,22,22,23,23,24,24,25,25,26,26,27,27,28,28,29,29,30,30,31,31,32,32,33,33,35,35,36,36,37,37,38,38,39,39,40,40,41,41,42,42,43,43,44,44,45,45,46,46,47,47,48,48,49,49,50,50,51,51,52,52,53,53,54,54,57,57,58,58,59,59,60,60,61,61,62,62],"right_children":[2,4,6,8,10,12,14,16,18,20,22,24,26,28,30,32,34,36,38,40,42,44,46,48,50,52,54,56,58,60,62,64,66,68,-1,70,72,74,76,78,80,82,84,86,88,90,92,94,96,98,100,102,104,106,108,-1,-1,110,112,114,116,118,120,-1,-1,-1,-1,-1,-1,-1,-1,-1,-1,-1,-1,-1,-1,-1,-1,-1,-1,-1,-1,-1,-1,-1,-1,-1,-1,-1,-1,-1,-1,-1,-1,-1,-1,-1,-1,-1,-1,-1,-1,-1,-1,-1,-1,-1,-1,-1,-1,-1,-1,-1,-1,-1,-1,-1,-1,-1,-1],"split_conditions":[9.639363E2,6.880411E2,1.1628597E3,4.745792E3,1.1612433E4,9.305871E3,4.856754E3,1.2434785E4,4.0557244E3,8.598249E2,3.8315117E3,6.402316E3,1.39715205E4,1.1709747E3,1.4077612E3,6.018788E2,5.8947314E2,7.6579375E3,7.4751855E3,3.5705713E3,6.2227134E3,1.4463663E4,1.4008344E4,3.3154172E3,1.3042489E4,1.3042489E4,1.4570806E4,2.1140718E3,1.3011715E3,9.396946E3,1.4441124E4,4.500461E3,6.774818E2,5.084515E2,4.5412064E-1,3.7881775E3,8.214032E3,5.4481035E3,1.4847786E4,3.1386753E3,7.9087683E2,9.091826E2,9.4994366E2,1.1774392E4,8.2450665E2,9.5341626E2,1.4691267E4,3.7881775E3,3.702086E3,7.392799E3,5.7294976E3,1.0748326E4,9.8071405E2,1.1144995E3,1.3945631E4,1.9441597E-1,-3.1140038E-1,4.1273438E3,4.6126626E3,7.392799E3,5.1825166E3,1.2029304E4,1.4597218E4,-5.181953E-1,-2.1190913E-1,-0E0,-3.4971517E-1,-1.9336742E-1,5.599196E-2,-6.025018E-1,-2.8779203E-1,-5.0512798E-2,-3.844723E-1,-3.3575848E-1,-1.5261307E-1,-2.908098E-1,-6.045713E-1,-1.3981304E-1,7.5194255E-2,-2.4406826E-1,-1.6950871E-1,-2.0107572E-1,-6.969352E-2,3.9812308E-2,-1.9164301E-1,3.9589137E-2,4.4007674E-1,1.3714163E-1,-1.2774661E-1,-2.476172E-2,4.0400654E-1,-3.397955E-1,-3.2736238E-2,-5.3141165E-1,3.548729E-2,2.3353212E-1,-2.737E-2,2.7612758E-1,1.0110102E-1,4.184962E-1,1.6204788E-1,-1.0898544E-1,6.1745825E-3,7.1353264E-2,-2.1215887E-1,3.1697565E-1,-1.986206E-1,-4.164414E-3,-3.3669803E-1,1.6969468E-2,2.1383286E-1,1.9740775E-1,-6.746718E-2,1.8364757E-1,3.0808553E-1,4.1752177E-1,1.5315305E-1,3.3563432E-1,5.086254E-1,4.9507942E-2,-1.5234645E-1],"split_indices":[1,1,1,3,2,3,2,2,2,1,3,2,2,1,1,1,1,3,3,3,2,2,3,3,2,2,2,2,1,3,3,2,1,1,0,2,3,3,3,3,1,1,1,2,1,1,3,2,3,2,3,3,1,1,3,0,0,2,2,2,2,2,3,0,0,0,0,0,0,0,0,0,0,0,0,0,0,0,0,0,0,0,0,0,0,0,0,0,0,0,0,0,0,0,0,0,0,0,0,0,0,0,0,0,0,0,0,0,0,0,0,0,0,0,0,0,0,0,0,0,0],"split_type":[0,0,0,0,0,0,0,0,0,0,0,0,0,0,0,0,0,0,0,0,0,0,0,0,0,0,0,0,0,0,0,0,0,0,0,0,0,0,0,0,0,0,0,0,0,0,0,0,0,0,0,0,0,0,0,0,0,0,0,0,0,0,0,0,0,0,0,0,0,0,0,0,0,0,0,0,0,0,0,0,0,0,0,0,0,0,0,0,0,0,0,0,0,0,0,0,0,0,0,0,0,0,0,0,0,0,0,0,0,0,0,0,0,0,0,0,0,0,0,0,0],"sum_hessian":[3.205E3,1.53E3,1.675E3,5.98E2,9.32E2,6.6E2,1.015E3,7.9E1,5.19E2,6.92E2,2.4E2,3.58E2,3.02E2,2.45E2,7.7E2,6.1E1,1.8E1,7E1,4.49E2,4.51E2,2.41E2,1.5E1,2.25E2,1.15E2,2.43E2,2.73E2,2.9E1,6E0,2.39E2,5.58E2,2.12E2,3.7E1,2.4E1,1.2E1,6E0,1.9E1,5.1E1,1.13E2,3.36E2,3E1,4.21E2,1.11E2,1.3E2,1.2E1,3E0,2E2,2.5E1,3E0,1.12E2,1.91E2,5.2E1,2.54E2,1.9E1,1.9E1,1E1,1E0,5E0,9.6E1,1.43E2,2.81E2,2.77E2,2.03E2,9E0,1E1,2.7E1,2.2E1,2E0,3E0,9E0,1.6E1,3E0,5E0,4.6E1,2.8E1,8.5E1,3.3E2,6E0,8E0,2.2E1,2.56E2,1.65E2,5.9E1,5.2E1,1.05E2,2.5E1,1E0,1.1E1,2E0,1E0,1.95E2,5E0,1.9E1,6E0,2E0,1E0,9E0,1.03E2,2.9E1,1.62E2,2.5E1,2.7E1,5.7E1,1.97E2,1E0,1.8E1,1.6E1,3E0,8E0,2E0,6.9E1,2.7E1,1.27E2,1.6E1,6.7E1,2.14E2,1E1,2.67E2,1.35E2,6.8E1,5E0,4E0],"tree_param":{"num_deleted":"0","num_feature":"4","num_nodes":"121","size_leaf_vector":"1"}},{"base_weights":[-1.9004526E-2,-3.4937954E0,2.842309E0,-5.4329667E0,-2.031545E0,1.2030084E0,4.241349E0,-6.6393585E0,-4.9743614E0,-3.1594605E0,-1.3044649E0,3.8109946E-1,1.8794445E0,3.4744833E0,5.2500305E0,-7.203025E0,-5.474229E0,-4.41466E0,-5.61461E0,-3.720587E0,-2.4785438E0,-4.9281606E-1,-1.7231721E0,1.8544322E-2,1.0653096E0,2.6092799E0,1.4627669E0,4.545265E0,3.1069937E0,4.4574933E0,5.9162326E0,-4.4558403E-1,-7.345495E-1,-4.2734313E0,-5.9352717E0,-5.2502036E0,-3.8000019E0,-6.0563487E-1,-5.024371E-1,-1.927747E0,-3.840135E0,-1.5295717E0,-2.913406E0,-1.5932264E0,1.6699575E-1,-2.1830173E0,-1.1143852E0,6.409581E-1,-1.4722346E-1,1.8384928E0,5.380674E-1,1.7428687E0,3.182689E0,1.041471E0,1.970595E0,3.4836493E0,5.0308595E0,2.609186E0,3.7357438E0,4.1273823E0,5.274318E-1,7.1599145E0,5.482911E0,-4.3797904E-1,-1.0763047E-1,-6.081544E-1,-2.0707355E-1,-5.747269E-1,-4.2189464E-1,-3.166705E-1,-4.4229674E-1,-3.2638842E-1,-1.3790055E-1,-2.6839468E-1,-3.9217785E-1,-2.0297499E-1,-6.277243E-2,-3.2979175E-1,-2.3993306E-1,-2.1234572E-1,-5.2830707E-2,-2.3471398E-2,1.3410388E-1,-2.5099084E-1,-1.8755975E-1,-1.5788615E-1,-6.823951E-2,2.7754059E-2,1.7906033E-1,-8.516956E-2,-3.0447876E-3,7.6507024E-2,2.448804E-1,1.9313812E-2,1.5755811E-1,1.105897E-1,2.6182762E-1,1.9558173E-1,3.4237275E-1,8.243374E-2,2.0165797E-1,1.547515E-1,2.4686857E-1,3.8260478E-1,2.1863496E-1,5.080497E-1,2.3173066E-2,2.247931E-1,2.8246504E-1,2.9432473E-1,4.1365394E-1,5.04891E-1,3.8180587E-1,3.956041E-1,7.4091506E-1,5.0068563E-1,6.180162E-1],"categories":[],"categories_nodes":[],"categories_segments":[],"categories_sizes":[],"default_left":[0,0,0,0,0,0,0,0,0,0,0,0,0,0,0,0,0,0,0,0,0,0,0,0,0,0,0,0,0,0,0,0,0,0,0,0,0,0,0,0,0,0,0,0,0,0,0,0,0,0,0,0,0,0,0,0,0,0,0,0,0,0,0,0,0,0,0,0,0,0,0,0,0,0,0,0,0,0,0,0,0,0,0,0,0,0,0,0,0,0,0,0,0,0,0,0,0,0,0,0,0,0,0,0,0,0,0,0,0,0,0,0,0,0,0,0,0],"id":14,"left_children":[1,3,5,7,9,11,13,15,17,19,21,23,25,27,29,31,33,35,37,39,41,43,45,47,49,51,53,55,57,59,61,-1,-1,63,65,67,69,-1,-1,71,73,75,77,79,81,83,85,87,89,91,93,95,97,99,101,103,105,107,109,111,-1,113,115,-1,-1,-1,-1,-1,-1,-1,-1,-1,-1,-1,-1,-1,-1,-1,-1,-1,-1,-1,-1,-1,-1,-1,-1,-1,-1,-1,-1,-1,-1,-1,-1,-1,-1,-1,-1,-1,-1,-1,-1,-1,-1,-1,-1,-1,-1,-1,-1,-1,-1,-1,-1,-1,-1],"loss_changes":[3.1835832E4,4.0884258E3,4.0216484E3,3.0938477E2,6.728225E2,4.4939246E2,7.1341016E2,6.963379E1,1.3690039E2,1.1357031E2,1.7021008E2,9.091131E1,1.307992E2,1.9799756E2,1.874834E2,9.143066E0,6.2788086E0,1.0599707E2,2.2694824E1,2.952832E1,5.6587646E1,1.26017715E2,9.0180115E1,2.500919E1,5.0545258E1,7.344971E1,5.8621033E1,5.1732666E1,1.16694824E2,2.8522705E1,7.6961914E1,0E0,0E0,1.5412292E0,9.202515E0,2.704126E1,4.2834717E1,0E0,0E0,4.5663185E0,4.199707E0,2.0563263E1,1.1481934E1,3.531543E1,5.183246E1,1.3746582E1,2.7790588E1,2.0604074E1,1.5598496E1,3.1216309E1,2.707472E1,3.3534286E1,2.085962E1,3.150673E1,2.2751831E1,1.1466553E1,1.9969482E1,1.1045898E1,4.3337646E1,1.9743164E1,0E0,1.1874512E1,2.3038574E1,0E0,0E0,0E0,0E0,0E0,0E0,0E0,0E0,0E0,0E0,0E0,0E0,0E0,0E0,0E0,0E0,0E0,0E0,0E0,0E0,0E0,0E0,0E0,0E0,0E0,0E0,0E0,0E0,0E0,0E0,0E0,0E0,0E0,0E0,0E0,0E0,0E0,0E0,0E0,0E0,0E0,0E0,0E0,0E0,0E0,0E0,0E0,0E0,0E0,0E0,0E0,0E0,0E0,0E0],"parents":[2147483647,0,0,1,1,2,2,3,3,4,4,5,5,6,6,7,7,8,8,9,9,10,10,11,11,12,12,13,13,14,14,15,15,16,16,17,17,18,18,19,19,20,20,21,21,22,22,23,23,24,24,25,25,26,26,27,27,28,28,29,29,30,30,33,33,34,34,35,35,36,36,39,39,40,40,41,41,42,42,43,43,44,44,45,45,46,46,47,47,48,48,49,49,50,50,51,51,52,52,53,53,54,54,55,55,56,56,57,57,58,58,59,59,61,61,62,62],"right_children":[2,4,6,8,10,12,14,16,18,20,22,24,26,28,30,32,34,36,38,40,42,44,46,48,50,52,54,56,58,60,62,-1,-1,64,66,68,70,-1,-1,72,74,76,78,80,82,84,86,88,90,92,94,96,98,100,102,104,106,108,110,112,-1,114,116,-1,-1,-1,-1,-1,-1,-1,-1,-1,-1,-1,-1,-1,-1,-1,-1,-1,-1,-1,-1,-1,-1,-1,-1,-1,-1,-1,-1,-1,-1,-1,-1,-1,-1,-1,-1,-1,-1,-1,-1,-1,-1,-1,-1,-1,-1,-1,-1,-1,-1,-1,-1,-1,-1],"split_conditions":[2.2360126E1,9.222953E0,3.518499E1,2.5286553E0,1.4462238E1,2.8678164E1,4.3395916E1,1.01736875E4,9.631615E3,8.941436E3,6.9634443E3,9.9129375E3,7.6579375E3,6.164379E3,7.618952E3,3.673579E3,5.9060654E3,7.691394E3,5.940896E0,3.8813362E3,7.056509E3,6.86897E3,1.8998955E1,6.208051E3,7.6064995E3,7.4774175E3,3.2048275E1,6.1157524E3,4.0109848E1,4.807083E1,6.208051E3,-4.4558403E-1,-7.345495E-1,1.4717503E4,1.4691267E4,6.9185796E0,6.249986E3,-6.0563487E-1,-5.024371E-1,2.2740486E3,2.434239E3,1.2434785E4,1.2007281E1,1.9216331E1,1.2725506E4,1.6702497E1,7.8833384E3,7.310336E3,7.4751855E3,2.5284838E1,2.7284798E1,3.24159E1,2.9761486E1,1.3129239E4,9.406202E3,5.516098E3,4.322818E1,6.75028E3,6.558441E3,6.473636E3,5.274318E-1,4.4304672E1,1.2308917E4,-4.3797904E-1,-1.0763047E-1,-6.081544E-1,-2.0707355E-1,-5.747269E-1,-4.2189464E-1,-3.166705E-1,-4.4229674E-1,-3.2638842E-1,-1.3790055E-1,-2.6839468E-1,-3.9217785E-1,-2.0297499E-1,-6.277243E-2,-3.2979175E-1,-2.3993306E-1,-2.1234572E-1,-5.2830707E-2,-2.3471398E-2,1.3410388E-1,-2.5099084E-1,-1.8755975E-1,-1.5788615E-1,-6.823951E-2,2.7754059E-2,1.7906033E-1,-8.516956E-2,-3.0447876E-3,7.6507024E-2,2.448804E-1,1.9313812E-2,1.5755811E-1,1.105897E-1,2.6182762E-1,1.9558173E-1,3.4237275E-1,8.243374E-2,2.0165797E-1,1.547515E-1,2.4686857E-1,3.8260478E-1,2.1863496E-1,5.080497E-1,2.3173066E-2,2.247931E-1,2.8246504E-1,2.9432473E-1,4.1365394E-1,5.04891E-1,3.8180587E-1,3.956041E-1,7.4091506E-1,5.0068563E-1,6.180162E-1],"split_indices":[0,0,0,0,0,0,0,2,3,2,3,2,3,3,2,3,3,2,0,3,3,2,0,3,3,2,0,2,0,0,3,0,0,2,3,0,3,0,0,2,2,2,0,0,2,0,2,2,3,0,0,0,0,2,2,2,0,2,2,3,0,0,2,0,0,0,0,0,0,0,0,0,0,0,0,0,0,0,0,0,0,0,0,0,0,0,0,0,0,0,0,0,0,0,0,0,0,0,0,0,0,0,0,0,0,0,0,0,0,0,0,0,0,0,0,0,0],"split_type":[0,0,0,0,0,0,0,0,0,0,0,0,0,0,0,0,0,0,0,0,0,0,0,0,0,0,0,0,0,0,0,0,0,0,0,0,0,0,0,0,0,0,0,0,0,0,0,0,0,0,0,0,0,0,0,0,0,0,0,0,0,0,0,0,0,0,0,0,0,0,0,0,0,0,0,0,0,0,0,0,0,0,0,0,0,0,0,0,0,0,0,0,0,0,0,0,0,0,0,0,0,0,0,0,0,0,0,0,0,0,0,0,0,0,0,0,0],"sum_hessian":[3.2E3,1.445E3,1.755E3,6.2E2,8.25E2,8.09E2,9.46E2,1.67E2,4.53E2,3.22E2,5.03E2,3.66E2,4.43E2,5.4E2,4.06E2,1.09E2,5.8E1,2.46E2,2.07E2,1.74E2,1.48E2,1.72E2,3.31E2,2.4E2,1.26E2,1.59E2,2.84E2,1.35E2,4.05E2,1.89E2,2.17E2,7E0,1.02E2,1.9E1,3.9E1,1.01E2,1.45E2,1.13E2,9.4E1,1.2E1,1.62E2,4.8E1,1E2,6.4E1,1.08E2,1.87E2,1.44E2,5E1,1.9E2,5E1,7.6E1,6.5E1,9.4E1,1.57E2,1.27E2,4.5E1,9E1,2.29E2,1.76E2,1.39E2,5E1,5.2E1,1.65E2,1.8E1,1E0,3.7E1,2E0,6.5E1,3.6E1,7.5E1,7E1,2E0,1E1,1.3E1,1.49E2,3E1,1.8E1,5.4E1,4.6E1,4.2E1,2.2E1,8.1E1,2.7E1,8.7E1,1E2,6.8E1,7.6E1,3.9E1,1.1E1,2.6E1,1.64E2,1.9E1,3.1E1,5.8E1,1.8E1,3.9E1,2.6E1,1.7E1,7.7E1,1.3E2,2.7E1,7.1E1,5.6E1,3.4E1,1.1E1,8.9E1,1E0,9E1,1.39E2,6.2E1,1.14E2,3.1E1,1.08E2,5E0,4.7E1,1.03E2,6.2E1],"tree_param":{"num_deleted":"0","num_feature":"4","num_nodes":"117","size_leaf_vector":"1"}},{"base_weights":[2.8105712E-2,-3.1327417E0,2.5479698E0,-4.8165336E0,-1.8002616E0,1.2170845E0,3.943047E0,-6.051118E0,-4.3884153E0,-2.3988826E0,-8.022118E-1,5.7493275E-1,2.1526046E0,2.8380427E0,4.42141E0,-6.4776063E0,-5.100028E0,-4.7116504E0,-3.5592086E0,-2.9438727E0,-1.7978313E0,6.6159743E-1,-9.9217844E-1,-3.397553E-2,1.0489659E0,1.8455006E0,3.107267E0,4.046614E0,2.4811015E0,3.805294E0,4.901618E0,-7.037125E-1,-5.6810822E0,-3.6991768E0,-5.541402E0,-5.033674E0,-4.114881E0,-2.3958335E0,-3.9848454E0,-3.5906243E0,-2.4861126E0,-8.2141775E-1,-2.2049978E0,-1.7766391E0,1.4535431E0,-1.3520311E0,-6.4788E-1,-3.8029113E-1,5.854033E-1,2.041998E0,7.616222E-1,2.4521344E0,1.5555389E0,4.353962E0,2.5506835E0,3.2301116E0,5.098592E-1,3.30727E0,2.3390362E0,3.5757322E0,